{"learner":{"attributes":{},"feature_names":[],"feature_types":[],"gradient_booster":{"model":{"cats":{"enc":[],"feature_segments":[],"sorted_idx":[]},"gbtree_model_param":{"num_parallel_tree":"1","num_trees":"200"},"iteration_indptr":[0,1,2,3,4,5,6,7,8,9,10,11,12,13,14,15,16,17,18,19,20,21,22,23,24,25,26,27,28,29,30,31,32,33,34,35,36,37,38,39,40,41,42,43,44,45,46,47,48,49,50,51,52,53,54,55,56,57,58,59,60,61,62,63,64,65,66,67,68,69,70,71,72,73,74,75,76,77,78,79,80,81,82,83,84,85,86,87,88,89,90,91,92,93,94,95,96,97,98,99,100,101,102,103,104,105,106,107,108,109,110,111,112,113,114,115,116,117,118,119,120,121,122,123,124,125,126,127,128,129,130,131,132,133,134,135,136,137,138,139,140,141,142,143,144,145,146,147,148,149,150,151,152,153,154,155,156,157,158,159,160,161,162,163,164,165,166,167,168,169,170,171,172,173,174,175,176,177,178,179,180,181,182,183,184,185,186,187,188,189,190,191,192,193,194,195,196,197,198,199,200],"tree_info":[0,0,0,0,0,0,0,0,0,0,0,0,0,0,0,0,0,0,0,0,0,0,0,0,0,0,0,0,0,0,0,0,0,0,0,0,0,0,0,0,0,0,0,0,0,0,0,0,0,0,0,0,0,0,0,0,0,0,0,0,0,0,0,0,0,0,0,0,0,0,0,0,0,0,0,0,0,0,0,0,0,0,0,0,0,0,0,0,0,0,0,0,0,0,0,0,0,0,0,0,0,0,0,0,0,0,0,0,0,0,0,0,0,0,0,0,0,0,0,0,0,0,0,0,0,0,0,0,0,0,0,0,0,0,0,0,0,0,0,0,0,0,0,0,0,0,0,0,0,0,0,0,0,0,0,0,0,0,0,0,0,0,0,0,0,0,0,0,0,0,0,0,0,0,0,0,0,0,0,0,0,0,0,0,0,0,0,0,0,0,0,0,0,0,0,0,0,0,0,0],"trees":[{"base_weights":[1.8440414E-7,-9.61906E-1,1.139027E0,7.106415E-1,-1.0521008E0,5.0090736E-1,2.630979E0,-8.364168E-2,2.0166476E0,-1.183607E0,-5.186736E-1,7.3259944E-1,-6.5987384E-1,3.6796997E0,2.3972664E0,-3.606262E-1,9.9712294E-1,2.2038155E0,2.0084198E-1,-1.2221706E0,-9.0088415E-1,-7.543218E-1,2.321501E-1,2.2054713E0,5.63414E-1,6.1014396E-1,-7.5911504E-1,3.704728E0,4.192444E-2,2.5311584E0,1.0371791E0,-4.824528E-1,8.8879675E-1,1.1138059E0,-1.3192962E-1,2.6722546E0,1.569354E0,-2.174006E-1,3.7534127E-1,-1.1662215E0,-3.921215E-1,-8.032861E-1,-1.2469416E0,-2.6406965E-1,-9.1343284E-1,3.7596035E-1,-1.071108E0,2.3754144E0,4.6492675E-1,4.2301193E-1,1.5857055E0,2.3144607E-1,1.7188344E0,-8.5411614E-1,-3.1935394E-1,1.1350231E0,7.0079917E-1,3.6481926E0,2.3785882E0,5.3153247E-1,2.28824E0,-2.819511E-1,-1.0181468E0,1.2351528E0,-1.3192962E-1,3.507532E-1,1.370704E0,2.9140646E0,1.432594E0,1.8385805E0,3.3800513E-1,3.2126057E-1,-2.7109358E-1,-1.1843683E0,-7.796917E-1,-4.0993183E-3,-8.418584E-1,-1.2591571E0,-6.3210875E-2,5.043019E-1,-4.8327053E-1,-1.0047473E0,-3.9944395E-1,7.241224E-1,-3.090962E-1,-3.469642E-1,-1.5238747E-1,2.5344172E0,1.3695306E0,1.7858113E0,-5.75111E-1,5.277649E-1,-5.434556E-1,1.8130764E0,2.7283794E-1,4.4946942E-1,-2.89225E-1,6.1369747E-1,4.192444E-2,-9.977984E-2,-8.8278246E-1,-4.5334807E-1,8.093038E-1,1.1125435E0,1.9368995E0,2.813139E0,2.1305916E0,1.118418E0,9.8620534E-2,2.5234191E0,2.1320373E-1,-6.0031855E-1,-5.2517567E-2,-1.0859277E0,9.518618E-3,5.389356E-1,-6.410047E-2,-1.8084437E-1,3.8200802E-1,9.2359275E-1,1.8199636E0,2.9888554E0,2.534004E-1,-8.978839E-2,5.399445E-1,1.3116059E0,2.6253462E0,1.4418614E0,-2.89225E-1,1.3538176E-1,9.518618E-3,-1.2051244E0,-9.3038094E-1,-8.2196605E-1,1.6963823E-1,3.4612507E-1,-5.649998E-1,-9.0199226E-1,-4.933444E-1,-3.8145378E-1,-1.12422265E-1,1.1984667E0,-1.593594E-1,-6.498709E-1,2.4399386E-1,-1.0860342E0,-4.2728356E-1,-5.093149E-1,4.0841812E-1,5.6316996E-1,2.3728242E0,-4.6994463E-1,1.0265888E0,2.9284003E0,2.1065552E0,3.6701392E-2,1.4878482E0,5.758522E-1,1.7363726E-1,-7.392183E-1,3.5640642E-2,8.957801E-1,2.5319666E-1,-7.837692E-1,5.8011062E-2,1.88917E0,-6.0987675E-1,6.340873E-1,7.694455E-2,6.7373323E-1,-2.7109358E-1,-6.5680987E-1,4.8118374E-1,-9.218321E-1,-4.2797083E-1,-5.108663E-1,1.1730104E-1,1.2321222E0,-3.651335E-2,6.7388487E-1,1.7363726E-1,2.1731646E0,2.9115143E0,2.1821544E0,1.1453647E-1,1.8050735E0,4.7092208E-1,-3.1613553E-1,3.0142567E-1,8.8222134E-1,1.0774351E0,2.2192877E-2,-2.688609E-1,4.2147778E-2,-2.6655087E-1,-3.4885862E-1,9.518618E-3,2.923397E-2,-2.0639826E-1,4.1017106E-1,-2.2706961E-2,6.389679E-1,4.192444E-2,9.150196E-1,2.2316393E-1,4.8160222E-1,-6.151E-3,9.000817E-1,2.931144E-1,4.192444E-2,5.943778E-1,-3.670643E-1,-2.904157E-1,-3.2704812E-4,-2.9038048E-1,-1.4581624E-1,-2.892481E-1,1.590653E-1,-1.12422265E-1,-2.4544677E-1,7.997653E-2,-2.3744772E-1,-3.3923972E-1,-3.585045E-2,-2.599289E-1,4.7828558E-1,-7.926924E-2,1.0073087E-1,-1.8504871E-1,-3.0864954E-1,-1.4597066E-1,1.3907012E-1,-2.8380176E-1,-1.5166658E-1,-3.329012E-1,-1.9153729E-1,6.489806E-2,-1.9090424E-1,6.2222205E-2,2.220298E-1,-1.4891644E-1,1.2243978E-1,6.755596E-1,7.667979E-1,2.534004E-1,-1.7124845E-1,-1.40863005E-2,5.4760385E-1,-8.302424E-2,8.9658386E-1,1.3538176E-1,6.551452E-1,-3.06632E-2,7.997653E-2,-6.3210875E-2,4.7305465E-1,-6.3210875E-2,-2.9328716E-1,-1.0954006E-2,3.205356E-1,4.7528062E-2,4.4659305E-1,5.6221988E-2,-2.4835645E-1,1.9232993E-1,-6.5971464E-2,3.7550572E-1,6.1957306E-1,1.9871812E-1,7.997653E-2,-2.5632185E-1,1.4905196E-1,-7.622446E-2,2.270078E-2,3.4957242E-1,-3.0308262E-1,1.3538176E-1,-2.8229263E-1,-9.1524296E-2,-1.7795266E-1,8.509382E-2,-1.893696E-1,-4.443339E-3,6.345334E-2,5.343462E-1,-2.2150122E-1,2.2316393E-1,3.8560766E-1,7.925406E-1,8.8015324E-1,3.1803644E-1,6.664777E-1,-9.026986E-2,-1.3614362E-1,3.9455894E-1,2.5823402E-1,6.852943E-1,5.3491417E-2,4.9728215E-1,1.242509E-1,-2.5510132E-1,1.6352238E-1,5.095387E-1],"categories":[],"categories_nodes":[],"categories_segments":[],"categories_sizes":[],"default_left":[0,0,0,0,0,0,0,0,0,0,0,0,0,0,0,0,0,0,0,0,0,0,0,0,0,0,0,0,0,0,0,0,0,0,0,0,0,0,0,0,0,0,0,0,0,0,0,0,0,0,0,0,0,0,0,0,0,0,0,0,0,0,0,0,0,0,0,0,0,0,0,0,0,0,0,0,0,0,0,0,0,0,0,0,0,0,0,0,0,0,0,0,0,0,0,0,0,0,0,0,0,0,0,0,0,0,0,0,0,0,0,0,0,0,0,0,0,0,0,0,0,0,0,0,0,0,0,0,0,0,0,0,0,0,0,0,0,0,0,0,0,0,0,0,0,0,0,0,0,0,0,0,0,0,0,0,0,0,0,0,0,0,0,0,0,0,0,0,0,0,0,0,0,0,0,0,0,0,0,0,0,0,0,0,0,0,0,0,0,0,0,0,0,0,0,0,0,0,0,0,0,0,0,0,0,0,0,0,0,0,0,0,0,0,0,0,0,0,0,0,0,0,0,0,0,0,0,0,0,0,0,0,0,0,0,0,0,0,0,0,0,0,0,0,0,0,0,0,0,0,0,0,0,0,0,0,0,0,0,0,0,0,0,0,0,0,0,0,0,0,0,0,0,0,0,0,0,0,0,0,0,0,0,0,0,0,0,0,0,0,0,0,0,0,0,0,0,0,0,0,0,0,0],"id":0,"left_children":[1,3,5,7,9,11,13,15,17,19,21,23,25,27,29,31,33,35,37,39,41,43,45,47,49,51,53,55,-1,57,59,61,63,65,-1,67,69,71,-1,73,-1,75,77,79,81,83,85,87,89,91,93,95,97,99,101,-1,-1,103,105,107,109,111,113,115,-1,117,119,121,123,125,127,129,-1,131,133,135,137,139,-1,141,143,145,147,149,151,-1,-1,153,155,157,159,161,163,165,167,169,-1,-1,-1,171,173,175,177,-1,179,181,183,185,187,189,-1,191,193,195,-1,-1,-1,197,-1,199,201,203,-1,-1,-1,205,207,209,-1,-1,-1,211,213,215,-1,217,219,221,223,-1,-1,225,227,229,231,233,235,237,239,241,243,245,247,249,251,253,255,-1,-1,257,-1,259,261,263,265,267,269,-1,271,273,-1,275,-1,277,279,281,-1,283,285,-1,-1,287,289,291,293,295,297,-1,299,-1,301,-1,-1,-1,-1,-1,-1,-1,-1,-1,-1,-1,-1,-1,-1,-1,-1,-1,-1,-1,-1,-1,-1,-1,-1,-1,-1,-1,-1,-1,-1,-1,-1,-1,-1,-1,-1,-1,-1,-1,-1,-1,-1,-1,-1,-1,-1,-1,-1,-1,-1,-1,-1,-1,-1,-1,-1,-1,-1,-1,-1,-1,-1,-1,-1,-1,-1,-1,-1,-1,-1,-1,-1,-1,-1,-1,-1,-1,-1,-1,-1,-1,-1,-1,-1,-1,-1,-1,-1,-1,-1,-1,-1,-1,-1,-1,-1,-1,-1,-1,-1,-1,-1,-1,-1,-1,-1,-1,-1,-1,-1,-1,-1],"loss_changes":[7.8161006E3,5.8419946E2,3.1082563E3,2.0607338E2,2.5684277E2,6.160862E2,2.3094531E2,3.7595654E1,2.5082794E1,3.09917E1,1.2891603E2,4.7435364E2,4.8532135E1,1.5111572E1,1.4357568E2,1.5611532E1,4.7887955E0,1.6012512E1,3.8382864E0,1.0765869E1,1.105957E1,4.2977478E1,3.312324E1,5.6960693E1,2.4523901E2,1.14406805E1,1.4524429E1,1.0022705E1,0E0,1.1576611E2,4.537139E1,9.544264E0,4.782901E0,4.2235355E0,0E0,7.1226807E0,9.754654E0,2.7515717E0,0E0,1.0081299E1,0E0,8.669891E0,7.0617676E-1,2.334601E1,1.9212158E1,3.790194E1,2.5982285E-1,2.509375E1,2.6723444E1,1.5293225E2,6.115442E1,6.2127986E0,3.3387585E0,6.197357E0,1.0124344E1,0E0,0E0,1.6762695E0,6.3550293E1,1.3545958E1,5.95903E0,4.934533E0,1.7811775E0,6.540699E0,0E0,3.853968E0,1.856369E0,2.206665E0,5.7019386E0,7.111809E0,1.1222534E1,1.5386862E-1,0E0,6.7685547E0,4.6319046E0,2.9377503E0,5.180008E0,3.502121E-1,0E0,1.4442108E1,1.3150845E1,1.616159E1,5.950964E0,2.6537346E1,1.2069464E1,0E0,0E0,1.9629944E1,4.1328316E0,2.5802994E-1,1.3656788E0,1.3727756E2,2.1427864E1,3.3575745E1,1.1255477E1,6.5064983E0,0E0,0E0,0E0,1.2222614E1,4.576538E0,3.031763E0,2.6220083E0,0E0,8.0729675E-1,8.237793E0,4.2887573E1,9.251686E0,7.803358E0,7.5681305E0,0E0,5.7282696E0,6.677103E0,2.021944E0,0E0,0E0,0E0,8.521993E-1,0E0,4.9164114E0,3.7399502E0,1.7311096E0,0E0,0E0,0E0,6.7805862E0,2.7625465E0,2.6048527E0,0E0,0E0,0E0,4.843628E0,4.0978317E0,2.9444008E0,0E0,1.4214048E0,1.4277E0,4.8618774E0,5.7130423E0,0E0,0E0,9.242937E0,3.989146E0,4.9154243E0,5.8506317E0,3.690094E0,6.302329E0,5.3581343E0,2.8585796E0,2.4478876E1,3.6894608E-1,2.0565586E0,6.866732E0,1.0153015E1,1.3351746E1,2.376201E-1,4.0153008E0,0E0,0E0,1.5078583E0,0E0,7.381241E1,6.318056E1,7.17482E0,1.459437E1,3.5514282E1,1.5374353E0,0E0,4.2483945E0,4.9809985E0,0E0,4.2075977E0,0E0,2.7460938E0,2.9895496E0,3.276248E0,0E0,2.3314538E0,2.3965333E0,0E0,0E0,1.1069595E1,5.0581055E0,4.028601E1,8.378856E0,2.8641052E0,4.234845E0,0E0,3.9899058E0,0E0,9.134474E-1,0E0,0E0,0E0,0E0,0E0,0E0,0E0,0E0,0E0,0E0,0E0,0E0,0E0,0E0,0E0,0E0,0E0,0E0,0E0,0E0,0E0,0E0,0E0,0E0,0E0,0E0,0E0,0E0,0E0,0E0,0E0,0E0,0E0,0E0,0E0,0E0,0E0,0E0,0E0,0E0,0E0,0E0,0E0,0E0,0E0,0E0,0E0,0E0,0E0,0E0,0E0,0E0,0E0,0E0,0E0,0E0,0E0,0E0,0E0,0E0,0E0,0E0,0E0,0E0,0E0,0E0,0E0,0E0,0E0,0E0,0E0,0E0,0E0,0E0,0E0,0E0,0E0,0E0,0E0,0E0,0E0,0E0,0E0,0E0,0E0,0E0,0E0,0E0,0E0,0E0,0E0,0E0,0E0,0E0,0E0,0E0,0E0,0E0,0E0,0E0,0E0,0E0,0E0,0E0,0E0,0E0,0E0,0E0,0E0,0E0,0E0,0E0],"parents":[2147483647,0,0,1,1,2,2,3,3,4,4,5,5,6,6,7,7,8,8,9,9,10,10,11,11,12,12,13,13,14,14,15,15,16,16,17,17,18,18,19,19,20,20,21,21,22,22,23,23,24,24,25,25,26,26,27,27,29,29,30,30,31,31,32,32,33,33,35,35,36,36,37,37,39,39,41,41,42,42,43,43,44,44,45,45,46,46,47,47,48,48,49,49,50,50,51,51,52,52,53,53,54,54,57,57,58,58,59,59,60,60,61,61,62,62,63,63,65,65,66,66,67,67,68,68,69,69,70,70,71,71,73,73,74,74,75,75,76,76,77,77,79,79,80,80,81,81,82,82,83,83,84,84,87,87,88,88,89,89,90,90,91,91,92,92,93,93,94,94,95,95,99,99,100,100,101,101,102,102,104,104,105,105,106,106,107,107,108,108,109,109,111,111,112,112,113,113,117,117,119,119,120,120,121,121,125,125,126,126,127,127,131,131,132,132,133,133,135,135,136,136,137,137,138,138,141,141,142,142,143,143,144,144,145,145,146,146,147,147,148,148,149,149,150,150,151,151,152,152,153,153,154,154,155,155,156,156,159,159,161,161,162,162,163,163,164,164,165,165,166,166,168,168,169,169,171,171,173,173,174,174,175,175,177,177,178,178,181,181,182,182,183,183,184,184,185,185,186,186,188,188,190,190],"right_children":[2,4,6,8,10,12,14,16,18,20,22,24,26,28,30,32,34,36,38,40,42,44,46,48,50,52,54,56,-1,58,60,62,64,66,-1,68,70,72,-1,74,-1,76,78,80,82,84,86,88,90,92,94,96,98,100,102,-1,-1,104,106,108,110,112,114,116,-1,118,120,122,124,126,128,130,-1,132,134,136,138,140,-1,142,144,146,148,150,152,-1,-1,154,156,158,160,162,164,166,168,170,-1,-1,-1,172,174,176,178,-1,180,182,184,186,188,190,-1,192,194,196,-1,-1,-1,198,-1,200,202,204,-1,-1,-1,206,208,210,-1,-1,-1,212,214,216,-1,218,220,222,224,-1,-1,226,228,230,232,234,236,238,240,242,244,246,248,250,252,254,256,-1,-1,258,-1,260,262,264,266,268,270,-1,272,274,-1,276,-1,278,280,282,-1,284,286,-1,-1,288,290,292,294,296,298,-1,300,-1,302,-1,-1,-1,-1,-1,-1,-1,-1,-1,-1,-1,-1,-1,-1,-1,-1,-1,-1,-1,-1,-1,-1,-1,-1,-1,-1,-1,-1,-1,-1,-1,-1,-1,-1,-1,-1,-1,-1,-1,-1,-1,-1,-1,-1,-1,-1,-1,-1,-1,-1,-1,-1,-1,-1,-1,-1,-1,-1,-1,-1,-1,-1,-1,-1,-1,-1,-1,-1,-1,-1,-1,-1,-1,-1,-1,-1,-1,-1,-1,-1,-1,-1,-1,-1,-1,-1,-1,-1,-1,-1,-1,-1,-1,-1,-1,-1,-1,-1,-1,-1,-1,-1,-1,-1,-1,-1,-1,-1,-1,-1,-1,-1],"split_conditions":[1E0,1E0,1E0,1E0,1E0,1E0,1E0,1E0,1E0,1E0,1E0,1E0,1E0,1E0,1E0,1E0,1E0,1E0,1E0,1E0,1E0,1E0,1E0,1E0,1E0,1E0,1E0,1E0,4.192444E-2,1E0,1E0,1E0,1E0,1E0,-1.3192962E-1,1E0,1E0,1E0,3.7534127E-1,1E0,-3.921215E-1,1E0,1E0,1E0,1E0,1E0,1E0,1E0,1E0,1E0,1E0,1E0,1E0,1E0,1E0,1.1350231E0,7.0079917E-1,1E0,1E0,1E0,1E0,1E0,1E0,1E0,-1.3192962E-1,1E0,1E0,1E0,1E0,1E0,1E0,1E0,-2.7109358E-1,1E0,1E0,1E0,1E0,1E0,-6.3210875E-2,1E0,1E0,1E0,1E0,1E0,1E0,-3.469642E-1,-1.5238747E-1,1E0,1E0,1E0,1E0,1E0,1E0,1E0,1E0,1E0,-2.89225E-1,6.1369747E-1,4.192444E-2,1E0,1E0,1E0,1E0,1.1125435E0,1E0,1E0,1E0,1E0,1E0,1E0,2.1320373E-1,1E0,1E0,1E0,9.518618E-3,5.389356E-1,-6.410047E-2,1E0,3.8200802E-1,1E0,1E0,1E0,2.534004E-1,-8.978839E-2,5.399445E-1,1E0,1E0,1E0,-2.89225E-1,1.3538176E-1,9.518618E-3,1E0,1E0,1E0,1.6963823E-1,1E0,1E0,1E0,1E0,-3.8145378E-1,-1.12422265E-1,1E0,1E0,1E0,1E0,1E0,1E0,1E0,1E0,1E0,1E0,1E0,1E0,1E0,1E0,1E0,1E0,5.758522E-1,1.7363726E-1,1E0,3.5640642E-2,1E0,1E0,1E0,1E0,1E0,1E0,6.340873E-1,1E0,1E0,-2.7109358E-1,1E0,4.8118374E-1,1E0,1E0,1E0,1.1730104E-1,1E0,1E0,6.7388487E-1,1.7363726E-1,1E0,1E0,1E0,1E0,1E0,1E0,-3.1613553E-1,1E0,8.8222134E-1,1E0,2.2192877E-2,-2.688609E-1,4.2147778E-2,-2.6655087E-1,-3.4885862E-1,9.518618E-3,2.923397E-2,-2.0639826E-1,4.1017106E-1,-2.2706961E-2,6.389679E-1,4.192444E-2,9.150196E-1,2.2316393E-1,4.8160222E-1,-6.151E-3,9.000817E-1,2.931144E-1,4.192444E-2,5.943778E-1,-3.670643E-1,-2.904157E-1,-3.2704812E-4,-2.9038048E-1,-1.4581624E-1,-2.892481E-1,1.590653E-1,-1.12422265E-1,-2.4544677E-1,7.997653E-2,-2.3744772E-1,-3.3923972E-1,-3.585045E-2,-2.599289E-1,4.7828558E-1,-7.926924E-2,1.0073087E-1,-1.8504871E-1,-3.0864954E-1,-1.4597066E-1,1.3907012E-1,-2.8380176E-1,-1.5166658E-1,-3.329012E-1,-1.9153729E-1,6.489806E-2,-1.9090424E-1,6.2222205E-2,2.220298E-1,-1.4891644E-1,1.2243978E-1,6.755596E-1,7.667979E-1,2.534004E-1,-1.7124845E-1,-1.40863005E-2,5.4760385E-1,-8.302424E-2,8.9658386E-1,1.3538176E-1,6.551452E-1,-3.06632E-2,7.997653E-2,-6.3210875E-2,4.7305465E-1,-6.3210875E-2,-2.9328716E-1,-1.0954006E-2,3.205356E-1,4.7528062E-2,4.4659305E-1,5.6221988E-2,-2.4835645E-1,1.9232993E-1,-6.5971464E-2,3.7550572E-1,6.1957306E-1,1.9871812E-1,7.997653E-2,-2.5632185E-1,1.4905196E-1,-7.622446E-2,2.270078E-2,3.4957242E-1,-3.0308262E-1,1.3538176E-1,-2.8229263E-1,-9.1524296E-2,-1.7795266E-1,8.509382E-2,-1.893696E-1,-4.443339E-3,6.345334E-2,5.343462E-1,-2.2150122E-1,2.2316393E-1,3.8560766E-1,7.925406E-1,8.8015324E-1,3.1803644E-1,6.664777E-1,-9.026986E-2,-1.3614362E-1,3.9455894E-1,2.5823402E-1,6.852943E-1,5.3491417E-2,4.9728215E-1,1.242509E-1,-2.5510132E-1,1.6352238E-1,5.095387E-1],"split_indices":[39,73,38,38,38,34,73,81,61,81,81,73,73,0,77,50,56,71,81,0,0,18,0,77,50,20,81,77,0,75,60,0,13,63,0,1,13,0,0,51,0,75,26,28,3,1,15,1,21,77,6,48,1,75,50,0,0,78,18,18,4,63,37,17,0,47,40,0,66,3,18,71,0,50,44,40,50,42,0,71,50,4,49,22,40,0,0,21,82,17,14,21,60,0,75,1,0,0,0,30,27,7,13,0,50,82,0,28,82,13,0,79,43,51,0,0,0,14,0,2,17,54,0,0,0,9,79,81,0,0,0,80,75,71,0,47,50,1,71,0,0,77,22,51,77,75,50,80,14,31,17,13,51,55,0,5,52,0,0,15,0,1,75,46,37,1,5,0,21,79,0,47,0,50,16,14,0,6,5,0,0,51,47,48,17,51,3,0,1,0,3,0,0,0,0,0,0,0,0,0,0,0,0,0,0,0,0,0,0,0,0,0,0,0,0,0,0,0,0,0,0,0,0,0,0,0,0,0,0,0,0,0,0,0,0,0,0,0,0,0,0,0,0,0,0,0,0,0,0,0,0,0,0,0,0,0,0,0,0,0,0,0,0,0,0,0,0,0,0,0,0,0,0,0,0,0,0,0,0,0,0,0,0,0,0,0,0,0,0,0,0,0,0,0,0,0,0,0,0,0,0,0,0],"split_type":[0,0,0,0,0,0,0,0,0,0,0,0,0,0,0,0,0,0,0,0,0,0,0,0,0,0,0,0,0,0,0,0,0,0,0,0,0,0,0,0,0,0,0,0,0,0,0,0,0,0,0,0,0,0,0,0,0,0,0,0,0,0,0,0,0,0,0,0,0,0,0,0,0,0,0,0,0,0,0,0,0,0,0,0,0,0,0,0,0,0,0,0,0,0,0,0,0,0,0,0,0,0,0,0,0,0,0,0,0,0,0,0,0,0,0,0,0,0,0,0,0,0,0,0,0,0,0,0,0,0,0,0,0,0,0,0,0,0,0,0,0,0,0,0,0,0,0,0,0,0,0,0,0,0,0,0,0,0,0,0,0,0,0,0,0,0,0,0,0,0,0,0,0,0,0,0,0,0,0,0,0,0,0,0,0,0,0,0,0,0,0,0,0,0,0,0,0,0,0,0,0,0,0,0,0,0,0,0,0,0,0,0,0,0,0,0,0,0,0,0,0,0,0,0,0,0,0,0,0,0,0,0,0,0,0,0,0,0,0,0,0,0,0,0,0,0,0,0,0,0,0,0,0,0,0,0,0,0,0,0,0,0,0,0,0,0,0,0,0,0,0,0,0,0,0,0,0,0,0,0,0,0,0,0,0,0,0,0,0,0,0,0,0,0,0,0,0,0,0,0,0,0,0],"sum_hessian":[7.131842E3,3.8666326E3,3.265209E3,1.9749323E2,3.6691394E3,2.2879644E3,9.772446E2,1.23387634E2,7.410559E1,2.942503E3,7.2663635E2,1.9075801E3,3.8038437E2,1.7540756E2,8.018371E2,9.874661E1,2.4641022E1,6.6987076E1,7.1185174E0,2.5863945E3,3.561084E2,5.53054E2,1.735823E2,1.953029E2,1.7122772E3,2.7196386E1,3.5318796E2,1.7412988E2,1.2776825E0,7.291917E2,7.264538E1,9.0532936E1,8.213674E0,2.2998287E1,1.6427348E0,3.6687744E1,3.029933E1,5.6583085E0,1.4602087E0,1.567899E3,1.01849554E3,2.8036005E2,7.574832E1,1.3616446E2,4.1688956E2,1.5697243E2,1.6609873E1,1.7759789E2,1.770503E1,1.5067528E3,2.0552437E2,2.1173025E1,6.0233607E0,2.8966888E2,6.3519077E1,1.6299579E2,1.1134091E1,8.4874626E1,6.443171E2,5.275004E1,1.9895344E1,6.6987076E1,2.3545864E1,6.570939E0,1.6427348E0,6.388413E0,1.6609873E1,2.9569225E1,7.1185174E0,2.4458494E1,5.8408346E0,3.4679956E0,2.1903129E0,1.4956188E3,7.228033E1,1.2959352E1,2.674007E2,7.465317E1,1.0951564E0,2.9934277E1,1.0623018E2,3.5318796E2,6.3701603E1,1.0403986E2,5.2932564E1,1.350693E1,3.1029434E0,1.5204422E2,2.5553652E1,7.483569E0,1.022146E1,1.3598193E3,1.469335E2,1.7485999E2,3.0664381E1,1.8435135E1,2.7378912E0,4.745678E0,1.2776825E0,1.0769039E1,2.7889984E2,5.731319E1,6.205887E0,8.0859055E1,4.015574E0,2.3034792E2,4.1396915E2,2.1720604E1,3.1029434E1,1.67924E1,3.1029434E0,2.7378912E1,3.960816E1,2.2085655E1,1.4602087E0,4.563152E0,2.007787E0,4.563152E0,1.8252609E0,9.856408E0,6.753465E0,2.8109016E1,1.4602087E0,1.2776825E0,5.8408346E0,1.6244822E1,8.213674E0,3.1029434E0,2.7378912E0,2.007787E0,1.4602087E0,1.3791671E3,1.1645164E2,7.045507E1,1.8252609E0,8.213674E0,4.745678E0,2.2669739E2,4.0703316E1,7.3192955E1,1.4602087E0,1.4237035E1,1.5697243E1,8.6517365E1,1.9712816E1,3.0883414E2,4.4353836E1,5.640056E1,7.3010435E0,9.600872E1,8.031148E0,4.7821835E1,5.11073E0,7.611337E1,7.593085E1,2.1903129E0,2.3363338E1,6.205887E0,1.2776825E0,8.213674E0,2.007787E0,5.800679E2,7.797514E2,1.0476997E2,4.2163525E1,1.6974925E2,5.11073E0,2.007787E0,2.8656595E1,1.6244822E1,2.1903129E0,8.578726E0,2.1903129E0,2.5590157E2,2.2998287E1,5.402772E1,3.2854695E0,3.8330476E0,2.372839E0,2.7378912E0,1.2776825E0,3.3767326E1,1.965806E2,4.0356516E2,1.0403987E1,9.6738825E0,1.2046721E1,4.015574E0,2.701386E1,1.2229247E1,4.563152E0,8.578726E0,1.8800186E1,3.2854694E1,6.753465E0,2.0625446E1,1.4602087E0,3.4679956E0,1.0951564E0,6.570939E0,3.2854695E0,5.4757824E0,1.2776825E0,2.701386E1,1.0951564E0,1.3141878E1,3.1029434E0,6.0233607E0,2.1903129E0,1.2776825E0,1.8252609E0,1.2758573E3,1.0330976E2,4.563152E0,1.1188849E2,2.2268183E1,4.8186886E1,6.753465E0,1.4602087E0,3.6505218E0,1.0951564E0,1.5587727E2,7.082012E1,2.09905E1,1.9712816E1,1.1134091E1,3.1029434E0,7.6660953E0,8.031148E0,2.4458494E1,6.205887E1,1.7157452E1,2.555365E0,1.2959352E1,2.958748E2,3.340227E1,1.0951565E1,4.800436E1,8.3962E0,5.4757824E0,1.8252609E0,8.907273E1,6.9359913E0,6.570939E0,1.4602087E0,3.833048E1,9.491356E0,2.9204173E0,2.1903129E0,7.410559E1,2.007787E0,7.337549E1,2.555365E0,1.0951564E0,1.0951564E0,2.2268183E1,1.0951564E0,5.8408346E0,2.372839E0,4.6963962E2,1.10428276E2,3.833048E1,7.4142096E2,1.0203208E2,2.7378912E0,3.486248E1,7.3010435E0,1.4784613E2,2.190313E1,1.0951564E0,4.015574E0,1.2411774E1,1.6244822E1,7.8486214E0,8.3962E0,6.570939E0,2.007787E0,2.476879E2,8.213674E0,1.8800186E1,4.1981E0,4.3258682E1,1.0769039E1,1.8252609E0,2.007787E0,1.2776825E0,1.0951564E0,1.2959352E1,2.0807974E1,1.9366017E2,2.9204173E0,3.9735928E2,6.205887E0,7.483569E0,2.9204173E0,4.1981E0,5.4757824E0,1.0586513E1,1.4602087E0,2.5188599E1,1.8252609E0,3.4679956E0,1.0951564E0],"tree_param":{"num_deleted":"0","num_feature":"123","num_nodes":"303","size_leaf_vector":"1"}},{"base_weights":[-4.50943E-2,-8.3259183E-1,6.497333E-1,4.3948022E-1,-9.2065275E-1,3.067083E-1,1.3060365E0,-7.376665E-2,1.1150905E0,-1.0602443E0,-4.1704082E-1,4.432612E-1,-5.3505516E-1,1.7149746E0,1.2098852E0,-2.8810573E-1,6.3348126E-1,1.4841291E0,7.7692205E-1,-1.1034088E0,-7.6303935E-1,-6.2425673E-1,1.509137E-1,5.097318E-1,-8.132987E-1,3.8640854E-1,-6.2306666E-1,1.7232456E0,3.4374256E-2,1.0867534E0,1.5347009E0,-6.330724E-1,-1.3076715E-2,4.540759E-1,4.1467E-1,1.1271025E0,1.8085694E0,5.2466284E-2,1.0702782E0,-1.0400455E0,-1.2022682E0,-6.663835E-1,-1.134659E0,-2.0915194E-1,-7.7469796E-1,2.4936514E-1,-9.4931513E-1,1.1619309E0,4.1907787E-1,-9.6542186E-1,-1.0825503E-1,1.3247102E-1,1.0382512E0,-7.138778E-1,-2.3784459E-1,1.7575102E0,1.2828705E0,7.9989916E-1,1.3440342E0,1.6149504E0,6.655967E-1,-7.0265055E-1,1.7982204E-1,1.2139328E-1,-6.392146E-1,2.3507735E-1,3.2877705E-1,5.0692534E-1,7.8430104E-1,5.7170933E-1,2.1046028E-2,5.178043E-1,-4.1561434E-1,1.1866113E0,-4.0527105E-1,-1.0601549E0,-6.435661E-1,-3.6104417E-1,-1.2176926E-1,-1.9079195E-2,-7.023616E-1,-1.1482503E0,-5.440041E-2,-3.331451E-2,-8.6172014E-1,-8.6684E-1,-3.0830964E-1,5.7141155E-2,8.2759345E-1,-2.9924223E-1,-6.673177E-2,1.0420213E0,1.7656077E0,1.349498E0,3.561065E-1,-1.0191643E0,4.974903E-1,3.1766436E-1,-2.3262402E-1,2.8641993E-1,-2.593469E-1,-8.72154E-2,1.2735497E0,-6.5167934E-1,-3.3358213E-1,-3.506442E-1,5.8294916E-1,1.7643362E0,1.3641548E-1,1.407994E0,-1.2968944E-1,6.022522E-1,1.1347274E0,1.4345572E0,7.601888E-1,1.3952241E0,1.8586634E0,4.3479696E-1,4.74287E-1,-7.931892E-1,-5.5326223E-2,2.997993E-1,-5.6649315E-1,-8.8580877E-1,1.16651475E-1,-8.844818E-2,7.8287286E-1,4.0995556E-1,4.3224543E-1,8.1341875E-1,-1.0111129E-1,-8.228478E-1,4.9298862E-1,1.2503059E0,-2.1748787E-2,4.155848E-2,-2.2067797E-1,-1.0834887E0,-7.895167E-1,-6.90307E-1,2.0779571E-1,-1.9028851E-1,2.628454E-1,-7.7330077E-1,-3.9835805E-1,-1.1619394E0,-9.6358836E-2,1.430201E-1,-7.349219E-1,-9.061524E-1,-5.0583653E-2,-9.517404E-1,-3.31071E-1,-2.1610825E-1,-2.8630453E-1,1.9105175E-1,-5.8917576E-1,1.1116914E0,6.4713643E-3,1.3154184E0,7.7918965E-1,1.8425882E0,3.824608E-1,1.6937189E0,9.9000996E-1,4.1435096E-1,-6.2245643E-1,1.6334722E-2,-1.0365089E0,3.255677E-1,-1.1311021E-1,1.795922E-1,-3.7932795E-1,8.751152E-2,4.3317524E-1,4.2307186E-1,1.159436E-1,5.4287072E-2,-6.831894E-1,-4.9937415E-1,-9.815765E-2,5.2729417E-2,9.8098165E-1,5.31385E-1,2.0327432E-1,1.4749964E0,6.939032E-2,5.350297E-1,5.2496386E-1,1.2647365E0,4.583662E-1,1.3528572E0,5.3582007E-1,-2.5058193E-2,9.0336496E-1,1.1807044E0,5.387758E-1,1.9122332E0,1.3261187E0,-1.08083524E-1,5.7000196E-1,-2.5653473E-1,6.6041395E-2,2.1334529E-1,-1.1597318E-1,1.3738516E-1,-1.2372267E-1,-1.9773705E-1,-2.3934584E-2,-3.2707274E-1,-3.917341E-2,2.8105733E-1,-1.417957E-1,4.5066544E-1,2.8712338E-2,2.7971134E-1,-6.342041E-2,2.935958E-1,1.0834397E-2,-2.695276E-1,-6.665083E-2,-9.615228E-2,3.1591403E-1,4.0111858E-1,3.4767203E-2,-3.3133036E-1,-2.4819069E-1,-2.46661E-4,-2.481177E-1,-2.6884052E-1,-1.3862161E-1,-1.1947969E-1,2.4466103E-1,-2.6108435E-1,-1.580572E-1,-1.4084028E-1,2.1673363E-1,-3.5816857E-1,-1.8549974E-1,1.9437496E-1,-5.3252544E-2,-2.534922E-1,-4.1766867E-2,-2.7869102E-1,-5.628015E-2,-1.199599E-1,-2.930876E-1,2.94165E-2,-1.6622265E-1,-1.6953021E-1,-1.0138769E-2,1.14723966E-1,-5.665718E-2,-2.4306695E-1,7.732637E-2,3.8425943E-1,-1.3613999E-1,-1.0383007E-1,4.0683988E-1,4.1003567E-1,1.704445E-1,2.708404E-1,-1.6029653E-1,5.6291115E-1,1.8292089E-1,2.3021123E-3,1.764091E-1,4.265178E-1,6.621126E-1,2.3679009E-1,6.329498E-1,1.5701061E-1,-3.10542E-2,-2.1018194E-1,-1.0187431E-1,-3.305235E-1,-1.8164289E-1,-1.6564196E-1,1.2187656E-1,6.670488E-2,-2.3554309E-1,-1.4179505E-1,3.7051725E-1,-2.1692713E-1,-9.109653E-2,-1.9315924E-1,-3.7092865E-2,-6.39553E-2,1.7249161E-1,-1.07525215E-1,2.0438637E-1,3.4279773E-1,7.792343E-2,4.82562E-1,2.2493127E-1,1.2560415E-1,3.7249088E-1,3.8937363E-1,-2.2879137E-1,-1.710832E-2,3.9585623E-1,4.186234E-1,2.5342047E-1,7.547246E-2,-2.854898E-1,3.1271192E-1,1.0991793E-1,3.7521482E-1,-3.17084E-2,2.7172232E-1,5.8018893E-1,4.2679423E-1,8.188906E-2,2.03644E-1,-1.6681249E-3],"categories":[],"categories_nodes":[],"categories_segments":[],"categories_sizes":[],"default_left":[0,0,0,0,0,0,0,0,0,0,0,0,0,0,0,0,0,0,0,0,0,0,0,0,0,0,0,0,0,0,0,0,0,0,0,0,0,0,0,0,0,0,0,0,0,0,0,0,0,0,0,0,0,0,0,0,0,0,0,0,0,0,0,0,0,0,0,0,0,0,0,0,0,0,0,0,0,0,0,0,0,0,0,0,0,0,0,0,0,0,0,0,0,0,0,0,0,0,0,0,0,0,0,0,0,0,0,0,0,0,0,0,0,0,0,0,0,0,0,0,0,0,0,0,0,0,0,0,0,0,0,0,0,0,0,0,0,0,0,0,0,0,0,0,0,0,0,0,0,0,0,0,0,0,0,0,0,0,0,0,0,0,0,0,0,0,0,0,0,0,0,0,0,0,0,0,0,0,0,0,0,0,0,0,0,0,0,0,0,0,0,0,0,0,0,0,0,0,0,0,0,0,0,0,0,0,0,0,0,0,0,0,0,0,0,0,0,0,0,0,0,0,0,0,0,0,0,0,0,0,0,0,0,0,0,0,0,0,0,0,0,0,0,0,0,0,0,0,0,0,0,0,0,0,0,0,0,0,0,0,0,0,0,0,0,0,0,0,0,0,0,0,0,0,0,0,0,0,0,0,0,0,0,0,0,0,0,0,0,0,0,0,0,0,0,0,0,0,0,0,0,0,0,0,0,0,0,0,0,0,0,0,0,0,0],"id":1,"left_children":[1,3,5,7,9,11,13,15,17,19,21,23,25,27,29,31,33,35,37,39,41,43,45,47,49,51,53,55,-1,57,59,61,63,65,-1,67,69,71,73,75,77,79,81,83,85,87,89,91,93,95,97,99,101,103,105,107,109,111,113,115,117,119,-1,121,123,125,-1,-1,127,-1,-1,129,131,133,135,137,139,-1,-1,141,143,145,-1,147,149,151,153,155,157,-1,-1,159,161,163,165,167,169,-1,171,173,-1,-1,175,177,-1,179,181,183,-1,185,-1,187,189,191,193,195,197,-1,199,201,203,205,207,209,-1,211,213,215,-1,217,-1,219,221,223,-1,-1,-1,225,227,229,-1,231,-1,233,235,237,-1,239,241,243,-1,245,247,249,-1,251,253,255,257,259,261,263,265,267,269,271,273,-1,275,-1,-1,-1,277,279,-1,-1,-1,281,283,285,287,289,291,-1,-1,293,-1,295,-1,297,299,301,-1,303,305,307,-1,309,311,-1,313,-1,-1,-1,-1,-1,-1,-1,-1,-1,-1,-1,-1,-1,-1,-1,-1,-1,-1,-1,-1,-1,-1,-1,-1,-1,-1,-1,-1,-1,-1,-1,-1,-1,-1,-1,-1,-1,-1,-1,-1,-1,-1,-1,-1,-1,-1,-1,-1,-1,-1,-1,-1,-1,-1,-1,-1,-1,-1,-1,-1,-1,-1,-1,-1,-1,-1,-1,-1,-1,-1,-1,-1,-1,-1,-1,-1,-1,-1,-1,-1,-1,-1,-1,-1,-1,-1,-1,-1,-1,-1,-1,-1,-1,-1,-1,-1,-1,-1,-1,-1,-1,-1,-1,-1,-1,-1,-1,-1,-1,-1,-1,-1,-1,-1],"loss_changes":[3.8222275E3,3.6719287E2,8.350687E2,7.382672E1,2.1486157E2,2.805354E2,4.8000732E1,1.8645582E1,1.0312683E1,2.9912598E1,7.851293E1,1.757084E2,2.7881287E1,2.9799194E0,3.970703E1,8.92486E0,3.2194834E0,2.923149E0,1.0578787E1,1.1848145E1,1.0280518E1,3.0337784E1,1.9617594E1,1.1740051E2,1.1245827E1,4.8832355E0,1.0726929E1,1.3477783E0,0E0,5.453949E1,1.8588928E1,4.0010796E0,4.5745206E0,3.199226E0,0E0,3.119894E0,3.376175E0,3.5858066E0,6.5861053E0,9.536743E0,2.9382324E-1,5.721794E0,5.950928E-1,1.5036106E1,1.512207E1,1.8294598E1,2.9983234E-1,1.5732788E1,1.0217636E2,7.340683E0,3.1360314E0,3.7737727E0,2.9836378E0,5.503937E0,5.8448505E0,1.1434326E0,5.102005E0,2.3059433E1,1.9827454E1,1.1190735E1,3.140955E0,2.2990189E0,0E0,5.668768E0,2.7786703E0,3.544551E0,0E0,0E0,3.3876247E0,0E0,0E0,2.347654E0,3.4654002E0,2.755001E0,7.026857E-1,6.838257E0,4.5012627E0,0E0,0E0,2.311746E0,4.7225876E0,3.1671143E-1,0E0,1.3028826E1,7.041836E-1,1.326178E1,3.405221E0,1.0924453E1,9.58E0,0E0,0E0,1.3703705E1,3.4253464E0,1.2022736E1,9.386899E1,1.6237488E0,2.337636E0,0E0,2.5210173E0,4.6286106E0,0E0,0E0,3.3843994E-1,4.9307556E0,0E0,1.9857664E0,1.5809834E0,4.404297E-1,0E0,1.2158508E0,0E0,1.6632538E1,1.1031036E1,7.392029E0,6.2349396E0,9.859741E0,8.598633E-1,0E0,1.9635305E0,2.3842888E0,1.7932618E0,4.2701154E0,3.7904382E-1,1.1004348E0,0E0,5.6532297E0,3.5055118E0,3.9972248E0,0E0,7.8534937E-1,0E0,7.662964E-2,1.7884166E0,2.9626312E0,0E0,0E0,0E0,5.090332E0,2.971733E0,2.5332203E0,0E0,2.954236E0,0E0,4.036438E0,4.0210576E0,2.9651642E-1,0E0,1.3760411E1,1.2685137E0,2.5073433E-1,0E0,3.1877136E0,4.108224E0,3.4389803E0,0E0,7.6502657E0,4.2685947E0,8.666145E0,5.974978E0,3.0240784E0,1.7848602E1,3.753357E-1,2.502717E-1,4.562088E0,1.104723E1,8.760425E1,1.8106117E0,0E0,1.6633911E0,0E0,0E0,0E0,2.4780142E0,2.3736029E0,0E0,0E0,0E0,7.008391E0,2.970665E0,1.7583208E0,1.7741892E0,1.3745894E0,2.1186686E-1,0E0,0E0,5.8555984E-1,0E0,1.7285217E1,0E0,8.400665E0,1.0219955E1,4.902527E0,0E0,2.6729698E0,3.1085014E0,8.570618E0,0E0,5.64209E-1,1.0493088E0,0E0,1.2646437E0,0E0,0E0,0E0,0E0,0E0,0E0,0E0,0E0,0E0,0E0,0E0,0E0,0E0,0E0,0E0,0E0,0E0,0E0,0E0,0E0,0E0,0E0,0E0,0E0,0E0,0E0,0E0,0E0,0E0,0E0,0E0,0E0,0E0,0E0,0E0,0E0,0E0,0E0,0E0,0E0,0E0,0E0,0E0,0E0,0E0,0E0,0E0,0E0,0E0,0E0,0E0,0E0,0E0,0E0,0E0,0E0,0E0,0E0,0E0,0E0,0E0,0E0,0E0,0E0,0E0,0E0,0E0,0E0,0E0,0E0,0E0,0E0,0E0,0E0,0E0,0E0,0E0,0E0,0E0,0E0,0E0,0E0,0E0,0E0,0E0,0E0,0E0,0E0,0E0,0E0,0E0,0E0,0E0,0E0,0E0,0E0,0E0,0E0,0E0,0E0,0E0,0E0,0E0,0E0,0E0,0E0,0E0,0E0,0E0,0E0,0E0,0E0,0E0,0E0],"parents":[2147483647,0,0,1,1,2,2,3,3,4,4,5,5,6,6,7,7,8,8,9,9,10,10,11,11,12,12,13,13,14,14,15,15,16,16,17,17,18,18,19,19,20,20,21,21,22,22,23,23,24,24,25,25,26,26,27,27,29,29,30,30,31,31,32,32,33,33,35,35,36,36,37,37,38,38,39,39,40,40,41,41,42,42,43,43,44,44,45,45,46,46,47,47,48,48,49,49,50,50,51,51,52,52,53,53,54,54,55,55,56,56,57,57,58,58,59,59,60,60,61,61,63,63,64,64,65,65,68,68,71,71,72,72,73,73,74,74,75,75,76,76,79,79,80,80,81,81,83,83,84,84,85,85,86,86,87,87,88,88,91,91,92,92,93,93,94,94,95,95,96,96,98,98,99,99,102,102,103,103,105,105,106,106,107,107,109,109,111,111,112,112,113,113,114,114,115,115,116,116,118,118,119,119,120,120,121,121,122,122,123,123,125,125,126,126,127,127,129,129,131,131,132,132,133,133,137,137,138,138,139,139,141,141,143,143,144,144,145,145,147,147,148,148,149,149,151,151,152,152,153,153,155,155,156,156,157,157,158,158,159,159,160,160,161,161,162,162,163,163,164,164,165,165,166,166,168,168,172,172,173,173,177,177,178,178,179,179,180,180,181,181,182,182,185,185,187,187,189,189,190,190,191,191,193,193,194,194,195,195,197,197,198,198,200,200],"right_children":[2,4,6,8,10,12,14,16,18,20,22,24,26,28,30,32,34,36,38,40,42,44,46,48,50,52,54,56,-1,58,60,62,64,66,-1,68,70,72,74,76,78,80,82,84,86,88,90,92,94,96,98,100,102,104,106,108,110,112,114,116,118,120,-1,122,124,126,-1,-1,128,-1,-1,130,132,134,136,138,140,-1,-1,142,144,146,-1,148,150,152,154,156,158,-1,-1,160,162,164,166,168,170,-1,172,174,-1,-1,176,178,-1,180,182,184,-1,186,-1,188,190,192,194,196,198,-1,200,202,204,206,208,210,-1,212,214,216,-1,218,-1,220,222,224,-1,-1,-1,226,228,230,-1,232,-1,234,236,238,-1,240,242,244,-1,246,248,250,-1,252,254,256,258,260,262,264,266,268,270,272,274,-1,276,-1,-1,-1,278,280,-1,-1,-1,282,284,286,288,290,292,-1,-1,294,-1,296,-1,298,300,302,-1,304,306,308,-1,310,312,-1,314,-1,-1,-1,-1,-1,-1,-1,-1,-1,-1,-1,-1,-1,-1,-1,-1,-1,-1,-1,-1,-1,-1,-1,-1,-1,-1,-1,-1,-1,-1,-1,-1,-1,-1,-1,-1,-1,-1,-1,-1,-1,-1,-1,-1,-1,-1,-1,-1,-1,-1,-1,-1,-1,-1,-1,-1,-1,-1,-1,-1,-1,-1,-1,-1,-1,-1,-1,-1,-1,-1,-1,-1,-1,-1,-1,-1,-1,-1,-1,-1,-1,-1,-1,-1,-1,-1,-1,-1,-1,-1,-1,-1,-1,-1,-1,-1,-1,-1,-1,-1,-1,-1,-1,-1,-1,-1,-1,-1,-1,-1,-1,-1,-1,-1],"split_conditions":[1E0,1E0,1E0,1E0,1E0,1E0,1E0,1E0,1E0,1E0,1E0,1E0,1E0,1E0,1E0,1E0,1E0,1E0,1E0,1E0,1E0,1E0,1E0,1E0,1E0,1E0,1E0,1E0,3.4374256E-2,1E0,1E0,1E0,1E0,1E0,4.1467E-1,1E0,1E0,1E0,1E0,1E0,1E0,1E0,1E0,1E0,1E0,1E0,1E0,1E0,1E0,1E0,1E0,1E0,1E0,1E0,1E0,1E0,1E0,1E0,1E0,1E0,1E0,1E0,1.7982204E-1,1E0,1E0,1E0,3.2877705E-1,5.0692534E-1,1E0,5.7170933E-1,2.1046028E-2,1E0,1E0,1E0,1E0,1E0,1E0,-3.6104417E-1,-1.2176926E-1,1E0,1E0,1E0,-5.440041E-2,1E0,1E0,1E0,1E0,1E0,1E0,-2.9924223E-1,-6.673177E-2,1E0,1E0,1E0,1E0,1E0,1E0,3.1766436E-1,1E0,1E0,-2.593469E-1,-8.72154E-2,1E0,1E0,-3.3358213E-1,1E0,1E0,1E0,1.3641548E-1,1E0,-1.2968944E-1,1E0,1E0,1E0,1E0,1E0,1E0,4.3479696E-1,1E0,1E0,1E0,1E0,1E0,1E0,1.16651475E-1,1E0,1E0,1E0,4.3224543E-1,1E0,-1.0111129E-1,1E0,1E0,1E0,-2.1748787E-2,4.155848E-2,-2.2067797E-1,1E0,1E0,1E0,2.0779571E-1,1E0,2.628454E-1,1E0,1E0,1E0,-9.6358836E-2,1E0,1E0,1E0,-5.0583653E-2,1E0,1E0,1E0,-2.8630453E-1,1E0,1E0,1E0,1E0,1E0,1E0,1E0,1E0,1E0,1E0,1E0,1E0,1.6334722E-2,1E0,3.255677E-1,-1.1311021E-1,1.795922E-1,1E0,1E0,4.3317524E-1,4.2307186E-1,1.159436E-1,1E0,1E0,1E0,1E0,1E0,1E0,5.31385E-1,2.0327432E-1,1E0,6.939032E-2,1E0,5.2496386E-1,1E0,1E0,1E0,5.3582007E-1,1E0,1E0,1E0,5.387758E-1,1E0,1E0,-1.08083524E-1,1E0,-2.5653473E-1,6.6041395E-2,2.1334529E-1,-1.1597318E-1,1.3738516E-1,-1.2372267E-1,-1.9773705E-1,-2.3934584E-2,-3.2707274E-1,-3.917341E-2,2.8105733E-1,-1.417957E-1,4.5066544E-1,2.8712338E-2,2.7971134E-1,-6.342041E-2,2.935958E-1,1.0834397E-2,-2.695276E-1,-6.665083E-2,-9.615228E-2,3.1591403E-1,4.0111858E-1,3.4767203E-2,-3.3133036E-1,-2.4819069E-1,-2.46661E-4,-2.481177E-1,-2.6884052E-1,-1.3862161E-1,-1.1947969E-1,2.4466103E-1,-2.6108435E-1,-1.580572E-1,-1.4084028E-1,2.1673363E-1,-3.5816857E-1,-1.8549974E-1,1.9437496E-1,-5.3252544E-2,-2.534922E-1,-4.1766867E-2,-2.7869102E-1,-5.628015E-2,-1.199599E-1,-2.930876E-1,2.94165E-2,-1.6622265E-1,-1.6953021E-1,-1.0138769E-2,1.14723966E-1,-5.665718E-2,-2.4306695E-1,7.732637E-2,3.8425943E-1,-1.3613999E-1,-1.0383007E-1,4.0683988E-1,4.1003567E-1,1.704445E-1,2.708404E-1,-1.6029653E-1,5.6291115E-1,1.8292089E-1,2.3021123E-3,1.764091E-1,4.265178E-1,6.621126E-1,2.3679009E-1,6.329498E-1,1.5701061E-1,-3.10542E-2,-2.1018194E-1,-1.0187431E-1,-3.305235E-1,-1.8164289E-1,-1.6564196E-1,1.2187656E-1,6.670488E-2,-2.3554309E-1,-1.4179505E-1,3.7051725E-1,-2.1692713E-1,-9.109653E-2,-1.9315924E-1,-3.7092865E-2,-6.39553E-2,1.7249161E-1,-1.07525215E-1,2.0438637E-1,3.4279773E-1,7.792343E-2,4.82562E-1,2.2493127E-1,1.2560415E-1,3.7249088E-1,3.8937363E-1,-2.2879137E-1,-1.710832E-2,3.9585623E-1,4.186234E-1,2.5342047E-1,7.547246E-2,-2.854898E-1,3.1271192E-1,1.0991793E-1,3.7521482E-1,-3.17084E-2,2.7172232E-1,5.8018893E-1,4.2679423E-1,8.188906E-2,2.03644E-1,-1.6681249E-3],"split_indices":[39,73,38,38,38,34,73,81,18,81,81,0,73,0,50,63,37,81,5,0,0,18,0,73,81,20,81,1,0,51,6,6,77,4,0,28,43,71,77,51,113,75,26,1,3,50,9,50,75,51,73,48,62,102,50,48,77,49,1,81,75,37,0,1,54,3,0,0,14,0,0,13,3,67,41,50,67,0,0,34,15,42,0,77,40,4,77,9,1,0,0,21,6,21,48,75,19,0,5,27,0,0,56,75,0,4,4,89,0,9,0,8,6,22,82,3,1,0,66,80,71,13,40,19,0,5,40,51,0,81,0,4,63,78,0,0,0,80,75,63,0,16,0,19,43,37,0,71,31,6,0,75,71,5,0,1,16,6,40,46,77,10,21,3,50,1,3,0,54,0,0,0,56,1,0,0,0,30,27,47,20,26,13,0,0,16,0,46,0,0,79,6,0,13,28,78,0,62,13,0,17,0,0,0,0,0,0,0,0,0,0,0,0,0,0,0,0,0,0,0,0,0,0,0,0,0,0,0,0,0,0,0,0,0,0,0,0,0,0,0,0,0,0,0,0,0,0,0,0,0,0,0,0,0,0,0,0,0,0,0,0,0,0,0,0,0,0,0,0,0,0,0,0,0,0,0,0,0,0,0,0,0,0,0,0,0,0,0,0,0,0,0,0,0,0,0,0,0,0,0,0,0,0,0,0,0,0,0,0,0,0,0,0,0,0],"split_type":[0,0,0,0,0,0,0,0,0,0,0,0,0,0,0,0,0,0,0,0,0,0,0,0,0,0,0,0,0,0,0,0,0,0,0,0,0,0,0,0,0,0,0,0,0,0,0,0,0,0,0,0,0,0,0,0,0,0,0,0,0,0,0,0,0,0,0,0,0,0,0,0,0,0,0,0,0,0,0,0,0,0,0,0,0,0,0,0,0,0,0,0,0,0,0,0,0,0,0,0,0,0,0,0,0,0,0,0,0,0,0,0,0,0,0,0,0,0,0,0,0,0,0,0,0,0,0,0,0,0,0,0,0,0,0,0,0,0,0,0,0,0,0,0,0,0,0,0,0,0,0,0,0,0,0,0,0,0,0,0,0,0,0,0,0,0,0,0,0,0,0,0,0,0,0,0,0,0,0,0,0,0,0,0,0,0,0,0,0,0,0,0,0,0,0,0,0,0,0,0,0,0,0,0,0,0,0,0,0,0,0,0,0,0,0,0,0,0,0,0,0,0,0,0,0,0,0,0,0,0,0,0,0,0,0,0,0,0,0,0,0,0,0,0,0,0,0,0,0,0,0,0,0,0,0,0,0,0,0,0,0,0,0,0,0,0,0,0,0,0,0,0,0,0,0,0,0,0,0,0,0,0,0,0,0,0,0,0,0,0,0,0,0,0,0,0,0,0,0,0,0,0,0,0,0,0,0,0,0,0,0,0,0,0,0],"sum_hessian":[6.983395E3,3.2733154E3,3.7100793E3,2.1167033E2,3.061645E3,2.4375376E3,1.2725419E3,1.2079542E2,9.087491E1,2.3963247E3,6.653204E2,2.0977148E3,3.398229E2,2.3904204E2,1.0334998E3,9.31561E1,2.7639318E1,4.1833675E1,4.9041233E1,2.090062E3,3.062627E2,4.8739655E2,1.7792381E2,1.9928875E3,1.0482725E2,2.9331997E1,3.104909E2,2.3773663E2,1.3053944E0,7.525624E2,2.809374E2,4.074639E1,5.2409706E1,2.3592793E1,4.0465264E0,2.204667E1,1.9787004E1,1.4474549E1,3.4566685E1,1.2807152E3,8.093467E2,2.4526425E2,6.0998447E1,1.3028845E2,3.571081E2,1.6402019E2,1.3903617E1,2.4175969E2,1.7511278E3,8.591957E1,1.8907677E1,2.1974604E1,7.3573933E0,2.5056926E2,5.9921635E1,2.1779924E2,1.9937399E1,3.5777344E2,3.9478894E2,2.5640393E2,2.453348E1,3.8975937E1,1.770452E0,4.3807655E1,8.602052E0,1.8609484E1,4.9833097E0,6.8592205E0,1.518745E1,1.8648836E1,1.1381685E0,7.205269E0,7.26928E0,3.2222095E1,2.3445907E0,1.2173E3,6.341517E1,8.0760614E2,1.7405305E0,1.2994905E1,2.3226935E2,5.9939438E1,1.0590127E0,1.0346138E2,2.682708E1,2.9747815E2,5.962995E1,1.2392265E2,4.009754E1,1.2690535E1,1.2130821E0,2.0397069E2,3.778899E1,1.09709404E2,1.6414185E3,8.31676E1,2.7519665E0,1.0971823E0,1.7810493E1,1.9652592E1,2.322012E0,1.0712774E0,6.286116E0,2.1898877E2,3.1580492E1,5.318531E1,6.7363243E0,2.1631158E2,1.4876466E0,1.8748749E1,1.1886499E0,2.2673303E2,1.3104039E2,3.4053345E2,5.4255497E1,1.3837392E2,1.1803002E2,3.523438E0,2.1010042E1,3.3995754E1,4.9801846E0,3.5233807E1,8.573851E0,7.049487E0,1.5525646E0,1.2226881E1,6.382602E0,1.0706852E1,4.4805984E0,5.3898516E0,1.8154173E0,5.0847087E0,2.1845715E0,3.0677212E1,1.544882E0,1.1054116E0,1.2391791E0,1.1179125E3,9.938762E1,6.173893E1,1.6762412E0,1.156969E1,1.425216E0,1.8707231E2,4.5197037E1,5.856518E1,1.3742561E0,8.331741E1,2.0143967E1,2.4922056E1,1.9050249E0,2.561164E2,4.136175E1,5.33504E1,6.2795515E0,1.0323728E2,2.0685366E1,2.9527525E1,1.0570019E1,9.801297E1,1.05957726E2,3.548203E1,2.306961E0,5.414881E1,5.5560596E1,1.549753E3,9.166537E1,1.288223E0,8.187938E1,1.5017582E0,1.2502084E0,2.2096133E0,1.5600881E1,1.7688536E1,1.9640561E0,4.9357853E0,1.3503308E0,9.325819E0,2.0966295E2,3.28543E1,2.0331005E1,3.3741238E0,3.3622005E0,2.1431172E2,1.9998666E0,1.7498833E1,1.2499167E0,2.1557207E2,1.1160972E1,1.09183395E2,2.1856993E1,2.802457E2,6.028774E1,8.494198E0,4.57613E1,9.269469E1,4.5679222E1,1.0488834E2,1.3141682E1,1.8772966E0,1.9132746E1,3.2184994E1,1.8107611E0,1.1567447E0,3.8234396E0,2.9123672E1,6.1101327E0,6.905386E0,1.6684643E0,5.1986694E0,1.8508179E0,2.940713E0,9.286168E0,2.5388E0,3.8438022E0,5.5446014E0,5.1622505E0,4.231347E0,1.1585044E0,4.0761604E0,1.0085483E0,1.0651472E0,1.1194243E0,2.8331858E1,2.3453543E0,1.0303596E3,8.755289E1,4.562377E0,9.482524E1,3.0924273E1,3.0814657E1,1.0087841E1,1.4818482E0,1.3242796E2,5.4644352E1,4.3047047E1,2.1499906E0,5.4183746E1,4.381435E0,3.1957142E1,5.1360268E1,1.664959E1,3.4943783E0,2.387119E1,1.0508668E0,1.1928577E1,2.4418782E2,1.4335792E1,2.7025959E1,1.7586231E1,3.5764168E1,6.865097E1,3.458632E1,1.643833E1,4.247036E0,2.6811932E1,2.7155936E0,8.970281E0,1.5997379E0,9.093322E1,7.0797563E0,9.7129745E1,8.82798E0,3.4027637E1,1.4543905E0,1.1845889E0,1.1223723E0,3.78585E1,1.6290306E1,4.856158E1,6.9990153E0,1.2802352E3,2.6951785E2,7.06658E1,2.0999569E1,6.976457E1,1.2114803E1,1.3031403E1,2.569478E0,1.5966656E1,1.7218801E0,6.8628674E0,2.4629517E0,1.8889857E2,2.0764374E1,2.3213692E1,9.640611E0,1.794739E1,2.3836167E0,2.2996664E0,1.0744575E0,2.2692132E0,1.0929873E0,1.3749083E1,3.74975E0,1.8646193E2,2.9110138E1,1.0777952E2,1.4038734E0,1.4257671E1,7.5993214E0,2.5697815E2,2.3267553E1,7.1022716E0,1.3919262E0,3.5603317E1,1.0157985E1,8.793652E1,4.7581654E0,3.1186485E0,1.0176969E2,1.1716906E1,1.4247756E0,1.5939883E1,3.192862E0],"tree_param":{"num_deleted":"0","num_feature":"123","num_nodes":"315","size_leaf_vector":"1"}},{"base_weights":[-5.0034553E-2,-7.2588634E-1,4.431198E-1,-9.109578E-1,-1.8846197E-1,2.0469335E-1,9.003312E-1,-5.6884497E-2,-9.626512E-1,7.6624995E-1,-3.3576176E-1,2.9388753E-1,-4.300906E-1,1.2846986E0,8.1770915E-1,9.25809E-2,-7.0266443E-1,-1.0131204E0,-6.420694E-1,5.921056E-1,1.1654483E0,-2.1166043E-1,-1.0074724E0,3.36658E-1,-6.687629E-1,2.706992E-1,-5.07073E-1,1.3236843E0,7.068376E-1,1.3681388E0,7.4741894E-1,-6.772606E-2,5.1317763E-1,2.246748E-1,-9.062942E-1,-9.3837535E-1,-1.1344911E0,-5.451038E-1,-1.054505E0,6.8231213E-1,-2.1846785E-1,1.2769241E0,4.9185225E-1,-3.9228863E-1,1.6539869E-1,-6.9036745E-2,-1.0424348E0,5.5463326E-1,1.4329304E-1,-8.1624115E-1,-6.115157E-2,4.1365033E-1,-5.3528214E-1,-5.92883E-1,-1.740736E-1,1.3308026E0,7.828883E-2,8.115577E-1,-1.108229E-1,1.4177399E0,7.9587287E-1,7.93149E-1,2.508141E-1,-1.6185932E-1,5.479752E-1,6.052911E-1,-3.845448E-1,1.8679452E-1,-1.8341464E-1,-9.9296844E-1,3.20648E-2,-9.614447E-1,-5.2601033E-1,-3.4078234E-1,-1.04646035E-1,-5.787384E-1,2.1589282E-1,-1.0703413E0,-4.6842832E-2,7.687314E-1,-1.1775303E-1,2.9957804E-1,-2.2384761E-1,1.3515254E0,7.4887E-2,3.140972E-1,-2.5502583E-1,-2.20526E-1,-7.9979897E-1,1.0038315E0,8.91574E-2,-1.1673802E-1,7.6148644E-2,-1.0512729E0,-1.00806825E-1,5.9419304E-1,-4.4597748E-1,2.128761E-1,-6.550955E-1,-8.691607E-1,3.894468E-1,-1.8513723E-1,2.9289442E-1,5.3334874E-1,-1.8714465E-1,-7.101561E-1,1.1251822E-2,-6.7090666E-1,-2.8195778E-1,-2.6872882E-1,4.511621E-1,1.3380128E0,1.0359186E-1,9.259863E-1,-8.020443E-2,7.970127E-1,1.4709572E0,3.432334E-1,1.1351123E-1,7.086399E-1,1.0093315E0,-1.33094005E-2,8.3943063E-1,-6.535324E-2,-6.9046175E-1,3.473209E-1,4.4019412E-2,6.8282545E-1,-1.19398884E-1,6.412879E-2,-2.375083E-1,-3.0968678E-1,-6.671367E-2,-9.8866236E-1,-6.672371E-1,-3.6517584E-1,-2.8200984E-1,-6.5936077E-1,-1.8795319E-1,-5.5275226E-1,8.0846995E-1,-1.1057498E0,-5.263552E-1,8.2605237E-1,3.5951075E-3,-4.6304232E-1,2.2333904E-1,6.06856E-1,-1.0526409E-1,1.4699883E0,7.579355E-1,-1.18169E-1,-7.706429E-1,-3.9823495E-2,-8.379893E-1,1.1335248E0,-6.727057E-2,3.751307E-1,-9.789951E-2,-1.11227915E-1,-1.0599576E0,6.278923E-1,-2.7510422E-1,4.9445704E-2,-6.705884E-1,2.989593E-1,-2.0566379E-1,-7.18101E-1,6.63349E-1,-1.4553653E-1,-9.104497E-1,2.649201E-1,-1.08492434E-1,2.4536052E-1,-4.7830546E-1,6.7249894E-1,-5.014615E-1,-2.4831188E-1,-6.836099E-2,-7.286298E-1,-2.3292704E-1,-4.4470257E-1,7.2377974E-1,-3.2064208E-1,3.6536825E-1,7.273381E-1,-2.2171782E-1,1.3440521E0,8.889522E-2,3.1113818E-1,-4.596296E-2,1.0655531E0,-6.0808267E-2,4.4571403E-1,5.226406E-2,-4.8093677E-1,2.4550687E-1,5.2730596E-1,8.7146455E-1,1.0706407E0,1.7248677E-1,3.2094446E-1,-2.671402E-1,-6.7773074E-2,9.181851E-1,2.4980657E-2,-1.6290589E-1,-2.4028938E-1,-6.0429353E-2,-1.1009585E-1,3.0236918E-1,2.2261268E-1,-8.801375E-2,-3.0405268E-1,-2.1145816E-1,-1.6688454E-1,-2.9627946E-1,3.6849644E-2,-1.7023492E-1,-2.0751505E-1,1.290468E-1,-1.11472175E-1,1.22611545E-1,-5.5152446E-2,-2.3034081E-1,4.9872193E-2,3.8739955E-1,-3.3729807E-1,-8.26594E-2,-2.5839606E-1,8.7640084E-2,2.6791245E-1,-3.608827E-2,-1.13949455E-1,1.865779E-1,-2.5321496E-1,1.3515249E-1,2.2277309E-2,2.6387772E-1,4.6659935E-1,1.3778709E-1,2.8798315E-1,5.802601E-2,-1.1529462E-2,-2.4328713E-1,5.952626E-2,-2.4826702E-1,-9.49255E-2,1.4906263E-1,-2.561321E-1,4.7529377E-2,3.9201525E-1,1.1360781E-1,2.1503969E-1,4.4249352E-2,-4.2759676E-2,2.2978023E-1,-3.2067615E-1,-1.343442E-1,2.1026702E-1,6.810947E-2,-1.7544574E-1,-2.3143807E-2,-8.946377E-2,3.5824507E-1,1.1454725E-1,-2.2993298E-1,1.0285938E-1,-1.4856201E-1,5.974718E-2,-9.542305E-2,-2.5536746E-1,-8.318328E-2,1.4644782E-2,3.4283268E-1,3.9988734E-2,-1.1355806E-1,-2.8233656E-1,-2.1089828E-2,1.2437584E-1,-1.0928972E-1,2.3222007E-1,-2.0490341E-1,2.3409107E-1,-2.1476321E-1,3.9091157E-3,-2.3955537E-1,-2.4485603E-1,-9.675791E-2,-1.10029824E-1,7.4988306E-2,1.6790803E-1,-1.571013E-1,9.510121E-3,2.803875E-1,-1.2885804E-1,2.131189E-2,1.3934976E-1,4.6805944E-2,5.7299957E-2,3.2192507E-1,3.6989412E-1,4.3386623E-1,3.809578E-1,1.0571876E-1,-1.2561455E-1,7.813308E-2,7.986151E-3,-2.3175551E-1,1.6707179E-1,-1.5953699E-1,2.7995354E-1,1.3987707E-1,3.6587277E-1,2.4784882E-1,8.213941E-2,-9.953145E-2,1.3368724E-1,-2.1187444E-1,-1.2856372E-1,1.3351192E-1,2.020733E-1,4.3149433E-1],"categories":[],"categories_nodes":[],"categories_segments":[],"categories_sizes":[],"default_left":[0,0,0,0,0,0,0,0,0,0,0,0,0,0,0,0,0,0,0,0,0,0,0,0,0,0,0,0,0,0,0,0,0,0,0,0,0,0,0,0,0,0,0,0,0,0,0,0,0,0,0,0,0,0,0,0,0,0,0,0,0,0,0,0,0,0,0,0,0,0,0,0,0,0,0,0,0,0,0,0,0,0,0,0,0,0,0,0,0,0,0,0,0,0,0,0,0,0,0,0,0,0,0,0,0,0,0,0,0,0,0,0,0,0,0,0,0,0,0,0,0,0,0,0,0,0,0,0,0,0,0,0,0,0,0,0,0,0,0,0,0,0,0,0,0,0,0,0,0,0,0,0,0,0,0,0,0,0,0,0,0,0,0,0,0,0,0,0,0,0,0,0,0,0,0,0,0,0,0,0,0,0,0,0,0,0,0,0,0,0,0,0,0,0,0,0,0,0,0,0,0,0,0,0,0,0,0,0,0,0,0,0,0,0,0,0,0,0,0,0,0,0,0,0,0,0,0,0,0,0,0,0,0,0,0,0,0,0,0,0,0,0,0,0,0,0,0,0,0,0,0,0,0,0,0,0,0,0,0,0,0,0,0,0,0,0,0,0,0,0,0,0,0,0,0,0,0,0,0,0,0,0,0,0,0,0,0,0,0,0,0,0,0,0,0,0,0,0,0,0,0,0,0,0,0,0,0,0,0,0,0,0,0,0,0,0,0,0,0,0,0,0,0],"id":2,"left_children":[1,3,5,7,9,11,13,15,17,19,21,23,25,27,29,31,33,35,37,39,41,43,45,47,49,51,53,55,57,59,61,63,65,67,69,71,73,75,77,79,81,83,85,87,89,91,93,95,97,99,101,103,105,107,109,111,-1,113,-1,115,117,119,121,123,125,127,129,-1,-1,131,-1,133,135,-1,-1,137,139,141,-1,143,145,147,-1,149,-1,-1,-1,151,153,155,157,-1,-1,159,-1,161,163,165,167,169,171,173,-1,175,-1,177,-1,179,181,183,185,187,-1,189,-1,191,193,-1,195,197,199,201,203,205,207,-1,209,211,-1,-1,-1,-1,-1,213,215,217,-1,219,221,223,225,227,229,231,233,235,-1,237,-1,239,241,243,245,247,249,251,-1,253,255,-1,257,259,261,263,265,267,269,271,273,275,277,-1,-1,279,281,283,285,-1,-1,287,289,291,293,295,297,299,-1,301,-1,-1,-1,303,305,-1,-1,307,-1,309,311,313,315,317,319,-1,321,-1,-1,-1,-1,-1,-1,-1,-1,-1,-1,-1,-1,-1,-1,-1,-1,-1,-1,-1,-1,-1,-1,-1,-1,-1,-1,-1,-1,-1,-1,-1,-1,-1,-1,-1,-1,-1,-1,-1,-1,-1,-1,-1,-1,-1,-1,-1,-1,-1,-1,-1,-1,-1,-1,-1,-1,-1,-1,-1,-1,-1,-1,-1,-1,-1,-1,-1,-1,-1,-1,-1,-1,-1,-1,-1,-1,-1,-1,-1,-1,-1,-1,-1,-1,-1,-1,-1,-1,-1,-1,-1,-1,-1,-1,-1,-1,-1,-1,-1,-1,-1,-1,-1,-1,-1,-1,-1,-1,-1,-1,-1,-1,-1,-1,-1,-1,-1,-1],"loss_changes":[2.176479E3,2.7382068E2,4.1137622E2,9.040161E1,9.966853E1,1.4069391E2,4.0033813E1,1.1453953E1,3.0605713E1,5.8997498E0,5.0895912E1,8.98759E1,1.6660244E1,4.181366E0,4.0281372E1,6.5547132E0,4.413309E0,1.4061401E1,1.004287E1,5.1236153E0,1.4563637E0,3.5396866E1,3.0562973E0,8.7819885E1,8.280338E0,3.7892327E0,7.7921906E0,1.2536621E0,2.1595745E0,2.2689667E0,2.1349854E1,4.1977963E0,2.4490862E0,1.9828264E0,1.7287931E0,9.365601E0,3.222046E-1,5.6799316E0,5.3663254E-1,4.3401413E0,2.293075E0,1.4399376E0,5.038089E0,2.4394806E1,1.0696009E1,5.6336355E-1,2.2018433E-1,3.9056915E1,6.1608154E1,5.1062317E0,2.6552978E0,3.6689515E0,5.375613E-1,5.1304398E0,3.5554626E0,1.0300598E0,0E0,2.142747E0,0E0,2.4236603E0,2.6803322E0,1.5150024E1,1.26775055E1,3.131373E0,2.9082685E0,2.192872E0,9.2578197E-1,0E0,0E0,2.8914642E-1,0E0,7.199646E0,3.4645205E0,0E0,0E0,6.432884E0,4.9627476E0,3.5101318E-1,0E0,2.4357376E0,2.3867154E0,1.1190919E0,0E0,3.902626E-1,0E0,0E0,0E0,1.389218E1,2.9766235E0,2.4786406E0,8.368818E0,0E0,0E0,1.4035797E-1,0E0,2.7802032E1,4.2441545E0,3.6757797E1,7.8651466E0,2.0154648E0,1.7402389E0,2.3922033E0,0E0,3.8831735E0,0E0,3.577602E-2,0E0,4.2435913E0,7.8040333E0,1.7968009E0,3.1682744E0,9.109497E-1,0E0,1.8504457E0,0E0,2.5477633E0,1.6371307E0,0E0,2.5330467E0,1.8073639E1,1.2216431E1,4.940681E0,2.3259563E0,3.8616908E0,3.5249615E-1,0E0,2.8704278E0,1.5642138E0,0E0,0E0,0E0,0E0,0E0,5.605835E0,2.5141525E0,4.2965E0,0E0,6.3652573E0,4.2045746E0,2.483759E-1,1.6473744E0,3.7763214E-1,1.5864633E0,3.3864937E0,1.3931264E0,2.2995505E0,0E0,4.351709E-1,0E0,7.322159E-1,4.5564628E-1,1.1600264E1,2.3028355E0,1.0497024E0,1.6875534E0,1.1781902E0,0E0,4.7008524E0,3.7703187E0,0E0,7.270813E-3,2.6418243E1,2.1555119E0,5.424623E0,2.926218E0,2.9639374E1,7.997059E0,4.7738914E0,1.2925749E0,3.7988746E-1,1.68153E0,0E0,0E0,9.725727E-1,3.36453E0,3.8714523E0,5.440575E-1,0E0,0E0,5.204338E0,1.5004438E0,3.462957E0,9.5495915E-1,2.06468E0,1.736176E-2,1.0930743E0,0E0,5.61676E-1,0E0,0E0,0E0,7.5642776E-1,5.1329213E-1,0E0,0E0,5.2372795E-1,0E0,9.685318E0,7.797119E0,7.1856384E0,9.946374E-1,3.5360167E0,3.9920452E0,0E0,2.0477276E0,0E0,0E0,0E0,0E0,0E0,0E0,0E0,0E0,0E0,0E0,0E0,0E0,0E0,0E0,0E0,0E0,0E0,0E0,0E0,0E0,0E0,0E0,0E0,0E0,0E0,0E0,0E0,0E0,0E0,0E0,0E0,0E0,0E0,0E0,0E0,0E0,0E0,0E0,0E0,0E0,0E0,0E0,0E0,0E0,0E0,0E0,0E0,0E0,0E0,0E0,0E0,0E0,0E0,0E0,0E0,0E0,0E0,0E0,0E0,0E0,0E0,0E0,0E0,0E0,0E0,0E0,0E0,0E0,0E0,0E0,0E0,0E0,0E0,0E0,0E0,0E0,0E0,0E0,0E0,0E0,0E0,0E0,0E0,0E0,0E0,0E0,0E0,0E0,0E0,0E0,0E0,0E0,0E0,0E0,0E0,0E0,0E0,0E0,0E0,0E0,0E0,0E0,0E0,0E0,0E0,0E0,0E0,0E0,0E0,0E0,0E0,0E0,0E0,0E0,0E0,0E0,0E0,0E0],"parents":[2147483647,0,0,1,1,2,2,3,3,4,4,5,5,6,6,7,7,8,8,9,9,10,10,11,11,12,12,13,13,14,14,15,15,16,16,17,17,18,18,19,19,20,20,21,21,22,22,23,23,24,24,25,25,26,26,27,27,28,28,29,29,30,30,31,31,32,32,33,33,34,34,35,35,36,36,37,37,38,38,39,39,40,40,41,41,42,42,43,43,44,44,45,45,46,46,47,47,48,48,49,49,50,50,51,51,52,52,53,53,54,54,55,55,57,57,59,59,60,60,61,61,62,62,63,63,64,64,65,65,66,66,69,69,71,71,72,72,75,75,76,76,77,77,79,79,80,80,81,81,83,83,87,87,88,88,89,89,90,90,93,93,95,95,96,96,97,97,98,98,99,99,100,100,101,101,103,103,105,105,107,107,108,108,109,109,110,110,111,111,113,113,115,115,116,116,118,118,119,119,120,120,121,121,122,122,123,123,124,124,126,126,127,127,133,133,134,134,135,135,137,137,138,138,139,139,140,140,141,141,142,142,143,143,144,144,145,145,147,147,149,149,150,150,151,151,152,152,153,153,154,154,155,155,157,157,158,158,160,160,161,161,162,162,163,163,164,164,165,165,166,166,167,167,168,168,169,169,170,170,173,173,174,174,175,175,176,176,179,179,180,180,181,181,182,182,183,183,184,184,185,185,187,187,191,191,192,192,195,195,197,197,198,198,199,199,200,200,201,201,202,202,204,204],"right_children":[2,4,6,8,10,12,14,16,18,20,22,24,26,28,30,32,34,36,38,40,42,44,46,48,50,52,54,56,58,60,62,64,66,68,70,72,74,76,78,80,82,84,86,88,90,92,94,96,98,100,102,104,106,108,110,112,-1,114,-1,116,118,120,122,124,126,128,130,-1,-1,132,-1,134,136,-1,-1,138,140,142,-1,144,146,148,-1,150,-1,-1,-1,152,154,156,158,-1,-1,160,-1,162,164,166,168,170,172,174,-1,176,-1,178,-1,180,182,184,186,188,-1,190,-1,192,194,-1,196,198,200,202,204,206,208,-1,210,212,-1,-1,-1,-1,-1,214,216,218,-1,220,222,224,226,228,230,232,234,236,-1,238,-1,240,242,244,246,248,250,252,-1,254,256,-1,258,260,262,264,266,268,270,272,274,276,278,-1,-1,280,282,284,286,-1,-1,288,290,292,294,296,298,300,-1,302,-1,-1,-1,304,306,-1,-1,308,-1,310,312,314,316,318,320,-1,322,-1,-1,-1,-1,-1,-1,-1,-1,-1,-1,-1,-1,-1,-1,-1,-1,-1,-1,-1,-1,-1,-1,-1,-1,-1,-1,-1,-1,-1,-1,-1,-1,-1,-1,-1,-1,-1,-1,-1,-1,-1,-1,-1,-1,-1,-1,-1,-1,-1,-1,-1,-1,-1,-1,-1,-1,-1,-1,-1,-1,-1,-1,-1,-1,-1,-1,-1,-1,-1,-1,-1,-1,-1,-1,-1,-1,-1,-1,-1,-1,-1,-1,-1,-1,-1,-1,-1,-1,-1,-1,-1,-1,-1,-1,-1,-1,-1,-1,-1,-1,-1,-1,-1,-1,-1,-1,-1,-1,-1,-1,-1,-1,-1,-1,-1,-1,-1,-1],"split_conditions":[1E0,1E0,1E0,1E0,1E0,1E0,1E0,1E0,1E0,1E0,1E0,1E0,1E0,1E0,1E0,1E0,1E0,1E0,1E0,1E0,1E0,1E0,1E0,1E0,1E0,1E0,1E0,1E0,1E0,1E0,1E0,1E0,1E0,1E0,1E0,1E0,1E0,1E0,1E0,1E0,1E0,1E0,1E0,1E0,1E0,1E0,1E0,1E0,1E0,1E0,1E0,1E0,1E0,1E0,1E0,1E0,7.828883E-2,1E0,-1.108229E-1,1E0,1E0,1E0,1E0,1E0,1E0,1E0,1E0,1.8679452E-1,-1.8341464E-1,1E0,3.20648E-2,1E0,1E0,-3.4078234E-1,-1.04646035E-1,1E0,1E0,1E0,-4.6842832E-2,1E0,1E0,1E0,-2.2384761E-1,1E0,7.4887E-2,3.140972E-1,-2.5502583E-1,1E0,1E0,1E0,1E0,-1.1673802E-1,7.6148644E-2,1E0,-1.00806825E-1,1E0,1E0,1E0,1E0,1E0,1E0,1E0,2.9289442E-1,1E0,-1.8714465E-1,1E0,1.1251822E-2,1E0,1E0,1E0,1E0,1E0,1.0359186E-1,1E0,-8.020443E-2,1E0,1E0,3.432334E-1,1E0,1E0,1E0,1E0,1E0,1E0,1E0,3.473209E-1,1E0,1E0,-1.19398884E-1,6.412879E-2,-2.375083E-1,-3.0968678E-1,-6.671367E-2,1E0,1E0,1E0,-2.8200984E-1,1E0,1E0,1E0,1E0,1E0,1E0,1E0,1E0,1E0,2.2333904E-1,1E0,-1.0526409E-1,1E0,1E0,1E0,1E0,1E0,1E0,1E0,-6.727057E-2,1E0,1E0,-1.11227915E-1,1E0,1E0,1E0,1E0,1E0,1E0,1E0,1E0,1E0,1E0,1E0,2.649201E-1,-1.08492434E-1,1E0,1E0,1E0,1E0,-2.4831188E-1,-6.836099E-2,1E0,1E0,1E0,1E0,1E0,1E0,1E0,-2.2171782E-1,1E0,8.889522E-2,3.1113818E-1,-4.596296E-2,1E0,1E0,4.4571403E-1,5.226406E-2,1E0,2.4550687E-1,1E0,1E0,1E0,1E0,1E0,1E0,-6.7773074E-2,1E0,2.4980657E-2,-1.6290589E-1,-2.4028938E-1,-6.0429353E-2,-1.1009585E-1,3.0236918E-1,2.2261268E-1,-8.801375E-2,-3.0405268E-1,-2.1145816E-1,-1.6688454E-1,-2.9627946E-1,3.6849644E-2,-1.7023492E-1,-2.0751505E-1,1.290468E-1,-1.11472175E-1,1.22611545E-1,-5.5152446E-2,-2.3034081E-1,4.9872193E-2,3.8739955E-1,-3.3729807E-1,-8.26594E-2,-2.5839606E-1,8.7640084E-2,2.6791245E-1,-3.608827E-2,-1.13949455E-1,1.865779E-1,-2.5321496E-1,1.3515249E-1,2.2277309E-2,2.6387772E-1,4.6659935E-1,1.3778709E-1,2.8798315E-1,5.802601E-2,-1.1529462E-2,-2.4328713E-1,5.952626E-2,-2.4826702E-1,-9.49255E-2,1.4906263E-1,-2.561321E-1,4.7529377E-2,3.9201525E-1,1.1360781E-1,2.1503969E-1,4.4249352E-2,-4.2759676E-2,2.2978023E-1,-3.2067615E-1,-1.343442E-1,2.1026702E-1,6.810947E-2,-1.7544574E-1,-2.3143807E-2,-8.946377E-2,3.5824507E-1,1.1454725E-1,-2.2993298E-1,1.0285938E-1,-1.4856201E-1,5.974718E-2,-9.542305E-2,-2.5536746E-1,-8.318328E-2,1.4644782E-2,3.4283268E-1,3.9988734E-2,-1.1355806E-1,-2.8233656E-1,-2.1089828E-2,1.2437584E-1,-1.0928972E-1,2.3222007E-1,-2.0490341E-1,2.3409107E-1,-2.1476321E-1,3.9091157E-3,-2.3955537E-1,-2.4485603E-1,-9.675791E-2,-1.10029824E-1,7.4988306E-2,1.6790803E-1,-1.571013E-1,9.510121E-3,2.803875E-1,-1.2885804E-1,2.131189E-2,1.3934976E-1,4.6805944E-2,5.7299957E-2,3.2192507E-1,3.6989412E-1,4.3386623E-1,3.809578E-1,1.0571876E-1,-1.2561455E-1,7.813308E-2,7.986151E-3,-2.3175551E-1,1.6707179E-1,-1.5953699E-1,2.7995354E-1,1.3987707E-1,3.6587277E-1,2.4784882E-1,8.213941E-2,-9.953145E-2,1.3368724E-1,-2.1187444E-1,-1.2856372E-1,1.3351192E-1,2.020733E-1,4.3149433E-1],"split_indices":[39,38,38,73,73,34,73,0,81,3,0,0,73,77,75,81,66,0,0,9,13,81,75,21,81,77,81,87,1,9,77,50,70,77,51,51,113,9,26,0,18,10,18,1,75,71,7,55,77,51,71,102,20,30,50,55,0,49,0,66,18,50,71,43,5,20,21,0,0,37,0,50,1,0,0,4,63,37,0,77,81,17,0,17,0,0,0,77,75,9,18,0,0,41,0,48,19,1,7,73,62,21,0,53,0,14,0,27,56,7,30,48,0,16,0,4,55,0,15,51,6,18,66,1,54,0,16,48,0,0,0,0,0,80,1,71,0,51,50,71,58,42,16,6,6,51,0,41,0,49,80,54,75,50,97,1,0,51,8,0,64,1,5,14,73,55,5,60,60,19,9,0,0,15,5,80,79,0,0,14,16,75,79,14,4,4,0,81,0,0,0,1,79,0,0,2,0,48,1,79,2,67,16,0,3,0,0,0,0,0,0,0,0,0,0,0,0,0,0,0,0,0,0,0,0,0,0,0,0,0,0,0,0,0,0,0,0,0,0,0,0,0,0,0,0,0,0,0,0,0,0,0,0,0,0,0,0,0,0,0,0,0,0,0,0,0,0,0,0,0,0,0,0,0,0,0,0,0,0,0,0,0,0,0,0,0,0,0,0,0,0,0,0,0,0,0,0,0,0,0,0,0,0,0,0,0,0,0,0,0,0,0,0,0,0,0,0,0,0,0,0,0,0],"split_type":[0,0,0,0,0,0,0,0,0,0,0,0,0,0,0,0,0,0,0,0,0,0,0,0,0,0,0,0,0,0,0,0,0,0,0,0,0,0,0,0,0,0,0,0,0,0,0,0,0,0,0,0,0,0,0,0,0,0,0,0,0,0,0,0,0,0,0,0,0,0,0,0,0,0,0,0,0,0,0,0,0,0,0,0,0,0,0,0,0,0,0,0,0,0,0,0,0,0,0,0,0,0,0,0,0,0,0,0,0,0,0,0,0,0,0,0,0,0,0,0,0,0,0,0,0,0,0,0,0,0,0,0,0,0,0,0,0,0,0,0,0,0,0,0,0,0,0,0,0,0,0,0,0,0,0,0,0,0,0,0,0,0,0,0,0,0,0,0,0,0,0,0,0,0,0,0,0,0,0,0,0,0,0,0,0,0,0,0,0,0,0,0,0,0,0,0,0,0,0,0,0,0,0,0,0,0,0,0,0,0,0,0,0,0,0,0,0,0,0,0,0,0,0,0,0,0,0,0,0,0,0,0,0,0,0,0,0,0,0,0,0,0,0,0,0,0,0,0,0,0,0,0,0,0,0,0,0,0,0,0,0,0,0,0,0,0,0,0,0,0,0,0,0,0,0,0,0,0,0,0,0,0,0,0,0,0,0,0,0,0,0,0,0,0,0,0,0,0,0,0,0,0,0,0,0,0,0,0,0,0,0,0,0,0,0,0,0,0,0,0,0,0,0],"sum_hessian":[6.5281396E3,2.7537473E3,3.7743923E3,2.0478423E3,7.0590515E2,2.4816895E3,1.2927028E3,1.1699308E2,1.9308491E3,9.379276E1,6.121124E2,2.176416E3,3.0527356E2,2.2613715E2,1.0665657E3,9.5700005E1,2.1293074E1,1.6663544E3,2.644948E2,6.70336E1,2.6759167E1,5.1776776E2,9.434463E1,2.084454E3,9.196181E1,2.9966318E1,2.7530725E2,2.1063583E2,1.5501322E1,1.1868687E2,9.478788E2,6.989796E1,2.580205E1,3.8151875E0,1.7477886E1,1.0366647E3,6.296897E2,2.1602739E2,4.846742E1,6.0463062E1,6.570535E0,2.2191017E1,4.5681496E0,3.5004175E2,1.6772606E2,3.4954987E0,9.084913E1,9.7899274E2,1.1054614E3,7.372424E1,1.8237562E1,2.5865513E1,4.1008058E0,2.1827892E2,5.7028336E1,2.0898378E2,1.6520567E0,1.43509E1,1.150422E0,1.07860634E2,1.082623E1,8.674062E2,8.047257E1,6.1267944E1,8.6300125E0,2.3696362E1,2.1056883E0,2.7577295E0,1.0574578E0,1.6118908E1,1.3589786E0,9.8048114E2,5.618351E1,6.280846E2,1.6051171E0,2.0711292E2,8.914484E0,4.7439716E1,1.0277002E0,5.460414E1,5.85892E0,3.5337038E0,3.0368311E0,2.0394394E1,1.7966238E0,3.3868546E0,1.181295E0,2.4733359E2,1.0270815E2,1.2966433E1,1.5475963E2,1.652237E0,1.8432617E0,8.924439E1,1.6047349E0,9.421504E2,3.6842323E1,1.017514E3,8.7947426E1,7.089181E1,2.8324382E0,1.702454E1,1.2130224E0,2.3625603E1,2.23991E0,2.9579206E0,1.142885E0,1.7356635E2,4.4712563E1,5.002516E1,7.0031753E0,2.0711076E2,1.8730091E0,1.310294E1,1.2479602E0,9.778668E0,9.808197E1,6.7200212E0,4.106209E0,6.266982E2,2.4070804E2,5.622205E1,2.4250525E1,5.2759384E1,8.50856E0,3.3180463E0,5.3119664E0,2.2292967E1,1.4033937E0,1.0450143E0,1.0606741E0,1.501322E1,1.1056888E0,8.952954E2,8.518569E1,4.181985E1,1.4363657E1,1.7112172E2,3.5991184E1,3.9099746E0,5.0045094E0,4.357096E1,3.8687553E0,5.0724457E1,3.8796883E0,4.5141244E0,1.3447955E0,2.4454846E0,1.088219E0,1.5770608E1,4.623786E0,2.095573E2,3.777628E1,5.0120792E0,9.7696075E1,1.1797508E1,1.1689241E0,6.080115E1,9.395847E1,1.6751512E0,8.7569244E1,9.0725726E2,3.489312E1,1.1736044E1,2.5106277E1,8.441741E2,1.7333987E2,8.437087E1,3.5765543E0,4.070888E0,6.6820915E1,1.6031324E0,1.2293059E0,6.962967E0,1.0061573E1,2.113387E1,2.4917333E0,1.8023987E0,1.155522E0,1.527687E2,2.0797651E1,3.896519E1,5.747372E0,4.6696472E1,3.3286877E0,5.999883E0,1.0032923E0,2.0562837E2,1.4823956E0,1.1914869E1,1.1880703E0,7.262869E0,2.5157993E0,9.683432E1,1.2476486E0,2.3998811E0,1.7063274E0,2.9850198E2,3.281962E2,2.240167E2,1.6691357E1,2.4152601E1,3.2069447E1,1.5406771E0,2.2709846E1,4.0868996E1,1.1890388E1,6.420014E0,2.0885463E0,4.158155E0,1.1538113E0,2.1244162E1,1.0488058E0,8.208587E2,7.4436745E1,6.530432E1,1.9881369E1,1.2369591E1,2.9450262E1,1.6654097E2,4.5807514E0,2.7809954E1,8.18123E0,2.1229722E0,1.7870022E0,2.7247472E0,2.2797623E0,4.227085E1,1.3001089E0,2.7081287E0,1.1606265E0,4.742379E1,3.3006663E0,2.632804E0,1.2468842E0,3.2392383E0,1.2748863E0,1.2590626E0,1.1864221E0,1.4045727E1,1.7248812E0,2.8893695E0,1.7344162E0,1.8887404E2,2.0683262E1,1.9576311E0,3.581865E1,3.5783603E0,1.4337189E0,9.6313515E1,1.3825544E0,9.00111E0,2.7963984E0,2.3451872E1,3.734928E1,9.013629E1,3.8221807E0,8.557015E1,1.9990891E0,7.6686145E2,1.4039583E2,1.2843933E1,2.2049189E1,9.569251E0,2.1667926E0,1.8467731E0,2.3259504E1,8.004876E2,4.368647E1,3.7505096E1,1.3583478E2,6.408648E1,2.0284388E1,2.050293E0,1.5262613E0,2.0479207E0,2.0229673E0,6.4351395E1,2.4695222E0,5.7006E0,1.2623668E0,1.0228019E0,9.038772E0,2.0017523E1,1.116346E0,1.2620461E0,1.2296873E0,1.2484255E2,2.7926147E1,1.6472536E1,4.325115E0,2.396511E0,3.656868E1,1.6107118E0,4.13666E0,3.646331E1,1.023316E1,1.431878E0,1.8968097E0,2.960238E0,3.039645E0,1.047828E2,1.0084557E2,5.0387454E0,2.2241235E0,1.0465033E0,1.469296E0,1.2072023E0,1.1926789E0,2.9084744E2,7.654542E0,2.8368713E2,4.4509064E1,1.3673169E2,8.728499E1,1.4279475E1,2.4118824E0,2.2043192E1,2.1094098E0,2.6468906E1,5.600541E0,1.7006851E1,5.702996E0],"tree_param":{"num_deleted":"0","num_feature":"123","num_nodes":"323","size_leaf_vector":"1"}},{"base_weights":[-4.9192123E-2,-6.298251E-1,3.1337512E-1,-8.200695E-1,-1.4939001E-1,1.3761511E-1,6.648388E-1,-5.251416E-2,-8.762341E-1,5.589669E-1,-2.6518184E-1,7.149444E-2,5.8786356E-1,1.0464926E0,5.9078515E-1,5.9710667E-2,-6.014276E-1,-7.713084E-1,-1.0820998E0,8.011192E-1,3.419388E-1,-1.6233659E-1,-9.237663E-1,1.3433345E-1,-3.8694096E-1,6.8613905E-1,-3.461937E-2,1.0868566E0,5.14928E-1,1.0897576E0,5.324562E-1,1.2595245E-1,-5.1905584E-1,1.4598733E-1,-7.997592E-1,-8.470006E-1,-4.3955696E-1,-1.0839354E0,-5.4341145E-2,9.9744916E-1,5.291094E-1,4.575019E-1,-2.3545167E-1,-2.8838865E-2,-5.146645E-1,-6.0086645E-2,-9.637267E-1,9.206315E-2,7.741011E-1,-3.245588E-1,-9.0222514E-1,7.430053E-1,-5.268341E-2,9.54486E-1,-1.3531438E-1,1.1620078E0,9.283022E-1,3.27506E-1,3.5211673E-1,1.1319658E0,6.2521607E-1,4.4478354E-1,7.3966515E-1,5.762337E-2,7.3137575E-1,-2.9549494E-1,-2.162354E-1,1.3788691E-1,-1.1333818E-1,-8.9192843E-1,2.6204057E-2,-8.733033E-1,-4.281696E-1,-3.3195814E-1,-7.142871E-1,-3.2567963E-1,-1.1304176E-1,1.2166826E0,6.206414E-1,1.9706324E-1,9.066052E-1,5.133856E-1,-1.7263868E-1,-8.146121E-1,6.4095575E-1,-8.936922E-2,8.801195E-1,-6.9034046E-1,-1.9316597E-1,-1.00237615E-1,5.9175413E-2,-1.0235672E0,-6.792213E-1,6.109463E-2,9.6187633E-1,8.8948905E-1,2.3444733E-1,1.5948267E-1,-3.8605514E-1,-9.635825E-1,1.4804554E-2,1.1665236E0,6.674235E-1,2.4897844E-1,-2.0483848E-1,3.711422E-1,4.600037E-2,2.5897155E-2,-7.3595005E-1,1.1749958E0,-3.5023414E-2,9.642414E-1,2.4333167E-1,6.804518E-1,1.1459377E-2,1.1456788E0,9.857796E-4,9.1681004E-1,8.602449E-2,4.642693E-1,-7.728353E-1,7.535488E-1,-2.0146234E-1,-2.5952393E-1,2.036563E-1,9.3233424E-1,-9.940254E-2,-5.596366E-1,2.0435442E-1,-2.802406E-1,-5.7410304E-2,-9.052362E-1,-5.574222E-1,-4.781901E-1,1.9471976E-1,-2.6904252E-1,-8.794027E-1,-8.2074845E-1,9.7737536E-2,1.3125019E0,6.369984E-2,7.8575975E-1,1.1463042E-2,2.7303556E-1,1.8076435E-2,3.483436E-1,-5.417287E-2,5.9113294E-1,-1.1703793E-1,-2.6774406E-1,-7.174871E-2,2.5660256E-1,4.2301286E-2,-2.273973E-1,3.372932E-1,-1.07987374E-1,1.1221073E0,-7.5927705E-1,-2.666987E-1,5.240633E-1,-3.640461E-1,-1.0381043E0,-8.033667E-2,-8.4353083E-1,-2.542428E-1,-3.6020268E-2,3.3183998E-1,5.7250994E-1,1.3242011E0,9.459194E-1,3.201018E-1,3.5385013E-1,-2.2224258E-1,-3.3604354E-2,9.422486E-1,-4.1430068E-1,5.137062E-1,-9.900313E-1,-1.0602637E-1,1.2499449E0,3.6364135E-1,5.742708E-1,1.1476614E0,-3.3512622E-1,1.9892508E-1,-5.4643188E-2,2.8429794E-1,-9.0096533E-1,-2.686943E-1,1.1858455E0,1.7205897E-1,9.9779314E-1,4.5155373E-1,2.5690192E-1,-9.761606E-2,7.9063886E-1,5.1491622E-2,-3.0453342E-1,3.1294027E-1,1.1571602E0,4.364384E-2,3.165973E-1,1.0031583E-1,-4.01297E-1,2.0398484E-1,4.8750067E-1,-4.9978825E-1,-1.121947E0,4.1632056E-2,7.677893E-1,-2.8298333E-1,1.7669648E-2,-1.8181866E-1,2.3604862E-2,2.0965697E-1,1.3531373E-1,5.740091E-1,4.8955936E-2,-2.6517236E-1,2.4539785E-1,-1.191537E-1,-2.8048396E-1,-1.7794605E-1,4.6056792E-2,-1.8025874E-1,1.3006572E-1,-1.5878148E-1,-2.9912628E-2,-1.4518702E-1,-1.0572938E-1,-3.160729E-1,-2.624968E-1,1.773987E-1,2.7198604E-1,-1.13906115E-1,4.210549E-1,1.5878297E-1,2.8577256E-1,6.046239E-2,-1.1152776E-1,2.0097493E-1,1.9345197E-1,-8.878034E-3,-1.6135225E-1,1.4414728E-1,-8.634319E-2,1.4706056E-1,2.3488931E-1,1.3854074E-2,1.588695E-1,-1.872006E-1,4.3228838E-1,1.07274525E-1,-3.1242996E-1,-1.9230585E-1,-1.6220886E-1,1.21477544E-1,2.3879892E-1,-2.1454434E-1,-2.296252E-1,-5.211278E-2,-3.1580415E-1,-1.0639369E-1,-2.7394435E-1,-3.645381E-2,-1.757625E-1,7.9642564E-2,-3.0949546E-4,-2.2760695E-1,1.3449109E-1,-2.3259025E-2,2.231711E-1,-6.7166336E-2,3.2286555E-1,5.190964E-1,2.927113E-1,1.7629907E-2,2.7703017E-1,-9.826629E-2,1.3657513E-1,-1.3036832E-1,-1.8941371E-1,7.946336E-2,4.1967964E-1,8.595639E-2,-1.3624199E-1,9.303054E-2,-5.0183494E-2,4.1056514E-1,-3.1623933E-1,-1.564026E-1,3.8338533E-1,1.1647338E-1,3.6737786E-3,1.929426E-1,1.8417281E-1,-7.540086E-2,2.7246848E-1,4.1566542E-1,-1.2779415E-1,8.769253E-2,3.959104E-3,-2.0959674E-1,-2.9871228E-1,-6.634596E-2,1.2079056E-1,-2.4125376E-1,3.8694307E-1,3.191628E-1,3.131037E-1,1.3858424E-1,2.8628907E-1,-3.5024863E-2,3.029633E-1,1.413621E-2,-2.4725815E-2,-2.2776036E-1,2.1633618E-1,3.5669738E-1,6.6818665E-3,-1.9303337E-1,1.5916492E-1,2.8573012E-2,-2.2318564E-1,5.08259E-2,-3.8286635E-1,-1.081175E-1,2.0139211E-1,-2.018916E-1,2.5878352E-1,1.8416107E-1,-1.6058849E-1,-6.399258E-3],"categories":[],"categories_nodes":[],"categories_segments":[],"categories_sizes":[],"default_left":[0,0,0,0,0,0,0,0,0,0,0,0,0,0,0,0,0,0,0,0,0,0,0,0,0,0,0,0,0,0,0,0,0,0,0,0,0,0,0,0,0,0,0,0,0,0,0,0,0,0,0,0,0,0,0,0,0,0,0,0,0,0,0,0,0,0,0,0,0,0,0,0,0,0,0,0,0,0,0,0,0,0,0,0,0,0,0,0,0,0,0,0,0,0,0,0,0,0,0,0,0,0,0,0,0,0,0,0,0,0,0,0,0,0,0,0,0,0,0,0,0,0,0,0,0,0,0,0,0,0,0,0,0,0,0,0,0,0,0,0,0,0,0,0,0,0,0,0,0,0,0,0,0,0,0,0,0,0,0,0,0,0,0,0,0,0,0,0,0,0,0,0,0,0,0,0,0,0,0,0,0,0,0,0,0,0,0,0,0,0,0,0,0,0,0,0,0,0,0,0,0,0,0,0,0,0,0,0,0,0,0,0,0,0,0,0,0,0,0,0,0,0,0,0,0,0,0,0,0,0,0,0,0,0,0,0,0,0,0,0,0,0,0,0,0,0,0,0,0,0,0,0,0,0,0,0,0,0,0,0,0,0,0,0,0,0,0,0,0,0,0,0,0,0,0,0,0,0,0,0,0,0,0,0,0,0,0,0,0,0,0,0,0,0,0,0,0,0,0,0,0,0,0,0,0,0,0,0,0,0,0,0,0,0,0,0,0,0,0,0,0,0,0,0,0,0,0,0,0,0,0,0,0],"id":3,"left_children":[1,3,5,7,9,11,13,15,17,19,21,23,25,27,29,31,33,35,37,39,41,43,45,47,49,51,53,55,57,59,61,63,65,67,69,71,73,75,-1,77,79,81,83,85,87,89,91,93,95,97,99,101,103,105,107,109,111,113,-1,115,117,119,121,123,125,-1,127,-1,-1,129,-1,131,133,135,137,-1,-1,139,141,143,145,147,-1,149,151,153,155,157,159,-1,-1,161,163,165,167,169,171,173,175,177,-1,179,181,-1,183,-1,-1,185,187,189,-1,191,193,195,197,199,-1,201,203,205,207,209,-1,211,213,215,-1,217,219,-1,-1,221,223,225,-1,227,229,231,233,235,-1,237,-1,-1,239,-1,-1,241,243,-1,-1,-1,-1,245,247,249,251,253,255,257,259,261,-1,263,265,267,269,271,273,275,277,279,-1,281,283,285,287,289,-1,291,293,295,297,299,-1,301,-1,303,305,307,-1,309,311,-1,-1,313,-1,315,-1,317,-1,-1,-1,319,-1,321,323,325,327,329,331,-1,-1,-1,-1,-1,-1,-1,-1,-1,-1,-1,-1,-1,-1,-1,-1,-1,-1,-1,-1,-1,-1,-1,-1,-1,-1,-1,-1,-1,-1,-1,-1,-1,-1,-1,-1,-1,-1,-1,-1,-1,-1,-1,-1,-1,-1,-1,-1,-1,-1,-1,-1,-1,-1,-1,-1,-1,-1,-1,-1,-1,-1,-1,-1,-1,-1,-1,-1,-1,-1,-1,-1,-1,-1,-1,-1,-1,-1,-1,-1,-1,-1,-1,-1,-1,-1,-1,-1,-1,-1,-1,-1,-1,-1,-1,-1,-1,-1,-1,-1,-1,-1,-1,-1,-1,-1,-1,-1,-1,-1,-1,-1,-1,-1,-1,-1,-1,-1,-1,-1,-1,-1],"loss_changes":[1.276997E3,2.1299823E2,2.3058765E2,7.1950806E1,5.4499287E1,7.4106575E1,3.4558716E1,7.116261E0,3.277942E1,4.635748E0,3.8472244E1,6.2647095E1,1.9525528E1,3.7521667E0,2.9824524E1,3.7588012E0,3.0222354E0,2.5599182E1,6.68396E-1,1.7905197E0,3.511458E0,2.3239857E1,2.5928802E0,5.1626404E1,8.135284E0,1.16085205E1,4.553171E0,1.1361389E0,1.6014228E0,1.4174194E0,1.6698395E1,3.5671384E0,1.2104943E0,9.8779935E-1,1.35705E0,8.891357E0,5.504097E0,2.0452881E-1,0E0,1.234333E0,2.3693247E0,2.7686462E0,5.175293E0,1.986452E1,7.5364685E0,3.8063666E-1,5.53421E-1,4.8274746E1,7.160675E0,7.069912E0,1.6679077E0,7.4082336E0,2.938314E0,7.678096E-1,4.0074983E0,2.165619E0,1.3591766E0,1.543605E0,0E0,1.5149307E0,1.6916828E0,1.6044907E1,5.9364014E0,3.734134E0,2.1803246E0,0E0,1.1825895E0,0E0,0E0,2.429161E-1,0E0,7.4680786E0,3.0939608E0,4.634568E0,4.7303677E0,0E0,0E0,1.0862846E0,1.0181661E0,1.5268928E0,2.765297E0,2.0872612E0,0E0,5.3617954E-2,3.303399E-1,1.998612E1,5.5118732E0,2.3507042E0,6.2419004E0,0E0,0E0,3.6610794E-1,8.8309336E-1,4.5597042E1,7.935116E0,2.8183594E0,2.8478203E0,4.1499925E0,5.5293236E0,7.1632385E-2,0E0,2.0499878E0,9.154198E0,0E0,2.3011596E0,0E0,0E0,2.5343559E0,4.3258858E-1,1.0946655E-1,0E0,6.018028E-1,1.8701859E0,2.3170495E-1,3.0413158E0,9.4488525E-1,0E0,2.283845E-1,1.7362574E0,1.4831299E1,3.114397E0,4.275482E0,0E0,2.8495193E0,3.3478773E0,2.7402558E0,0E0,1.1612998E0,1.8224027E0,0E0,0E0,6.0863037E0,2.413721E0,2.5554485E0,0E0,4.620508E0,9.262905E-1,4.167961E0,3.0970914E0,1.6640282E-1,0E0,6.306267E-1,0E0,0E0,2.9645944E0,0E0,0E0,1.2465172E0,1.6049063E0,0E0,0E0,0E0,0E0,1.1240746E1,1.0737202E1,2.0896392E0,3.9207954E0,1.8232384E0,2.7541676E0,3.9086297E0,2.9582381E0,1.9621658E-1,0E0,4.371233E-1,1.1576153E0,3.2286205E1,2.186097E1,4.461239E0,1.2756424E0,2.2644806E0,4.315723E0,1.8334565E0,0E0,4.2392936E0,1.2240076E0,6.0103073E0,4.1953807E0,1.8587875E-1,0E0,3.11409E-1,4.7631156E-1,6.232342E0,7.1442413E-1,1.0736207E0,0E0,1.3941315E0,0E0,1.6890955E-1,1.6570008E0,1.2301636E-1,0E0,9.093895E-1,1.7069417E0,0E0,0E0,7.8530216E-1,0E0,6.6148823E-1,0E0,4.708557E-1,0E0,0E0,0E0,3.636877E-1,0E0,1.0697952E1,2.71099E0,4.3151283E-1,2.3421834E0,3.4326782E0,2.8280315E-1,0E0,0E0,0E0,0E0,0E0,0E0,0E0,0E0,0E0,0E0,0E0,0E0,0E0,0E0,0E0,0E0,0E0,0E0,0E0,0E0,0E0,0E0,0E0,0E0,0E0,0E0,0E0,0E0,0E0,0E0,0E0,0E0,0E0,0E0,0E0,0E0,0E0,0E0,0E0,0E0,0E0,0E0,0E0,0E0,0E0,0E0,0E0,0E0,0E0,0E0,0E0,0E0,0E0,0E0,0E0,0E0,0E0,0E0,0E0,0E0,0E0,0E0,0E0,0E0,0E0,0E0,0E0,0E0,0E0,0E0,0E0,0E0,0E0,0E0,0E0,0E0,0E0,0E0,0E0,0E0,0E0,0E0,0E0,0E0,0E0,0E0,0E0,0E0,0E0,0E0,0E0,0E0,0E0,0E0,0E0,0E0,0E0,0E0,0E0,0E0,0E0,0E0,0E0,0E0,0E0,0E0,0E0,0E0,0E0,0E0,0E0,0E0,0E0,0E0,0E0,0E0,0E0,0E0,0E0,0E0,0E0,0E0],"parents":[2147483647,0,0,1,1,2,2,3,3,4,4,5,5,6,6,7,7,8,8,9,9,10,10,11,11,12,12,13,13,14,14,15,15,16,16,17,17,18,18,19,19,20,20,21,21,22,22,23,23,24,24,25,25,26,26,27,27,28,28,29,29,30,30,31,31,32,32,33,33,34,34,35,35,36,36,37,37,39,39,40,40,41,41,42,42,43,43,44,44,45,45,46,46,47,47,48,48,49,49,50,50,51,51,52,52,53,53,54,54,55,55,56,56,57,57,59,59,60,60,61,61,62,62,63,63,64,64,66,66,69,69,71,71,72,72,73,73,74,74,77,77,78,78,79,79,80,80,81,81,83,83,84,84,85,85,86,86,87,87,88,88,91,91,92,92,93,93,94,94,95,95,96,96,97,97,98,98,99,99,101,101,102,102,104,104,107,107,108,108,109,109,111,111,112,112,113,113,114,114,115,115,117,117,118,118,119,119,120,120,121,121,123,123,124,124,125,125,127,127,128,128,131,131,132,132,133,133,135,135,136,136,137,137,138,138,139,139,141,141,144,144,147,147,148,148,153,153,154,154,155,155,156,156,157,157,158,158,159,159,160,160,161,161,163,163,164,164,165,165,166,166,167,167,168,168,169,169,170,170,171,171,173,173,174,174,175,175,176,176,177,177,179,179,180,180,181,181,182,182,183,183,185,185,187,187,188,188,189,189,191,191,192,192,195,195,197,197,199,199,203,203,205,205,206,206,207,207,208,208,209,209,210,210],"right_children":[2,4,6,8,10,12,14,16,18,20,22,24,26,28,30,32,34,36,38,40,42,44,46,48,50,52,54,56,58,60,62,64,66,68,70,72,74,76,-1,78,80,82,84,86,88,90,92,94,96,98,100,102,104,106,108,110,112,114,-1,116,118,120,122,124,126,-1,128,-1,-1,130,-1,132,134,136,138,-1,-1,140,142,144,146,148,-1,150,152,154,156,158,160,-1,-1,162,164,166,168,170,172,174,176,178,-1,180,182,-1,184,-1,-1,186,188,190,-1,192,194,196,198,200,-1,202,204,206,208,210,-1,212,214,216,-1,218,220,-1,-1,222,224,226,-1,228,230,232,234,236,-1,238,-1,-1,240,-1,-1,242,244,-1,-1,-1,-1,246,248,250,252,254,256,258,260,262,-1,264,266,268,270,272,274,276,278,280,-1,282,284,286,288,290,-1,292,294,296,298,300,-1,302,-1,304,306,308,-1,310,312,-1,-1,314,-1,316,-1,318,-1,-1,-1,320,-1,322,324,326,328,330,332,-1,-1,-1,-1,-1,-1,-1,-1,-1,-1,-1,-1,-1,-1,-1,-1,-1,-1,-1,-1,-1,-1,-1,-1,-1,-1,-1,-1,-1,-1,-1,-1,-1,-1,-1,-1,-1,-1,-1,-1,-1,-1,-1,-1,-1,-1,-1,-1,-1,-1,-1,-1,-1,-1,-1,-1,-1,-1,-1,-1,-1,-1,-1,-1,-1,-1,-1,-1,-1,-1,-1,-1,-1,-1,-1,-1,-1,-1,-1,-1,-1,-1,-1,-1,-1,-1,-1,-1,-1,-1,-1,-1,-1,-1,-1,-1,-1,-1,-1,-1,-1,-1,-1,-1,-1,-1,-1,-1,-1,-1,-1,-1,-1,-1,-1,-1,-1,-1,-1,-1,-1,-1],"split_conditions":[1E0,1E0,1E0,1E0,1E0,1E0,1E0,1E0,1E0,1E0,1E0,1E0,1E0,1E0,1E0,1E0,1E0,1E0,1E0,1E0,1E0,1E0,1E0,1E0,1E0,1E0,1E0,1E0,1E0,1E0,1E0,1E0,1E0,1E0,1E0,1E0,1E0,1E0,-5.4341145E-2,1E0,1E0,1E0,1E0,1E0,1E0,1E0,1E0,1E0,1E0,1E0,1E0,1E0,1E0,1E0,1E0,1E0,1E0,1E0,3.5211673E-1,1E0,1E0,1E0,1E0,1E0,1E0,-2.9549494E-1,1E0,1.3788691E-1,-1.1333818E-1,1E0,2.6204057E-2,1E0,1E0,1E0,1E0,-3.2567963E-1,-1.1304176E-1,1E0,1E0,1E0,1E0,1E0,-1.7263868E-1,1E0,1E0,1E0,1E0,1E0,1E0,-1.00237615E-1,5.9175413E-2,1E0,1E0,1E0,1E0,1E0,1E0,1E0,1E0,1E0,1.4804554E-2,1E0,1E0,2.4897844E-1,1E0,3.711422E-1,4.600037E-2,1E0,1E0,1E0,-3.5023414E-2,1E0,1E0,1E0,1E0,1E0,9.857796E-4,1E0,1E0,1E0,1E0,1E0,-2.0146234E-1,1E0,1E0,1E0,-9.940254E-2,1E0,1E0,-2.802406E-1,-5.7410304E-2,1E0,1E0,1E0,1.9471976E-1,1E0,1E0,1E0,1E0,1E0,6.369984E-2,1E0,1.1463042E-2,2.7303556E-1,1E0,3.483436E-1,-5.417287E-2,1E0,1E0,-2.6774406E-1,-7.174871E-2,2.5660256E-1,4.2301286E-2,1E0,1E0,1E0,1E0,1E0,1E0,1E0,1E0,1E0,-8.033667E-2,1E0,1E0,1E0,1E0,1E0,1E0,1E0,1E0,1E0,-2.2224258E-1,1E0,1E0,1E0,1E0,1E0,-1.0602637E-1,1E0,1E0,1E0,1E0,1E0,1.9892508E-1,1E0,2.8429794E-1,1E0,1E0,1E0,1.7205897E-1,1E0,1E0,2.5690192E-1,-9.761606E-2,1E0,5.1491622E-2,1E0,3.1294027E-1,1E0,4.364384E-2,3.165973E-1,1.0031583E-1,1E0,2.0398484E-1,1E0,1E0,1E0,1E0,1E0,1E0,1.7669648E-2,-1.8181866E-1,2.3604862E-2,2.0965697E-1,1.3531373E-1,5.740091E-1,4.8955936E-2,-2.6517236E-1,2.4539785E-1,-1.191537E-1,-2.8048396E-1,-1.7794605E-1,4.6056792E-2,-1.8025874E-1,1.3006572E-1,-1.5878148E-1,-2.9912628E-2,-1.4518702E-1,-1.0572938E-1,-3.160729E-1,-2.624968E-1,1.773987E-1,2.7198604E-1,-1.13906115E-1,4.210549E-1,1.5878297E-1,2.8577256E-1,6.046239E-2,-1.1152776E-1,2.0097493E-1,1.9345197E-1,-8.878034E-3,-1.6135225E-1,1.4414728E-1,-8.634319E-2,1.4706056E-1,2.3488931E-1,1.3854074E-2,1.588695E-1,-1.872006E-1,4.3228838E-1,1.07274525E-1,-3.1242996E-1,-1.9230585E-1,-1.6220886E-1,1.21477544E-1,2.3879892E-1,-2.1454434E-1,-2.296252E-1,-5.211278E-2,-3.1580415E-1,-1.0639369E-1,-2.7394435E-1,-3.645381E-2,-1.757625E-1,7.9642564E-2,-3.0949546E-4,-2.2760695E-1,1.3449109E-1,-2.3259025E-2,2.231711E-1,-6.7166336E-2,3.2286555E-1,5.190964E-1,2.927113E-1,1.7629907E-2,2.7703017E-1,-9.826629E-2,1.3657513E-1,-1.3036832E-1,-1.8941371E-1,7.946336E-2,4.1967964E-1,8.595639E-2,-1.3624199E-1,9.303054E-2,-5.0183494E-2,4.1056514E-1,-3.1623933E-1,-1.564026E-1,3.8338533E-1,1.1647338E-1,3.6737786E-3,1.929426E-1,1.8417281E-1,-7.540086E-2,2.7246848E-1,4.1566542E-1,-1.2779415E-1,8.769253E-2,3.959104E-3,-2.0959674E-1,-2.9871228E-1,-6.634596E-2,1.2079056E-1,-2.4125376E-1,3.8694307E-1,3.191628E-1,3.131037E-1,1.3858424E-1,2.8628907E-1,-3.5024863E-2,3.029633E-1,1.413621E-2,-2.4725815E-2,-2.2776036E-1,2.1633618E-1,3.5669738E-1,6.6818665E-3,-1.9303337E-1,1.5916492E-1,2.8573012E-2,-2.2318564E-1,5.08259E-2,-3.8286635E-1,-1.081175E-1,2.0139211E-1,-2.018916E-1,2.5878352E-1,1.8416107E-1,-1.6058849E-1,-6.399258E-3],"split_indices":[39,38,38,73,73,50,73,0,0,18,0,34,6,77,75,34,66,81,86,71,13,1,75,51,102,9,75,79,2,9,3,6,5,48,51,51,1,113,0,41,81,67,81,22,81,71,15,8,13,73,15,73,66,14,2,55,31,18,0,93,18,55,52,63,43,0,4,0,0,37,0,50,67,48,50,0,0,80,1,28,15,61,0,61,41,50,63,80,41,0,0,65,51,81,54,77,6,81,7,13,0,1,37,0,80,0,0,80,13,54,0,6,4,3,50,55,0,60,15,0,13,53,0,40,16,55,0,66,71,0,0,80,75,75,0,2,5,67,5,43,0,4,0,0,14,0,0,78,51,0,0,0,0,31,18,71,40,79,50,44,5,64,0,46,79,0,6,2,3,0,4,80,0,79,5,49,47,4,0,10,81,77,81,60,0,24,0,79,21,18,0,1,18,0,0,31,0,14,0,66,0,0,0,2,0,77,17,17,6,81,82,0,0,0,0,0,0,0,0,0,0,0,0,0,0,0,0,0,0,0,0,0,0,0,0,0,0,0,0,0,0,0,0,0,0,0,0,0,0,0,0,0,0,0,0,0,0,0,0,0,0,0,0,0,0,0,0,0,0,0,0,0,0,0,0,0,0,0,0,0,0,0,0,0,0,0,0,0,0,0,0,0,0,0,0,0,0,0,0,0,0,0,0,0,0,0,0,0,0,0,0,0,0,0,0,0,0,0,0,0,0,0,0,0,0,0,0,0,0,0,0,0,0],"split_type":[0,0,0,0,0,0,0,0,0,0,0,0,0,0,0,0,0,0,0,0,0,0,0,0,0,0,0,0,0,0,0,0,0,0,0,0,0,0,0,0,0,0,0,0,0,0,0,0,0,0,0,0,0,0,0,0,0,0,0,0,0,0,0,0,0,0,0,0,0,0,0,0,0,0,0,0,0,0,0,0,0,0,0,0,0,0,0,0,0,0,0,0,0,0,0,0,0,0,0,0,0,0,0,0,0,0,0,0,0,0,0,0,0,0,0,0,0,0,0,0,0,0,0,0,0,0,0,0,0,0,0,0,0,0,0,0,0,0,0,0,0,0,0,0,0,0,0,0,0,0,0,0,0,0,0,0,0,0,0,0,0,0,0,0,0,0,0,0,0,0,0,0,0,0,0,0,0,0,0,0,0,0,0,0,0,0,0,0,0,0,0,0,0,0,0,0,0,0,0,0,0,0,0,0,0,0,0,0,0,0,0,0,0,0,0,0,0,0,0,0,0,0,0,0,0,0,0,0,0,0,0,0,0,0,0,0,0,0,0,0,0,0,0,0,0,0,0,0,0,0,0,0,0,0,0,0,0,0,0,0,0,0,0,0,0,0,0,0,0,0,0,0,0,0,0,0,0,0,0,0,0,0,0,0,0,0,0,0,0,0,0,0,0,0,0,0,0,0,0,0,0,0,0,0,0,0,0,0,0,0,0,0,0,0,0,0,0,0,0,0,0,0,0,0,0,0,0,0,0,0,0,0,0],"sum_hessian":[6.0640234E3,2.330734E3,3.7332893E3,1.6690935E3,6.616404E2,2.4896543E3,1.243635E3,1.1393754E2,1.555156E3,9.242189E1,5.692185E2,2.1718665E3,3.177879E2,1.9996E2,1.0436749E3,9.5337166E1,1.860037E1,1.033267E3,5.21889E2,4.241047E1,5.001142E1,4.9341306E2,7.5805435E1,1.9106722E3,2.6119415E2,2.743692E2,4.3418728E1,1.8487688E2,1.5083122E1,1.0738357E2,9.362914E2,8.6248146E1,9.089015E0,3.9560134E0,1.4644358E1,8.400489E2,1.9321811E2,5.2062524E2,1.2637534E0,2.3082869E1,1.9327599E1,4.184408E1,8.167339E0,3.58615E2,1.3479807E2,3.4629529E0,7.234248E1,1.7933285E3,1.173437E2,2.3444167E2,2.675249E1,2.5475534E2,1.961385E1,3.228351E0,4.0190376E1,1.2113351E2,6.374337E1,1.2908018E1,2.1751034E0,9.712231E1,1.0261257E1,6.60129E2,2.7616238E2,7.8485344E1,7.7628074E0,2.6929212E0,6.3960934E0,2.5509918E0,1.4050215E0,1.3261108E1,1.383249E0,7.893899E2,5.0658993E1,1.4042758E2,5.279053E1,5.1886945E2,1.7557911E0,1.3183534E1,9.899335E0,1.1092573E1,8.235026E0,4.017367E1,1.6704111E0,4.9600663E0,3.2072737E0,3.3707013E2,2.1544867E1,8.642545E1,4.8372604E1,1.5325512E0,1.9304016E0,5.762451E1,1.471797E1,1.732708E3,6.0620476E1,9.6139114E1,2.1204586E1,2.6248087E1,2.0819357E2,2.5120127E1,1.6323627E0,3.639335E1,2.18362E2,2.2290761E0,1.7384773E1,1.9841272E0,1.244224E0,3.2440247E1,7.7501287E0,1.1999587E2,1.1376328E0,6.017822E1,3.5651512E0,5.553322E0,7.3546968E0,9.59416E1,1.180712E0,6.2051697E0,4.0560875E0,6.503402E2,9.788799E0,2.739334E2,2.2289803E0,2.4500082E1,5.398526E1,6.63149E0,1.1313174E0,3.339156E0,3.0569375E0,1.2193098E1,1.0680108E0,7.1522144E2,7.416848E1,4.8942486E1,1.7165056E0,1.2729009E2,1.3137491E1,4.6662106E1,6.1284285E0,1.1755217E1,1.428317E0,7.440782E0,2.4585528E0,1.4060912E0,9.686481E0,6.61762E0,1.6174064E0,3.581864E1,4.35503E0,3.8836198E0,1.0764465E0,1.7472004E0,1.4600732E0,2.550325E2,8.203764E1,4.347304E0,1.7197563E1,7.3648796E1,1.2776662E1,8.909639E0,3.9462967E1,5.6170536E1,1.453974E0,9.903931E0,4.814039E0,1.2759122E3,4.5679587E2,3.0463488E1,3.0156988E1,8.686853E1,9.270584E0,1.945931E1,1.7452754E0,2.1822212E1,4.425875E0,2.0237996E2,5.8136215E0,2.3479769E1,1.640357E0,3.2463486E1,3.9298594E0,1.847261E2,3.3635887E1,1.564944E1,1.7353337E0,3.069863E1,1.7416185E0,5.0414815E0,2.7086475E0,1.1691528E2,3.0805924E0,5.55938E1,4.58442E0,1.4723763E0,2.0927746E0,4.109494E0,1.443828E0,6.169768E0,1.1849284E0,9.4697624E1,1.2439762E0,4.3570156E0,1.8481538E0,2.4061487E0,1.6499391E0,6.355201E2,1.4820114E1,6.587587E0,3.201213E0,2.704767E2,3.4566891E0,1.3200555E1,1.1299526E1,4.4031853E1,9.953406E0,5.4282055E0,1.2032844E0,1.1879325E0,2.1512237E0,1.3351121E0,1.7218254E0,6.512284E2,6.399301E1,4.124967E0,7.004351E1,2.1993494E0,4.6743137E1,7.201358E1,5.5276512E1,4.01459E0,9.122902E0,4.53023E1,1.359803E0,1.9409571E0,4.1874714E0,9.821898E0,1.9333184E0,5.297611E0,2.1431708E0,6.330298E0,3.356184E0,3.2930553E1,2.888089E0,2.6140246E0,1.7410055E0,2.3578143E2,1.9251068E1,3.1746572E1,5.029107E1,1.9328933E0,2.4144104E0,1.1511701E1,5.6858625E0,1.944576E1,5.4203033E1,9.213031E0,3.563631E0,7.599631E0,1.3100079E0,1.1722295E1,2.7740671E1,5.446865E1,1.7018865E0,8.791536E0,1.1123946E0,2.8610861E0,1.9529533E0,1.2179458E3,5.7966377E1,3.5554895E2,1.0124692E2,2.5122713E1,5.340774E0,2.0990128E1,9.166861E0,8.39502E1,2.9183233E0,4.5790777E0,4.6915064E0,1.7616203E1,1.8431085E0,6.8960643E0,1.4926147E1,1.9407959E0,2.4850793E0,1.921837E2,1.0196257E1,3.683553E0,2.1300685E0,1.9556099E1,3.923671E0,3.0973757E1,1.489731E0,2.203445E0,1.7264146E0,1.7650812E2,8.217997E0,1.9164705E1,1.447118E1,1.3950452E1,1.6989874E0,2.8659184E1,2.0394464E0,4.016974E0,1.0245073E0,1.3119578E0,1.3966898E0,5.794719E1,5.8968094E1,5.0335697E1,5.2581034E0,2.0721297E0,2.5122902E0,2.897018E0,1.212476E0,4.9384923E0,1.2312759E0,8.051962E0,8.664566E1,1.2054929E0,1.2006558E0,5.7235345E2,6.3166634E1,1.07765465E1,4.043568E0,4.915922E0,1.6716647E0,1.733938E0,1.4672748E0,1.645195E2,1.0595722E2,1.2273403E0,2.229349E0],"tree_param":{"num_deleted":"0","num_feature":"123","num_nodes":"333","size_leaf_vector":"1"}},{"base_weights":[-4.424017E-2,-5.4068726E-1,2.2580218E-1,-7.3223734E-1,-1.1792604E-1,9.561471E-2,4.9839562E-1,-4.4032913E-2,-7.9298955E-1,-3.6458265E-2,-7.802692E-1,5.447222E-1,3.834205E-2,8.8427985E-1,4.313895E-1,2.5685316E-2,-6.942955E-1,-6.754043E-1,-1.044894E0,4.607122E-1,-1.24960184E-1,-4.473317E-2,-8.4844476E-1,5.817408E-1,-3.110499E-1,8.205278E-2,-4.7243753E-1,9.235946E-1,4.255843E-1,9.0045017E-1,3.8211548E-1,-3.916711E-2,7.170878E-1,-8.89518E-1,3.1768855E-2,-7.5815797E-1,-3.510734E-1,-1.0472082E0,-4.653762E-2,3.2837346E-1,7.587866E-1,-6.352746E-2,-7.501114E-1,-3.938896E-1,1.6811928E-1,-5.3226676E-2,-8.938454E-1,4.752502E-1,8.3974427E-1,-7.0297813E-1,3.7568837E-2,6.5833E-1,4.324985E-2,-6.6275805E-1,-1.7757634E-2,1.0016834E0,7.6704335E-1,5.0823265E-1,-1.01705454E-1,9.9706763E-1,6.6063887E-1,3.1645966E-1,5.713817E-1,-3.1642872E-1,1.10722125E-1,8.768552E-1,2.0693261E-2,-3.5380813E-1,-3.1564656E-1,-6.7843455E-1,-9.5350456E-1,2.598704E-1,-3.9301446E-1,-3.1480083E-1,-9.72542E-2,4.0877053E-1,-3.4760728E-1,8.7967026E-1,3.5412526E-1,-3.5598475E-1,5.376188E-2,5.0008852E-2,-7.997714E-1,-2.1777661E-1,1.11928545E-1,-7.1924955E-2,7.434178E-2,-9.6341765E-1,-5.9453166E-1,4.3173513E-1,1.1658307E0,8.8048255E-1,-2.1224067E-1,-8.494E-1,-2.9253148E-2,3.9147627E-1,-2.1196315E-1,5.7001877E-1,1.1370994E0,7.5612836E-2,-6.0479814E-1,-7.272499E-1,-2.0691106E-1,1.05428115E-1,-3.2526448E-1,1.0150044E0,-2.9242853E-2,4.0065527E-1,8.324579E-1,2.6411757E-1,2.6975715E-1,1.0451925E0,4.8546258E-1,7.1969485E-1,-1.3312498E-1,1.6930576E-1,4.6332788E-1,3.671348E-1,6.809397E-1,-4.299181E-1,1.87961E-1,2.0523219E-1,-3.5535952E-1,3.4716415E-1,-1.1149957E-1,-2.1245363E-1,8.306041E-2,-4.726756E-1,-7.9883367E-1,-9.711968E-1,-1.396226E-1,4.1007668E-1,-1.9119422E-1,-4.7679332E-1,-6.960947E-2,3.5475776E-1,3.1582367E-1,-2.1645878E-1,6.368112E-2,9.595743E-1,2.9662284E-1,1.3258655E-1,2.2827338E-1,-1.6100223E-1,-6.611111E-1,1.927373E-1,-3.1477454E-1,-8.367993E-1,2.508396E-2,-9.80672E-1,-6.891838E-2,-6.883754E-1,1.812113E-2,4.8511752E-1,-5.134631E-2,4.011572E-2,1.2816937E0,9.734054E-1,4.0871352E-2,-3.221644E-1,-4.9490985E-2,1.0063547E-1,2.0622803E-1,6.802828E-1,2.570885E-1,1.313311E0,3.6958045E-1,4.9862523E-2,8.031731E-1,-6.9090587E-1,-3.0578086E-1,-7.508394E-1,-1.9088453E-1,-3.3117777E-1,1.749832E-1,-4.3927073E-2,4.045404E-1,1.1246039E0,8.953171E-1,5.72048E-1,-1.4212455E-1,8.695423E-1,3.748389E-1,9.964027E-2,2.5337046E-1,3.3254647E-1,7.399813E-1,8.4913206E-1,-2.0019189E-1,7.657694E-1,-4.078757E-2,-2.1448487E-1,2.2336002E-1,4.00295E-1,8.117699E-1,4.1574928E-1,-5.2159286E-1,8.334192E-1,4.0972012E-1,-7.302844E-2,-2.6435658E-1,1.9770138E-1,-6.9211096E-2,8.784514E-2,-1.364209E-1,-1.6394098E-1,1.18357554E-1,-8.45415E-2,-2.1653245E-1,-2.543508E-1,-1.2941125E-1,-2.9996037E-1,-2.0600165E-1,1.8734473E-1,-1.6913593E-1,2.0204632E-1,-5.5422146E-2,-1.7836127E-1,-6.283333E-2,-5.946791E-2,1.4033057E-1,6.4878896E-2,1.9260673E-1,-8.105764E-2,1.19787E-1,3.2146928E-1,1.2409782E-1,1.8050583E-1,-6.269896E-2,-1.7339748E-1,1.2186784E-1,9.376807E-2,-1.11505896E-1,-2.449255E-1,2.035078E-2,3.9988693E-2,2.6550403E-1,-1.162993E-1,6.7485176E-2,-1.8637648E-1,-2.865961E-1,-2.9945055E-1,-9.148634E-2,-2.51485E-1,-9.458905E-2,1.156679E-1,2.2767067E-1,-4.502462E-2,1.7740314E-1,4.1436666E-1,1.4864603E-1,7.6515906E-2,3.1289163E-1,1.465183E-1,-3.111409E-1,-9.267817E-2,1.372711E-1,2.2052543E-1,-5.885346E-2,1.0387263E-1,-2.2371443E-1,6.108999E-4,4.2541295E-1,-1.4586957E-1,2.3307888E-1,2.3056991E-2,-1.6782962E-1,2.9320922E-1,4.4959363E-2,-2.585445E-1,-1.09500125E-1,-1.2954636E-1,8.07479E-2,-2.3795696E-1,-1.212099E-1,8.042635E-2,-1.344938E-1,-1.4734176E-1,1.4005865E-1,-4.3266483E-2,3.2218185E-1,3.4243417E-1,8.841485E-2,2.9606885E-1,1.1907263E-1,2.792696E-1,-3.3499496E-3,2.813193E-1,1.5296987E-1,1.7222656E-1,-5.412982E-2,1.2145608E-1,-5.3654242E-2,4.2052936E-2,2.559755E-1,3.1358826E-1,5.8493745E-2,2.604803E-1,1.18883766E-1,-2.5940116E-2,-2.6362753E-1,3.0091925E-2,1.289965E-1,9.796195E-2,2.4019022E-1,5.2765336E-2,2.588621E-1,2.0070477E-1,8.069795E-2,-7.0505634E-2,-2.2359899E-1,2.7558103E-1,1.5355879E-1,1.3846609E-1,-1.6158892E-1],"categories":[],"categories_nodes":[],"categories_segments":[],"categories_sizes":[],"default_left":[0,0,0,0,0,0,0,0,0,0,0,0,0,0,0,0,0,0,0,0,0,0,0,0,0,0,0,0,0,0,0,0,0,0,0,0,0,0,0,0,0,0,0,0,0,0,0,0,0,0,0,0,0,0,0,0,0,0,0,0,0,0,0,0,0,0,0,0,0,0,0,0,0,0,0,0,0,0,0,0,0,0,0,0,0,0,0,0,0,0,0,0,0,0,0,0,0,0,0,0,0,0,0,0,0,0,0,0,0,0,0,0,0,0,0,0,0,0,0,0,0,0,0,0,0,0,0,0,0,0,0,0,0,0,0,0,0,0,0,0,0,0,0,0,0,0,0,0,0,0,0,0,0,0,0,0,0,0,0,0,0,0,0,0,0,0,0,0,0,0,0,0,0,0,0,0,0,0,0,0,0,0,0,0,0,0,0,0,0,0,0,0,0,0,0,0,0,0,0,0,0,0,0,0,0,0,0,0,0,0,0,0,0,0,0,0,0,0,0,0,0,0,0,0,0,0,0,0,0,0,0,0,0,0,0,0,0,0,0,0,0,0,0,0,0,0,0,0,0,0,0,0,0,0,0,0,0,0,0,0,0,0,0,0,0,0,0,0,0,0,0,0,0,0,0,0,0,0,0,0,0,0,0,0,0,0,0,0,0,0,0,0,0,0,0,0,0,0,0,0,0,0,0,0,0,0,0,0,0,0,0,0,0,0,0],"id":4,"left_children":[1,3,5,7,9,11,13,15,17,19,21,23,25,27,29,31,33,35,37,39,41,43,45,47,49,51,53,55,57,59,61,63,65,67,-1,69,71,73,-1,75,77,79,81,83,-1,85,87,89,91,93,95,97,99,101,103,105,107,109,-1,111,113,115,117,119,121,123,-1,125,-1,127,129,131,133,-1,-1,135,137,139,141,143,145,-1,147,-1,-1,-1,-1,149,151,153,155,157,-1,159,-1,161,-1,163,165,167,169,171,173,175,-1,177,-1,179,181,183,-1,185,187,189,-1,191,193,195,197,199,201,203,205,-1,-1,-1,-1,207,209,211,213,215,-1,217,219,221,-1,-1,223,225,227,229,-1,231,233,235,237,239,-1,241,-1,243,-1,245,247,-1,249,251,253,-1,-1,255,-1,257,259,261,263,265,267,269,271,273,275,277,-1,279,-1,281,283,285,-1,287,289,291,-1,-1,293,295,-1,297,-1,299,301,303,305,307,309,311,313,-1,-1,-1,-1,-1,-1,-1,-1,-1,-1,-1,-1,-1,-1,-1,-1,-1,-1,-1,-1,-1,-1,-1,-1,-1,-1,-1,-1,-1,-1,-1,-1,-1,-1,-1,-1,-1,-1,-1,-1,-1,-1,-1,-1,-1,-1,-1,-1,-1,-1,-1,-1,-1,-1,-1,-1,-1,-1,-1,-1,-1,-1,-1,-1,-1,-1,-1,-1,-1,-1,-1,-1,-1,-1,-1,-1,-1,-1,-1,-1,-1,-1,-1,-1,-1,-1,-1,-1,-1,-1,-1,-1,-1,-1,-1,-1,-1,-1,-1,-1,-1,-1,-1,-1,-1,-1,-1,-1,-1,-1,-1,-1,-1,-1,-1,-1],"loss_changes":[7.5886536E2,1.6140802E2,1.3006665E2,5.733783E1,3.3589737E1,6.3835022E1,3.0254028E1,5.1120553E0,3.6641174E1,2.4514631E1,3.3814392E0,9.073669E0,4.9221283E1,2.7509918E0,2.3033752E1,4.621917E0,1.7995472E0,2.2881195E1,6.6000366E-1,3.0725155E0,1.8103539E1,1.6659008E0,2.203453E0,7.003174E0,1.7057594E0,4.536643E1,1.5028118E1,1.1842957E0,1.15925E0,1.5520935E0,1.1214996E1,3.96705E0,8.5460997E-1,4.0159893E-1,0E0,1.0040619E1,4.6421604E0,2.7252197E-1,0E0,3.407175E0,9.1767216E-1,1.4818189E1,2.0544605E0,1.5249382E0,0E0,3.081946E-1,6.541405E-1,5.2967186E0,5.502098E0,4.3462658E-1,2.2396164E0,4.76371E0,3.9958416E1,3.4505386E0,6.9865475E0,1.6114655E0,1.04282E0,1.1458547E0,0E0,1.1188126E0,2.2998466E0,1.4685127E1,5.007469E0,1.996136E0,2.8107882E0,2.8818645E0,0E0,9.95097E-1,0E0,1.1781662E1,2.692871E0,1.8763466E0,4.469843E0,0E0,0E0,1.5101023E0,1.1111447E0,5.8536434E-1,5.708287E-1,7.248728E0,1.587686E1,0E0,1.3849258E0,0E0,0E0,0E0,0E0,3.595085E-1,8.850689E-1,4.74815E0,1.126442E0,5.8794518E0,0E0,5.25053E-1,0E0,4.210168E-1,0E0,3.6230888E0,2.0745544E0,3.3934635E1,2.1222153E0,1.2093849E0,1.8211603E0,8.934594E0,0E0,3.3309174E-1,0E0,1.8637125E0,4.852333E-1,9.029139E-1,0E0,3.2927704E-1,3.7302182E0,1.2555208E0,0E0,7.1594734E0,7.171402E0,3.854617E0,5.934334E0,2.109766E0,1.501247E0,3.1568186E0,1.769754E0,0E0,0E0,0E0,0E0,8.527584E0,5.183716E0,8.803711E-1,2.0850866E0,1.8281529E0,0E0,4.0253525E0,2.5371013E0,1.9088717E0,0E0,0E0,5.8043176E-1,5.3346825E-1,6.961826E-1,1.4085693E0,0E0,7.7736692E0,5.47571E0,9.135137E0,3.428852E0,3.9449692E-1,0E0,2.2558594E-1,0E0,4.1154766E-1,0E0,4.2055893E0,1.3026583E0,0E0,7.003403E-2,3.1454315E0,4.657309E0,0E0,0E0,7.3250914E-1,0E0,4.0244064E0,2.9659247E0,2.0574036E0,2.094978E0,2.8867338E1,6.900337E0,3.5605812E0,1.7146096E0,1.1786041E0,8.107624E-1,2.139555E0,0E0,5.048337E0,0E0,3.543625E-1,2.0608788E0,1.9648814E0,0E0,5.875969E-1,6.944839E-1,8.535305E-1,0E0,0E0,7.7914953E-1,5.887661E-1,0E0,7.112045E-1,0E0,3.5662827E0,7.6094275E0,8.330944E0,1.5156746E0,2.807909E0,1.3326204E-1,2.1641312E0,3.0298376E0,0E0,0E0,0E0,0E0,0E0,0E0,0E0,0E0,0E0,0E0,0E0,0E0,0E0,0E0,0E0,0E0,0E0,0E0,0E0,0E0,0E0,0E0,0E0,0E0,0E0,0E0,0E0,0E0,0E0,0E0,0E0,0E0,0E0,0E0,0E0,0E0,0E0,0E0,0E0,0E0,0E0,0E0,0E0,0E0,0E0,0E0,0E0,0E0,0E0,0E0,0E0,0E0,0E0,0E0,0E0,0E0,0E0,0E0,0E0,0E0,0E0,0E0,0E0,0E0,0E0,0E0,0E0,0E0,0E0,0E0,0E0,0E0,0E0,0E0,0E0,0E0,0E0,0E0,0E0,0E0,0E0,0E0,0E0,0E0,0E0,0E0,0E0,0E0,0E0,0E0,0E0,0E0,0E0,0E0,0E0,0E0,0E0,0E0,0E0,0E0,0E0,0E0,0E0,0E0,0E0,0E0,0E0,0E0,0E0,0E0,0E0,0E0,0E0,0E0,0E0,0E0],"parents":[2147483647,0,0,1,1,2,2,3,3,4,4,5,5,6,6,7,7,8,8,9,9,10,10,11,11,12,12,13,13,14,14,15,15,16,16,17,17,18,18,19,19,20,20,21,21,22,22,23,23,24,24,25,25,26,26,27,27,28,28,29,29,30,30,31,31,32,32,33,33,35,35,36,36,37,37,39,39,40,40,41,41,42,42,43,43,45,45,46,46,47,47,48,48,49,49,50,50,51,51,52,52,53,53,54,54,55,55,56,56,57,57,59,59,60,60,61,61,62,62,63,63,64,64,65,65,67,67,69,69,70,70,71,71,72,72,75,75,76,76,77,77,78,78,79,79,80,80,82,82,87,87,88,88,89,89,90,90,91,91,93,93,95,95,97,97,98,98,99,99,100,100,101,101,102,102,103,103,105,105,107,107,108,108,109,109,111,111,112,112,113,113,115,115,116,116,117,117,118,118,119,119,120,120,121,121,122,122,127,127,128,128,129,129,130,130,131,131,133,133,134,134,135,135,138,138,139,139,140,140,141,141,143,143,144,144,145,145,146,146,147,147,149,149,151,151,153,153,154,154,156,156,157,157,158,158,161,161,163,163,164,164,165,165,166,166,167,167,168,168,169,169,170,170,171,171,172,172,173,173,175,175,177,177,178,178,179,179,181,181,182,182,183,183,186,186,187,187,189,189,191,191,192,192,193,193,194,194,195,195,196,196,197,197,198,198],"right_children":[2,4,6,8,10,12,14,16,18,20,22,24,26,28,30,32,34,36,38,40,42,44,46,48,50,52,54,56,58,60,62,64,66,68,-1,70,72,74,-1,76,78,80,82,84,-1,86,88,90,92,94,96,98,100,102,104,106,108,110,-1,112,114,116,118,120,122,124,-1,126,-1,128,130,132,134,-1,-1,136,138,140,142,144,146,-1,148,-1,-1,-1,-1,150,152,154,156,158,-1,160,-1,162,-1,164,166,168,170,172,174,176,-1,178,-1,180,182,184,-1,186,188,190,-1,192,194,196,198,200,202,204,206,-1,-1,-1,-1,208,210,212,214,216,-1,218,220,222,-1,-1,224,226,228,230,-1,232,234,236,238,240,-1,242,-1,244,-1,246,248,-1,250,252,254,-1,-1,256,-1,258,260,262,264,266,268,270,272,274,276,278,-1,280,-1,282,284,286,-1,288,290,292,-1,-1,294,296,-1,298,-1,300,302,304,306,308,310,312,314,-1,-1,-1,-1,-1,-1,-1,-1,-1,-1,-1,-1,-1,-1,-1,-1,-1,-1,-1,-1,-1,-1,-1,-1,-1,-1,-1,-1,-1,-1,-1,-1,-1,-1,-1,-1,-1,-1,-1,-1,-1,-1,-1,-1,-1,-1,-1,-1,-1,-1,-1,-1,-1,-1,-1,-1,-1,-1,-1,-1,-1,-1,-1,-1,-1,-1,-1,-1,-1,-1,-1,-1,-1,-1,-1,-1,-1,-1,-1,-1,-1,-1,-1,-1,-1,-1,-1,-1,-1,-1,-1,-1,-1,-1,-1,-1,-1,-1,-1,-1,-1,-1,-1,-1,-1,-1,-1,-1,-1,-1,-1,-1,-1,-1,-1,-1],"split_conditions":[1E0,1E0,1E0,1E0,1E0,1E0,1E0,1E0,1E0,1E0,1E0,1E0,1E0,1E0,1E0,1E0,1E0,1E0,1E0,1E0,1E0,1E0,1E0,1E0,1E0,1E0,1E0,1E0,1E0,1E0,1E0,1E0,1E0,1E0,3.1768855E-2,1E0,1E0,1E0,-4.653762E-2,1E0,1E0,1E0,1E0,1E0,1.6811928E-1,1E0,1E0,1E0,1E0,1E0,1E0,1E0,1E0,1E0,1E0,1E0,1E0,1E0,-1.01705454E-1,1E0,1E0,1E0,1E0,1E0,1E0,1E0,2.0693261E-2,1E0,-3.1564656E-1,1E0,1E0,1E0,1E0,-3.1480083E-1,-9.72542E-2,1E0,1E0,1E0,1E0,1E0,1E0,5.0008852E-2,1E0,-2.1777661E-1,1.11928545E-1,-7.1924955E-2,7.434178E-2,1E0,1E0,1E0,1E0,1E0,-2.1224067E-1,1E0,-2.9253148E-2,1E0,-2.1196315E-1,1E0,1E0,1E0,1E0,1E0,1E0,1E0,-3.2526448E-1,1E0,-2.9242853E-2,1E0,1E0,1E0,2.6975715E-1,1E0,1E0,1E0,-1.3312498E-1,1E0,1E0,1E0,1E0,1E0,1E0,1E0,1E0,3.4716415E-1,-1.1149957E-1,-2.1245363E-1,8.306041E-2,1E0,1E0,1E0,1E0,1E0,-1.9119422E-1,1E0,1E0,1E0,3.1582367E-1,-2.1645878E-1,1E0,1E0,1E0,1E0,2.2827338E-1,1E0,1E0,1E0,1E0,1E0,2.508396E-2,1E0,-6.891838E-2,1E0,1.812113E-2,1E0,1E0,4.011572E-2,1E0,1E0,1E0,-3.221644E-1,-4.9490985E-2,1E0,2.0622803E-1,1E0,1E0,1E0,1E0,1E0,1E0,1E0,1E0,1E0,1E0,1E0,1.749832E-1,1E0,4.045404E-1,1E0,1E0,1E0,-1.4212455E-1,1E0,1E0,1E0,2.5337046E-1,3.3254647E-1,1E0,1E0,-2.0019189E-1,1E0,-4.078757E-2,1E0,1E0,1E0,1E0,1E0,1E0,1E0,1E0,-7.302844E-2,-2.6435658E-1,1.9770138E-1,-6.9211096E-2,8.784514E-2,-1.364209E-1,-1.6394098E-1,1.18357554E-1,-8.45415E-2,-2.1653245E-1,-2.543508E-1,-1.2941125E-1,-2.9996037E-1,-2.0600165E-1,1.8734473E-1,-1.6913593E-1,2.0204632E-1,-5.5422146E-2,-1.7836127E-1,-6.283333E-2,-5.946791E-2,1.4033057E-1,6.4878896E-2,1.9260673E-1,-8.105764E-2,1.19787E-1,3.2146928E-1,1.2409782E-1,1.8050583E-1,-6.269896E-2,-1.7339748E-1,1.2186784E-1,9.376807E-2,-1.11505896E-1,-2.449255E-1,2.035078E-2,3.9988693E-2,2.6550403E-1,-1.162993E-1,6.7485176E-2,-1.8637648E-1,-2.865961E-1,-2.9945055E-1,-9.148634E-2,-2.51485E-1,-9.458905E-2,1.156679E-1,2.2767067E-1,-4.502462E-2,1.7740314E-1,4.1436666E-1,1.4864603E-1,7.6515906E-2,3.1289163E-1,1.465183E-1,-3.111409E-1,-9.267817E-2,1.372711E-1,2.2052543E-1,-5.885346E-2,1.0387263E-1,-2.2371443E-1,6.108999E-4,4.2541295E-1,-1.4586957E-1,2.3307888E-1,2.3056991E-2,-1.6782962E-1,2.9320922E-1,4.4959363E-2,-2.585445E-1,-1.09500125E-1,-1.2954636E-1,8.07479E-2,-2.3795696E-1,-1.212099E-1,8.042635E-2,-1.344938E-1,-1.4734176E-1,1.4005865E-1,-4.3266483E-2,3.2218185E-1,3.4243417E-1,8.841485E-2,2.9606885E-1,1.1907263E-1,2.792696E-1,-3.3499496E-3,2.813193E-1,1.5296987E-1,1.7222656E-1,-5.412982E-2,1.2145608E-1,-5.3654242E-2,4.2052936E-2,2.559755E-1,3.1358826E-1,5.8493745E-2,2.604803E-1,1.18883766E-1,-2.5940116E-2,-2.6362753E-1,3.0091925E-2,1.289965E-1,9.796195E-2,2.4019022E-1,5.2765336E-2,2.588621E-1,2.0070477E-1,8.069795E-2,-7.0505634E-2,-2.2359899E-1,2.7558103E-1,1.5355879E-1,1.3846609E-1,-1.6158892E-1],"split_indices":[39,38,38,73,0,73,73,48,0,73,73,48,77,77,75,6,40,81,86,3,77,51,75,81,79,75,60,79,1,4,50,63,77,71,0,1,75,113,0,9,79,63,75,81,0,61,15,23,52,16,2,49,48,3,70,55,82,60,0,9,54,51,5,47,1,19,0,21,0,71,58,61,15,0,0,7,4,13,9,41,1,0,44,0,0,0,0,65,81,77,82,55,0,13,0,4,0,2,16,46,3,51,24,23,0,18,0,1,6,17,0,1,16,67,0,82,22,78,79,0,79,77,50,0,0,0,0,2,50,80,41,40,0,19,50,50,0,0,81,17,71,5,0,71,13,22,49,18,0,64,0,51,0,3,50,0,50,82,2,0,0,62,0,55,52,82,81,52,14,4,70,49,4,49,0,7,0,70,13,4,0,14,50,18,0,0,5,17,0,28,0,6,49,60,66,18,2,16,70,0,0,0,0,0,0,0,0,0,0,0,0,0,0,0,0,0,0,0,0,0,0,0,0,0,0,0,0,0,0,0,0,0,0,0,0,0,0,0,0,0,0,0,0,0,0,0,0,0,0,0,0,0,0,0,0,0,0,0,0,0,0,0,0,0,0,0,0,0,0,0,0,0,0,0,0,0,0,0,0,0,0,0,0,0,0,0,0,0,0,0,0,0,0,0,0,0,0,0,0,0,0,0,0,0,0,0,0,0,0,0,0,0,0,0,0],"split_type":[0,0,0,0,0,0,0,0,0,0,0,0,0,0,0,0,0,0,0,0,0,0,0,0,0,0,0,0,0,0,0,0,0,0,0,0,0,0,0,0,0,0,0,0,0,0,0,0,0,0,0,0,0,0,0,0,0,0,0,0,0,0,0,0,0,0,0,0,0,0,0,0,0,0,0,0,0,0,0,0,0,0,0,0,0,0,0,0,0,0,0,0,0,0,0,0,0,0,0,0,0,0,0,0,0,0,0,0,0,0,0,0,0,0,0,0,0,0,0,0,0,0,0,0,0,0,0,0,0,0,0,0,0,0,0,0,0,0,0,0,0,0,0,0,0,0,0,0,0,0,0,0,0,0,0,0,0,0,0,0,0,0,0,0,0,0,0,0,0,0,0,0,0,0,0,0,0,0,0,0,0,0,0,0,0,0,0,0,0,0,0,0,0,0,0,0,0,0,0,0,0,0,0,0,0,0,0,0,0,0,0,0,0,0,0,0,0,0,0,0,0,0,0,0,0,0,0,0,0,0,0,0,0,0,0,0,0,0,0,0,0,0,0,0,0,0,0,0,0,0,0,0,0,0,0,0,0,0,0,0,0,0,0,0,0,0,0,0,0,0,0,0,0,0,0,0,0,0,0,0,0,0,0,0,0,0,0,0,0,0,0,0,0,0,0,0,0,0,0,0,0,0,0,0,0,0,0,0,0,0,0,0,0,0,0],"sum_hessian":[5.658656E3,1.9932512E3,3.6654045E3,1.3712264E3,6.2202484E2,2.4815808E3,1.1838236E3,1.11368034E2,1.2598584E3,5.5483545E2,6.7189354E1,2.7970938E2,2.2018716E3,1.7334471E2,1.0104789E3,1.0145138E2,9.916659E0,8.614348E2,3.984236E2,8.320658E1,4.716289E2,5.83988E0,6.1349472E1,2.684185E2,1.1290902E1,2.0290702E3,1.7280136E2,1.5872672E2,1.4617988E1,9.441622E1,9.160626E2,9.36139E1,7.8374796E0,7.8820477E0,2.0346112E0,6.8525354E2,1.7618127E2,3.9721353E2,1.2100942E0,5.9078587E1,2.4127993E1,4.3043253E2,4.1196373E1,3.9245336E0,1.9153466E0,3.4307246E0,5.7918747E1,1.9200903E2,7.640944E1,4.836777E0,6.4541245E0,1.2699863E2,1.9020715E3,1.2149019E2,5.131117E1,1.0230028E2,5.6426445E1,1.349461E1,1.1233779E0,6.505039E1,2.9365826E1,6.821121E2,2.339505E2,3.245967E1,6.1154224E1,6.004382E0,1.8330973E0,2.5751653E0,5.3068824E0,4.8982336E2,1.9543015E2,1.0984016E1,1.6519727E2,3.9559796E2,1.6155505E0,5.3152267E1,5.926318E0,1.767433E1,6.4536614E0,1.226281E2,3.078044E2,1.9956956E0,3.920068E1,2.7762263E0,1.1483074E0,2.2439337E0,1.1867911E0,4.5194916E1,1.2723834E1,1.8215614E2,9.852904E0,7.486905E1,1.5403869E0,3.5704448E0,1.2663326E0,4.6950254E0,1.7590994E0,1.0907063E2,1.7928E1,1.812443E3,8.962861E1,1.05910866E2,1.5579324E1,4.6805805E1,4.5053644E0,1.01150955E2,1.1493199E0,9.627501E0,4.6798943E1,9.338925E0,4.1556845E0,5.850415E1,6.5462413E0,2.820588E1,1.1599461E0,3.4180008E2,3.4031207E2,8.319771E1,1.5075279E2,2.6618145E1,5.841525E0,5.1309555E1,9.84467E0,4.963048E0,1.0413342E0,1.5700703E0,1.005095E0,1.8263348E2,3.0718988E2,1.9108308E2,4.3470583E0,9.873866E0,1.1101496E0,1.308309E2,3.4366356E1,5.047003E1,2.6822374E0,2.7090638E0,3.2172544E0,1.4976129E1,2.6982017E0,5.036618E0,1.4170432E0,7.574989E1,4.6878204E1,2.2386264E2,8.394179E1,3.7674263E1,1.526418E0,4.382758E1,1.3673348E0,1.1084509E1,1.639325E0,1.6402637E2,1.8129774E1,1.2118455E0,8.641058E0,6.726521E1,7.6038384E0,2.2601416E0,1.3103032E0,3.0438097E0,1.6512157E0,7.978404E1,2.9286589E1,1.4002185E1,3.9258158E0,1.7515205E3,6.0922485E1,6.857153E1,2.1057077E1,1.0106608E2,4.8447843E0,1.3964176E1,1.6151483E0,4.264637E1,4.1594353E0,4.8417843E1,5.2733116E1,8.338791E0,1.2887094E0,4.245809E1,4.340853E0,8.189887E0,1.149038E0,4.6275505E1,1.2228643E1,5.1765637E0,1.3696775E0,2.6864355E1,1.3415256E0,4.1830612E1,2.9996945E2,2.900001E2,5.031198E1,7.938732E1,3.810385E0,9.5173454E1,5.557934E1,1.992391E1,6.6942363E0,2.478678E0,3.3628473E0,4.5789158E1,5.520397E0,8.061447E0,1.783223E0,1.04608894E2,7.802459E1,2.6989166E2,3.7298218E1,1.7130661E2,1.9776466E1,1.3831434E0,2.963915E0,6.7516713E0,3.1221955E0,8.997904E1,4.0851868E1,2.823877E1,6.1275873E0,3.5235355E1,1.5234678E1,1.7105101E0,1.5067443E0,1.1627888E1,3.3482416E0,1.5643561E0,1.1338454E0,1.091086E0,3.9455323E0,2.3175009E1,5.2574886E1,3.8545765E1,8.332438E0,2.0725906E2,1.6603565E1,7.420249E1,9.739296E0,1.5580677E1,2.2093584E1,4.2256233E1,1.5713449E0,7.0177507E0,4.066758E0,1.22052124E2,4.197424E1,1.6379837E1,1.7499372E0,6.9983034E0,1.6427552E0,6.350953E0,6.091426E1,5.7597065E0,1.8441316E0,1.480043E0,1.5637665E0,7.524081E1,4.543231E0,2.7496735E1,1.7898535E0,1.1110454E0,1.2891139E1,1.2035635E0,2.7222524E0,1.6780502E3,7.347027E1,4.7706524E1,1.3215961E1,4.3903564E1,2.4667973E1,1.7475067E1,3.5820105E0,8.892042E1,1.2145666E1,1.7260233E0,3.1187608E0,1.1952876E1,2.0113E0,3.9934452E1,2.7119179E0,4.7086758E1,1.3310857E0,4.3719807E1,9.013308E0,4.79332E0,3.545471E0,3.4339832E1,8.118259E0,3.1696067E0,1.1712465E0,3.6909604E0,4.498927E0,2.29792E0,9.930724E0,3.5223687E0,1.6541951E0,1.9973665E1,6.89069E0,3.601921E1,5.811402E0,1.8893701E2,1.1103244E2,2.4641776E2,4.3582325E1,4.073015E0,4.6238968E1,2.7819204E1,5.1568115E1,2.56957E0,1.2408148E0,7.37733E1,2.1400158E1,5.3185703E1,2.3936372E0],"tree_param":{"num_deleted":"0","num_feature":"123","num_nodes":"315","size_leaf_vector":"1"}},{"base_weights":[-3.8490124E-2,-4.5723948E-1,1.6397853E-1,-6.4579165E-1,-9.2955805E-2,6.636984E-2,3.776047E-1,-5.125826E-1,-9.885494E-1,-2.8731607E-2,-7.0098156E-1,8.946819E-2,-5.411907E-1,7.531108E-1,3.192251E-1,2.6344987E-2,-5.8161813E-1,-4.4004154E-1,-1.0140145E0,1.3215855E-1,-1.9367117E-1,-2.8938903E-2,-7.7404225E-1,4.487542E-2,3.853883E-1,9.099825E-2,-6.006227E-1,7.6724476E-1,-9.988232E-2,7.532141E-1,2.7825034E-1,-2.0714324E-2,6.232197E-1,-6.688369E-1,-2.7494106E-1,2.1990472E-1,-6.580991E-1,-1.0169679E0,-3.983925E-2,2.425826E-1,-1.8290868E-1,-2.4781914E-1,6.6897506E-1,-3.2405424E-1,1.3216329E-1,-3.8364228E-2,-8.2555777E-1,-2.3478556E-2,2.4290527E-1,4.5378542E-1,-4.6351217E-2,-1.1364981E-1,2.0426945E-1,-6.3947254E-1,1.2926534E-1,6.417668E-1,9.2705286E-1,8.5218465E-1,5.2391136E-1,3.2595357E-1,6.1444715E-3,3.3137772E-2,-5.1049143E-1,1.0178785E0,-2.0418671E-1,-7.0637435E-1,-1.496496E-1,-1.7494415E-1,-5.5857813E-1,1.3620989E-1,-7.71652E-2,-7.6903445E-1,5.0269842E-2,-1.0197214E0,-8.355365E-2,1.9337068E-1,1.1953056E0,5.6575894E-1,-2.3643158E-1,-3.4323296E-1,4.582954E-2,8.5147494E-1,-1.5236581E-2,-6.2608135E-1,9.3600154E-2,-8.404133E-2,5.1341306E-2,-9.066197E-1,-5.134391E-1,-1.2267529E-1,1.17688306E-1,2.0889036E-1,9.37539E-1,4.960516E-1,-9.421789E-2,8.239945E-2,-5.9427714E-1,-1.764878E-1,1.4535446E-1,-6.903761E-1,-2.7552458E-2,6.5446484E-1,-5.0425705E-2,9.7704947E-1,4.84011E-1,9.007351E-1,3.9051226E-1,5.853354E-1,-8.909989E-2,3.716876E-1,6.8854457E-3,-5.501687E-1,9.294095E-2,-6.874216E-2,2.759608E-1,-6.625744E-1,8.2980424E-2,1.3686453E0,-1.2147186E-2,-9.485481E-1,-6.3424736E-1,-4.793621E-1,1.4606282E-1,-1.9497532E-2,-4.1213065E-1,-6.742135E-1,1.2825373E-1,-8.12929E-1,-7.009552E-2,-3.0771187E-1,-5.3314775E-1,4.143433E-1,2.6460735E-2,1.4653531E0,3.2907248E-2,8.9806724E-1,-7.264323E-2,-1.7811997E-1,-2.6984513E-1,2.5220249E-2,-3.963905E-1,1.9546312E-1,-4.139586E-1,9.590322E-1,-4.987232E-2,-2.365362E-1,1.7363587E-1,-4.797752E-2,-2.2921376E-1,-9.271475E-1,-5.9075512E-2,-6.916192E-1,-1.5244055E-1,-1.5479441E-1,3.9341372E-1,1.9793728E-1,-4.0778965E-1,2.585107E-1,-2.0029305E-1,1.0830394E0,3.6959246E-1,5.865373E-1,3.4238258E-1,1.8483451E-1,-2.1542625E-1,1.8878381E-1,-7.46324E-1,-2.9530558E-1,-2.2116755E-1,1.3535821E-1,-1.3101402E-1,-7.600828E-1,-1.2889478E-1,2.7721193E-1,-2.2497888E-1,6.667873E-1,-3.1226566E-2,1.0273759E0,4.5873293E-1,7.204239E-1,-7.497905E-2,9.236067E-1,6.9775246E-2,7.1208674E-1,-1.6235062E-1,6.444164E-1,-5.4641746E-2,3.9048094E-1,-4.3535173E-1,-2.0007664E-2,3.1148213E-1,-7.070975E-1,3.0021662E-1,1.1710915E-1,-2.9831502E-1,-1.445721E-5,-1.9591334E-1,9.9852234E-2,-1.1124763E-1,-2.4838465E-1,4.2083334E-2,4.9072057E-1,8.4309846E-2,-2.9073042E-1,-1.19274765E-1,-1.6790146E-1,-2.8327245E-1,-2.5212315E-1,-6.2212124E-2,3.8511539E-1,-2.2786157E-4,5.6553293E-2,-1.1271316E-1,-2.728077E-4,-1.7210692E-1,-2.2157814E-1,1.5880573E-1,1.5177032E-1,-1.4398743E-1,-2.6474565E-1,-6.307983E-2,-2.4898265E-1,8.919225E-2,1.3968515E-1,-9.640745E-2,-1.011199E-1,6.602565E-2,5.004927E-1,9.891536E-2,3.8606665E-1,3.6973666E-2,-6.789841E-2,1.25618E-1,-7.432685E-2,1.7670083E-1,-1.7877054E-1,-7.373276E-2,-1.3114539E-2,1.7097783E-1,-5.5925313E-2,-3.0228484E-1,3.4553608E-1,8.9682356E-2,-2.844775E-1,-7.8559E-2,-2.3015057E-1,-4.0559635E-2,-1.4462657E-1,8.321671E-2,-7.094685E-2,1.758658E-2,7.504957E-2,2.6531428E-1,4.8628118E-2,3.2057312E-1,-1.4683488E-1,2.930961E-2,8.8113815E-2,-1.05123825E-1,1.1629099E-1,-8.067144E-2,3.5907817E-1,1.017217E-1,3.951388E-2,2.3563096E-1,1.9193597E-1,5.1799186E-2,2.3827927E-1,7.931962E-2,-2.533724E-2,-2.9015726E-1,3.3030456E-1,2.5509838E-2,-7.6217256E-3,-3.3120972E-1,-1.943057E-1,8.506742E-2,-2.4898994E-1,2.8686156E-2,-1.23952955E-1,2.1293251E-1,-3.2731563E-2,2.695015E-1,1.8206728E-1,2.677202E-1,3.1291452E-1,5.0444108E-2,1.9099028E-1,-5.019065E-2,5.727299E-2,2.3945408E-1,2.8453147E-1,8.286658E-2,2.8389055E-1,6.640367E-2,2.0893383E-1,-3.170424E-2,1.19376704E-1,-3.1540996E-1,-2.2164124E-1,7.280936E-2,-2.7731618E-2,9.149509E-2,2.7093288E-2,-2.687908E-1,1.8526313E-1,-5.512651E-2,1.6600344E-2,1.4461884E-1],"categories":[],"categories_nodes":[],"categories_segments":[],"categories_sizes":[],"default_left":[0,0,0,0,0,0,0,0,0,0,0,0,0,0,0,0,0,0,0,0,0,0,0,0,0,0,0,0,0,0,0,0,0,0,0,0,0,0,0,0,0,0,0,0,0,0,0,0,0,0,0,0,0,0,0,0,0,0,0,0,0,0,0,0,0,0,0,0,0,0,0,0,0,0,0,0,0,0,0,0,0,0,0,0,0,0,0,0,0,0,0,0,0,0,0,0,0,0,0,0,0,0,0,0,0,0,0,0,0,0,0,0,0,0,0,0,0,0,0,0,0,0,0,0,0,0,0,0,0,0,0,0,0,0,0,0,0,0,0,0,0,0,0,0,0,0,0,0,0,0,0,0,0,0,0,0,0,0,0,0,0,0,0,0,0,0,0,0,0,0,0,0,0,0,0,0,0,0,0,0,0,0,0,0,0,0,0,0,0,0,0,0,0,0,0,0,0,0,0,0,0,0,0,0,0,0,0,0,0,0,0,0,0,0,0,0,0,0,0,0,0,0,0,0,0,0,0,0,0,0,0,0,0,0,0,0,0,0,0,0,0,0,0,0,0,0,0,0,0,0,0,0,0,0,0,0,0,0,0,0,0,0,0,0,0,0,0,0,0,0,0,0,0,0,0,0,0,0,0,0,0,0,0,0,0,0,0,0,0,0,0,0,0,0,0,0,0,0,0,0,0,0,0,0,0,0,0,0,0],"id":5,"left_children":[1,3,5,7,9,11,13,15,17,19,21,23,25,27,29,31,33,35,37,39,41,43,45,47,49,51,53,55,-1,57,59,61,63,65,67,69,71,73,-1,75,77,79,81,83,-1,85,87,89,91,93,95,97,-1,99,-1,101,103,105,107,109,111,113,115,117,-1,119,121,123,125,-1,-1,127,-1,129,-1,131,133,135,137,139,141,143,145,147,-1,-1,-1,149,151,153,155,157,159,161,163,165,167,-1,169,171,173,175,-1,177,179,181,183,185,-1,187,189,191,193,195,197,199,-1,201,-1,203,205,207,209,211,213,215,217,219,-1,-1,221,223,225,227,-1,229,-1,231,-1,233,235,237,239,241,-1,-1,-1,-1,-1,243,-1,245,247,249,251,253,255,257,259,261,263,265,267,-1,269,271,273,275,-1,