{"learner":{"attributes":{},"feature_names":[],"feature_types":[],"gradient_booster":{"model":{"cats":{"enc":[],"feature_segments":[],"sorted_idx":[]},"gbtree_model_param":{"num_parallel_tree":"1","num_trees":"100"},"iteration_indptr":[0,1,2,3,4,5,6,7,8,9,10,11,12,13,14,15,16,17,18,19,20,21,22,23,24,25,26,27,28,29,30,31,32,33,34,35,36,37,38,39,40,41,42,43,44,45,46,47,48,49,50,51,52,53,54,55,56,57,58,59,60,61,62,63,64,65,66,67,68,69,70,71,72,73,74,75,76,77,78,79,80,81,82,83,84,85,86,87,88,89,90,91,92,93,94,95,96,97,98,99,100],"tree_info":[0,0,0,0,0,0,0,0,0,0,0,0,0,0,0,0,0,0,0,0,0,0,0,0,0,0,0,0,0,0,0,0,0,0,0,0,0,0,0,0,0,0,0,0,0,0,0,0,0,0,0,0,0,0,0,0,0,0,0,0,0,0,0,0,0,0,0,0,0,0,0,0,0,0,0,0,0,0,0,0,0,0,0,0,0,0,0,0,0,0,0,0,0,0,0,0,0,0,0,0],"trees":[{"base_weights":[-9.017619E-8,-3.812932E-1,1.2959331E-1,-5.985056E-1,-2.0064633E-1,9.926395E-1,5.460206E-2,-4.26625E-1,-8.611541E-1,-6.756707E-2,-4.1182244E-1,6.627966E-1,1.5905285E0,-2.0011139E-1,1.6939005E-1,-2.6376283E-1,-7.919357E-1,-1.0354444E0,-7.1988505E-1,2.6074028E-2,-4.1237193E-1,-5.3150463E-1,-1.879764E-1,1.1086155E0,3.0646127E-1,1.9095694E0,1.3848741E0,6.5550916E-2,-4.7910878E-1,1.0990747E0,7.067234E-2,-5.561543E-1,3.094316E-1,-1.1537701E0,-6.6184354E-1,-9.1471994E-1,-1.3031877E0,-8.380701E-1,-5.505435E-1,-1.4731067E-1,5.785826E-1,-5.905408E-1,-1.5182154E-1,-7.062463E-1,-4.1687313E-1,-4.40404E-1,1.8466031E-2,1.4605418E0,8.3829665E-1,7.714623E-1,-5.9598736E-2,1.7321534E0,2.0285068E0,1.0774037E0,1.7794958E0,-2.530428E-1,7.800065E-1,-6.869687E-1,-2.8461504E-1,7.9812855E-1,1.6850787E0,-1.9593261E-1,2.5496033E-1,-2.0240623E-1,-8.437291E-1,1.1749887E0,1.3734153E-1,-1.3652861E0,-1.0202166E0,-3.1714946E-1,-9.3728924E-1,-1.104415E0,-3.9057535E-1,-1.2232765E0,-1.4834138E0,-6.736338E-1,-1.0019795E0,1.09398566E-1,-7.726375E-1,7.2045594E-2,-2.9744568E-1,8.3718807E-1,2.222757E-1,-7.612124E-1,-4.6985468E-1,-5.0466895E-1,1.3097733E-1,-4.6603352E-1,-7.791523E-1,4.7772026E-1,-5.8926153E-1,-6.570677E-1,-3.1131727E-1,2.2734028E-1,-2.1859142E-1,1.1033106E0,1.5826133E0,7.675101E-1,1.9997022E0,1.7089943E0,6.389085E-1,-1.8152285E-1,4.134084E-1,1.9106123E0,1.601163E0,1.9474999E0,2.0761063E0,1.5108677E0,7.5478476E-1,1.5708922E0,1.9793985E0,-2.6259972E-2,-5.6702274E-1,1.2158082E0,4.8610047E-1,-4.677439E-1,-9.0035385E-1,-1.3521215E-1,-4.839703E-1,1.631816E0,5.730704E-1,1.4585485E0,1.931559E0,1.6214243E-1,-4.0864325E-1,1.2096092E0,1.1102903E-1,-5.3090394E-1,6.6844875E-1,-1.0841813E0,-6.217333E-1,1.7739933E0,9.100958E-1,-2.2591223E-1,4.465729E-1,-1.5465903E0,-1.2930852E0,-1.1976545E0,-9.453971E-1,-5.0957125E-1,2.649403E-1,-1.125935E0,-7.551678E-1,-9.554583E-1,-1.2906078E0,5.439433E-1,-6.066858E-1,-1.3601505E0,-9.643037E-1,-1.592959E0,-1.3919764E0,-8.752551E-1,-2.1118115E-1,-1.1154203E0,-8.8842326E-1,1.1111737E0,-1.128931E-1,-9.1100293E-1,-5.6576204E-1,-2.7248195E-1,7.7740866E-1,-4.5867243E-1,-9.897708E-3,6.590023E-1,1.316411E0,6.719997E-2,1.3011312E0,-1.2908256E0,-7.313015E-1,-2.102632E-1,-6.2977505E-1,-8.580191E-1,-3.4405828E-1,-2.1317618E-1,3.0818483E-1,-6.8094957E-1,2.0958608E-1,-1.0894496E0,-7.323693E-1,2.154954E-1,1.0643516E0,-4.7815678E-1,-8.070808E-1,-4.9280593E-1,-8.1492895E-1,2.1832685E-1,-5.214334E-1,3.244112E-1,-2.307351E-1,-5.8295E-1,4.5034803E-2,1.0940846E-1,1.3027203E0,1.4540128E0,1.7906195E0,5.094472E-1,1.1366546E0,2.0639448E0,1.7928481E0,1.845285E0,1.4283913E0,4.2687014E-1,9.3464696E-1,-4.3195596E-1,1.0398301E-1,1.1725283E0,-4.3145135E-1,1.8433852E0,2.0175843E0,1.7701564E0,1.3090734E0,1.9951656E0,1.8232847E0,2.051803E0,6.301886E-1,1.5641731E0,7.543091E-1,9.905957E-1,4.496947E-1,1.9335841E0,1.3651093E0,1.8725548E0,2.0740929E0,2.8621095E-1,-3.4938785E-1,-9.143682E-1,-3.775175E-1,1.7542093E0,9.8531806E-1,1.9946244E-1,9.4859946E-1,-3.1628516E-1,-8.934626E-1,-1.0832889E0,-7.3856235E-1,-3.6505485E-1,3.485184E-1,-5.8521116E-1,-3.389043E-1,1.793833E0,1.0898019E0,1.0793629E0,2.8296667E-1,1.7097083E0,1.1844221E0,1.8068198E0,2.0315385E0,-2.8065887E-1,8.4688365E-1,-6.925354E-1,-2.4585633E-1,8.985479E-1,1.7456568E0,-3.0506086E-1,2.1378309E-1,-2.105983E-1,-5.3363316E-2,4.0941182E-1,1.3676985E-1,-2.86852E-1,-3.8929674E-1,-9.31367E-2,-2.7213702E-1,5.8167547E-1,4.0538707E-1,1.6153377E-1,3.7140954E-1,8.744517E-2,-1.1955351E-1,1.06099E-1,4.3777734E-1,-4.0985757E-1,-4.891542E-1,-2.817947E-1,-4.1423616E-1,-3.7023157E-1,-2.4889888E-1,-1.4699389E-1,-2.97201E-1,-2.391147E-1,-6.986905E-2,-5.1119376E-2,4.0601584E-1,-2.9518983E-1,-3.9920798E-1,-1.9944671E-1,-3.2021472E-1,-3.5521826E-1,-1.2689453E-1,-4.221642E-1,-3.3809903E-1,3.6738735E-1,8.764963E-2,-2.1773182E-1,-1.9746466E-2,-4.4604304E-1,-3.711115E-1,-3.3950973E-1,-1.8711425E-1,-5.0576967E-1,-4.639469E-1,-2.5450754E-1,-4.213387E-1,-1.02446064E-1,-2.7902475E-1,2.8670865E-1,-9.490346E-2,-3.4897763E-1,-2.763166E-1,-2.3415875E-1,-3.3934844E-1,2.5501117E-1,4.2583746E-1,-1.0021842E-1,6.4864896E-2,-2.1808821E-1,-3.2269067E-1,-4.4702947E-2,-2.3479778E-1,-1.2586461E-1,1.2636075E-3,3.3978307E-1,1.2188639E-1,-2.1113175E-1,-1.06736444E-1,-4.4658005E-2,1.3406797E-1,4.872158E-1,1.6106737E-1,4.0051785E-1,-3.719301E-1,-5.418104E-2,1.06956646E-1,3.2660925E-1,5.769326E-1,-4.0311217E-1,-2.523223E-1,-2.4881268E-1,-1.8083057E-1,1.0588393E-1,-9.105245E-2,-2.9955572E-1,-1.752812E-1,-2.7306753E-1,-8.4398896E-2,8.0595374E-2,-1.9211306E-1,-6.865538E-4,-1.3048999E-1,1.6878447E-1,1.3877346E-2,-2.41808E-1,-1.3860287E-1,2.5346202E-1,-2.4932245E-2,-1.5138671E-1,-3.5457942E-1,-1.7159885E-1,-2.5609517E-1,3.5705772E-1,2.5805617E-2,4.080074E-1,1.8694693E-1,-2.0312917E-1,-6.0266357E-2,-2.680377E-1,-1.80363E-1,-2.399966E-1,-7.0666626E-2,-2.9540032E-1,-2.014379E-1,-8.432033E-3,1.4022875E-1,-1.0491153E-1,-2.30007E-1,3.1015899E-2,1.333815E-1,-3.7773207E-2,-1.9989246E-1,-1.5002729E-1,-2.2359018E-1,-6.169634E-2,5.7166226E-2,6.064184E-1,-1.02369174E-1,3.2897946E-1,4.8340073E-1,4.681062E-1,3.5348812E-1,6.0429263E-1,5.2597994E-1,3.6330205E-1,1.20490275E-1,3.9513943E-1,2.2869787E-1,5.871278E-1,6.236708E-1,4.1019693E-1,5.810285E-1,5.624182E-1,4.0989986E-1,4.4091323E-1,-2.8439188E-2,1.014074E-1,2.714162E-1,3.4022915E-1,1.8025307E-1,-6.8247184E-2,-2.0158003E-1,-3.4357943E-2,8.428683E-2,4.2425463E-1,1.6316772E-1,-2.0659272E-1,-1.6718414E-2,5.111232E-1,5.736245E-1,6.074761E-1,4.8217556E-1,5.643766E-1,4.5003262E-1,4.492955E-1,2.750526E-1,6.085809E-1,5.751438E-1,6.26883E-1,5.070698E-1,6.2695134E-1,6.0851264E-1,5.5779606E-1,4.3991867E-1,4.3993545E-1,5.1300682E-2,3.5586235E-1,1.6221127E-1,9.9139206E-2,2.3462576E-1,5.8985484E-1,4.3643674E-1,5.1590586E-1,3.1429884E-1,6.115125E-1,5.1839906E-1,6.062006E-1,6.272919E-1,-2.5890712E-2,2.2686288E-1,-1.7332134E-1,-2.9263292E-3,-3.2032108E-1,-2.0067263E-1,-1.7414755E-1,1.2744613E-2,4.7779498E-1,5.797637E-1,2.0385294E-1,4.2249653E-1,2.2349517E-1,-3.3868488E-2,3.750331E-1,2.0795773E-1,-1.9361724E-1,8.00122E-2,-3.1682196E-1,-2.1657817E-1,-2.8045171E-1,-3.8403252E-1,-1.7655903E-1,-2.814211E-1,-1.3449687E-1,-2.089329E-2,2.16938E-1,2.6200304E-2,-2.1346541E-1,-1.4230858E-1,-2.7437607E-2,-1.6241857E-1,5.7713646E-1,4.6019325E-1,5.2927613E-1,2.9921702E-1,2.6976413E-1,4.0339836E-1,1.6573757E-1,-2.5814306E-3,4.650447E-1,5.6789887E-1,4.851405E-1,2.6920074E-1,6.0016537E-1,5.0148976E-1,6.179671E-1,5.7750684E-1,-1.6875373E-2,-1.7012249E-1,3.2021213E-1,1.05468646E-1,-2.7524748E-1,-1.51413E-1,6.181246E-2,-1.8347204E-1,4.5135486E-1,1.5128046E-1,4.563266E-1,5.9397876E-1,5.379107E-3,-1.9146477E-1,3.197019E-1,3.2791954E-2],"categories":[],"categories_nodes":[],"categories_segments":[],"categories_sizes":[],"default_left":[0,0,0,0,0,0,0,0,0,0,0,0,0,0,0,0,0,0,0,0,0,0,0,0,0,0,0,0,0,0,0,0,0,0,0,0,0,0,0,0,0,0,0,0,0,0,0,0,0,0,0,0,0,0,0,0,0,0,0,0,0,0,0,0,0,0,0,0,0,0,0,0,0,0,0,0,0,0,0,0,0,0,0,0,0,0,0,0,0,0,0,0,0,0,0,0,0,0,0,0,0,0,0,0,0,0,0,0,0,0,0,0,0,0,0,0,0,0,0,0,0,0,0,0,0,0,0,0,0,0,0,0,0,0,0,0,0,0,0,0,0,0,0,0,0,0,0,0,0,0,0,0,0,0,0,0,0,0,0,0,0,0,0,0,0,0,0,0,0,0,0,0,0,0,0,0,0,0,0,0,0,0,0,0,0,0,0,0,0,0,0,0,0,0,0,0,0,0,0,0,0,0,0,0,0,0,0,0,0,0,0,0,0,0,0,0,0,0,0,0,0,0,0,0,0,0,0,0,0,0,0,0,0,0,0,0,0,0,0,0,0,0,0,0,0,0,0,0,0,0,0,0,0,0,0,0,0,0,0,0,0,0,0,0,0,0,0,0,0,0,0,0,0,0,0,0,0,0,0,0,0,0,0,0,0,0,0,0,0,0,0,0,0,0,0,0,0,0,0,0,0,0,0,0,0,0,0,0,0,0,0,0,0,0,0,0,0,0,0,0,0,0,0,0,0,0,0,0,0,0,0,0,0,0,0,0,0,0,0,0,0,0,0,0,0,0,0,0,0,0,0,0,0,0,0,0,0,0,0,0,0,0,0,0,0,0,0,0,0,0,0,0,0,0,0,0,0,0,0,0,0,0,0,0,0,0,0,0,0,0,0,0,0,0,0,0,0,0,0,0,0,0,0,0,0,0,0,0,0,0,0,0,0,0,0,0,0,0,0,0,0,0,0,0,0,0,0,0,0,0,0,0,0,0,0,0,0,0,0,0,0,0,0,0,0,0,0,0,0,0,0,0,0,0,0,0,0,0,0,0,0,0,0,0,0,0,0,0,0,0,0,0,0,0,0,0,0,0,0,0,0,0,0,0,0,0,0,0,0,0,0,0,0,0,0,0,0,0,0,0,0,0,0,0,0,0,0,0,0],"id":0,"left_children":[1,3,5,7,9,11,13,15,17,19,21,23,25,27,29,31,33,35,37,39,41,43,45,47,49,51,53,55,57,59,61,63,65,67,69,71,73,75,77,79,81,83,85,87,89,91,93,95,97,99,101,103,105,107,109,111,113,115,117,119,121,123,125,127,129,131,133,135,137,139,141,143,145,147,149,151,153,155,157,159,161,163,165,167,169,171,173,175,177,179,181,183,185,187,189,191,193,195,197,199,201,203,205,207,209,211,213,215,217,219,221,223,225,227,229,231,233,235,237,239,241,243,245,247,249,251,253,255,257,259,261,263,265,267,269,271,273,275,277,279,281,283,285,287,289,291,293,295,297,299,301,303,305,307,309,311,313,315,317,319,321,323,325,327,329,331,333,335,337,339,341,343,345,347,349,351,353,355,357,359,361,363,365,367,369,371,373,375,377,379,381,383,385,387,389,391,393,395,397,399,401,403,405,407,409,411,413,415,417,419,421,423,425,427,-1,429,431,433,435,437,439,441,443,445,447,449,451,453,455,457,459,461,463,465,467,469,471,473,475,477,479,481,483,485,487,489,491,493,495,497,499,501,503,505,507,-1,-1,-1,-1,-1,-1,-1,-1,-1,-1,-1,-1,-1,-1,-1,-1,-1,-1,-1,-1,-1,-1,-1,-1,-1,-1,-1,-1,-1,-1,-1,-1,-1,-1,-1,-1,-1,-1,-1,-1,-1,-1,-1,-1,-1,-1,-1,-1,-1,-1,-1,-1,-1,-1,-1,-1,-1,-1,-1,-1,-1,-1,-1,-1,-1,-1,-1,-1,-1,-1,-1,-1,-1,-1,-1,-1,-1,-1,-1,-1,-1,-1,-1,-1,-1,-1,-1,-1,-1,-1,-1,-1,-1,-1,-1,-1,-1,-1,-1,-1,-1,-1,-1,-1,-1,-1,-1,-1,-1,-1,-1,-1,-1,-1,-1,-1,-1,-1,-1,-1,-1,-1,-1,-1,-1,-1,-1,-1,-1,-1,-1,-1,-1,-1,-1,-1,-1,-1,-1,-1,-1,-1,-1,-1,-1,-1,-1,-1,-1,-1,-1,-1,-1,-1,-1,-1,-1,-1,-1,-1,-1,-1,-1,-1,-1,-1,-1,-1,-1,-1,-1,-1,-1,-1,-1,-1,-1,-1,-1,-1,-1,-1,-1,-1,-1,-1,-1,-1,-1,-1,-1,-1,-1,-1,-1,-1,-1,-1,-1,-1,-1,-1,-1,-1,-1,-1,-1,-1,-1,-1,-1,-1,-1,-1,-1,-1,-1,-1,-1,-1,-1,-1,-1,-1,-1,-1,-1,-1,-1,-1,-1,-1,-1,-1,-1,-1,-1,-1,-1,-1,-1,-1,-1,-1,-1,-1,-1,-1,-1,-1,-1,-1,-1,-1],"loss_changes":[1.1342614E6,2.2847819E5,1.1087929E6,1.193525E5,8.933879E4,2.7009862E5,4.60859E5,9.507556E4,2.5748125E4,6.296358E4,3.292247E4,1.4022047E5,3.1946875E4,3.6293606E5,9.9720894E5,1.8524277E5,2.3194094E4,1.5131469E4,1.15595625E4,1.4691192E5,1.9333984E4,1.6039609E4,2.2311014E4,3.730003E4,8.3503266E4,4.0238125E3,3.5924062E4,5.709364E5,9.655625E4,1.83939E5,4.8260675E5,7.4457734E4,5.561343E4,3.6796875E3,3.4411938E4,3.208275E4,2.0935469E3,9.16825E3,3.4798977E4,3.844199E4,3.3752406E4,5.0943984E3,1.6877762E4,5.5548906E3,7.4572195E4,5.386957E3,1.1661987E4,7.42625E3,1.8230078E4,2.6852023E4,1.5829924E4,1.7876562E3,4.3646875E2,2.3272328E4,5.4040625E3,1.2352122E5,9.908003E4,5.4007312E4,3.674972E4,1.2929597E5,1.9757E4,3.0578425E5,7.980346E5,9.3890484E4,2.1549781E4,9.823453E3,3.4984195E4,6.5816406E2,1.0593438E3,1.803189E4,6.920578E3,6.5699375E3,1.7318312E4,3.5718281E3,4.4541406E2,1.5834148E4,2.193625E3,1.3313039E4,5.084336E3,1.152629E5,3.2126762E4,1.812364E4,2.5773848E4,1.6220508E3,6.0149434E3,4.270328E3,5.7261523E3,1.0724838E4,3.5318125E3,1.2017844E4,9.811219E3,1.8643398E3,1.3432914E4,5.567384E3,1.059667E4,8.598594E3,3.3933438E3,1.9911734E4,1.6559375E2,1.0209922E3,1.1871219E4,1.5603776E4,3.6078266E4,2.2942969E2,2.1786484E3,2.4684375E2,3.8625E1,2.8626562E3,6.863961E3,4.733547E3,6.659844E2,1.0169734E5,4.7886438E4,3.8662406E4,6.1245766E4,3.6718516E4,1.7315219E4,7.841648E4,7.762711E3,1.2861656E4,7.969958E4,1.2694906E4,2.1100625E3,4.5363203E5,1.163925E5,1.26879125E5,2.1578494E5,1.4393641E4,1.3302656E4,5.294703E3,1.8648086E4,1.3209297E3,5.2322773E3,1.2789287E4,1.5827992E4,2.1515234E2,1.1179453E3,3.1671875E2,1.1580859E3,9.623254E3,1.895248E4,2.8752344E3,2.890664E3,1.6022289E4,2.0073438E3,2.7598994E3,4.4857676E3,1.0264766E3,1.9866934E3,8.516406E1,1.641875E2,3.4606328E3,6.3275977E3,7.913125E2,2.2290312E3,8.728115E2,3.5614333E3,3.2244219E3,6.435586E3,1.2966896E4,2.0516969E4,1.1196547E4,1.5803247E4,1.8232555E4,2.7439844E3,9.656978E3,2.5560469E3,1.2910059E2,1.2219922E3,2.9008794E3,1.5038398E3,7.076992E2,9.393395E3,1.4926871E3,4.1303423E3,1.5341348E3,3.3146868E3,1.7236797E3,4.1126406E3,6.8138345E3,3.1474355E3,1.4809348E4,2.4347031E3,2.7849316E3,8.923164E2,2.1046538E3,3.6395547E3,2.7445186E3,9.9953845E2,6.226221E2,2.335073E3,6.2483306E3,2.2968945E3,2.2984844E3,4.016875E2,9.304736E3,5.8091016E3,1.1457031E1,1.826875E2,2.514336E2,5.5113477E2,4.6808945E3,5.2625156E3,5.7042812E3,3.9435066E3,4.500422E3,2.5726792E3,1.8784375E2,3.4375E1,8.3684375E2,1.1967148E3,7.584375E1,4.1258203E2,2.7984375E1,0E0,1.9116719E3,1.9421309E3,4.735426E3,1.648335E3,3.55625E2,4.5556797E3,7.424375E2,2.7421875E1,8.965111E4,3.8402832E4,9.666844E3,4.0126617E4,2.687875E3,2.822114E4,4.8601387E4,1.3611734E4,8.059081E4,4.1675234E3,8.0215E3,9.292656E3,1.1760918E4,2.2227379E4,4.3594375E3,1.0886041E4,3.805375E3,2.0994648E3,9.445766E3,2.7106139E4,2.8115312E3,1.0952711E4,1.9717188E3,2.8009375E2,5.839785E4,6.4167906E4,3.8781406E4,2.645433E5,1.1504394E5,1.4697125E4,1.0755593E5,3.6023644E5,0E0,0E0,0E0,0E0,0E0,0E0,0E0,0E0,0E0,0E0,0E0,0E0,0E0,0E0,0E0,0E0,0E0,0E0,0E0,0E0,0E0,0E0,0E0,0E0,0E0,0E0,0E0,0E0,0E0,0E0,0E0,0E0,0E0,0E0,0E0,0E0,0E0,0E0,0E0,0E0,0E0,0E0,0E0,0E0,0E0,0E0,0E0,0E0,0E0,0E0,0E0,0E0,0E0,0E0,0E0,0E0,0E0,0E0,0E0,0E0,0E0,0E0,0E0,0E0,0E0,0E0,0E0,0E0,0E0,0E0,0E0,0E0,0E0,0E0,0E0,0E0,0E0,0E0,0E0,0E0,0E0,0E0,0E0,0E0,0E0,0E0,0E0,0E0,0E0,0E0,0E0,0E0,0E0,0E0,0E0,0E0,0E0,0E0,0E0,0E0,0E0,0E0,0E0,0E0,0E0,0E0,0E0,0E0,0E0,0E0,0E0,0E0,0E0,0E0,0E0,0E0,0E0,0E0,0E0,0E0,0E0,0E0,0E0,0E0,0E0,0E0,0E0,0E0,0E0,0E0,0E0,0E0,0E0,0E0,0E0,0E0,0E0,0E0,0E0,0E0,0E0,0E0,0E0,0E0,0E0,0E0,0E0,0E0,0E0,0E0,0E0,0E0,0E0,0E0,0E0,0E0,0E0,0E0,0E0,0E0,0E0,0E0,0E0,0E0,0E0,0E0,0E0,0E0,0E0,0E0,0E0,0E0,0E0,0E0,0E0,0E0,0E0,0E0,0E0,0E0,0E0,0E0,0E0,0E0,0E0,0E0,0E0,0E0,0E0,0E0,0E0,0E0,0E0,0E0,0E0,0E0,0E0,0E0,0E0,0E0,0E0,0E0,0E0,0E0,0E0,0E0,0E0,0E0,0E0,0E0,0E0,0E0,0E0,0E0,0E0,0E0,0E0,0E0,0E0,0E0,0E0,0E0,0E0,0E0,0E0,0E0,0E0,0E0,0E0,0E0,0E0,0E0,0E0,0E0,0E0,0E0,0E0,0E0,0E0,0E0,0E0,0E0,0E0,0E0,0E0,0E0,0E0,0E0,0E0,0E0,0E0,0E0,0E0,0E0],"parents":[2147483647,0,0,1,1,2,2,3,3,4,4,5,5,6,6,7,7,8,8,9,9,10,10,11,11,12,12,13,13,14,14,15,15,16,16,17,17,18,18,19,19,20,20,21,21,22,22,23,23,24,24,25,25,26,26,27,27,28,28,29,29,30,30,31,31,32,32,33,33,34,34,35,35,36,36,37,37,38,38,39,39,40,40,41,41,42,42,43,43,44,44,45,45,46,46,47,47,48,48,49,49,50,50,51,51,52,52,53,53,54,54,55,55,56,56,57,57,58,58,59,59,60,60,61,61,62,62,63,63,64,64,65,65,66,66,67,67,68,68,69,69,70,70,71,71,72,72,73,73,74,74,75,75,76,76,77,77,78,78,79,79,80,80,81,81,82,82,83,83,84,84,85,85,86,86,87,87,88,88,89,89,90,90,91,91,92,92,93,93,94,94,95,95,96,96,97,97,98,98,99,99,100,100,101,101,102,102,103,103,104,104,105,105,106,106,107,107,108,108,109,109,110,110,111,111,112,112,113,113,114,114,115,115,116,116,117,117,118,118,119,119,120,120,121,121,122,122,123,123,124,124,125,125,126,126,127,127,128,128,129,129,130,130,131,131,132,132,133,133,134,134,135,135,136,136,137,137,138,138,139,139,140,140,141,141,142,142,143,143,144,144,145,145,146,146,147,147,148,148,149,149,150,150,151,151,152,152,153,153,154,154,155,155,156,156,157,157,158,158,159,159,160,160,161,161,162,162,163,163,164,164,165,165,166,166,167,167,168,168,169,169,170,170,171,171,172,172,173,173,174,174,175,175,176,176,177,177,178,178,179,179,180,180,181,181,182,182,183,183,184,184,185,185,186,186,187,187,188,188,189,189,190,190,191,191,192,192,193,193,194,194,195,195,196,196,197,197,198,198,199,199,200,200,201,201,202,202,203,203,204,204,205,205,206,206,207,207,208,208,209,209,210,210,211,211,212,212,213,213,215,215,216,216,217,217,218,218,219,219,220,220,221,221,222,222,223,223,224,224,225,225,226,226,227,227,228,228,229,229,230,230,231,231,232,232,233,233,234,234,235,235,236,236,237,237,238,238,239,239,240,240,241,241,242,242,243,243,244,244,245,245,246,246,247,247,248,248,249,249,250,250,251,251,252,252,253,253,254,254],"right_children":[2,4,6,8,10,12,14,16,18,20,22,24,26,28,30,32,34,36,38,40,42,44,46,48,50,52,54,56,58,60,62,64,66,68,70,72,74,76,78,80,82,84,86,88,90,92,94,96,98,100,102,104,106,108,110,112,114,116,118,120,122,124,126,128,130,132,134,136,138,140,142,144,146,148,150,152,154,156,158,160,162,164,166,168,170,172,174,176,178,180,182,184,186,188,190,192,194,196,198,200,202,204,206,208,210,212,214,216,218,220,222,224,226,228,230,232,234,236,238,240,242,244,246,248,250,252,254,256,258,260,262,264,266,268,270,272,274,276,278,280,282,284,286,288,290,292,294,296,298,300,302,304,306,308,310,312,314,316,318,320,322,324,326,328,330,332,334,336,338,340,342,344,346,348,350,352,354,356,358,360,362,364,366,368,370,372,374,376,378,380,382,384,386,388,390,392,394,396,398,400,402,404,406,408,410,412,414,416,418,420,422,424,426,428,-1,430,432,434,436,438,440,442,444,446,448,450,452,454,456,458,460,462,464,466,468,470,472,474,476,478,480,482,484,486,488,490,492,494,496,498,500,502,504,506,508,-1,-1,-1,-1,-1,-1,-1,-1,-1,-1,-1,-1,-1,-1,-1,-1,-1,-1,-1,-1,-1,-1,-1,-1,-1,-1,-1,-1,-1,-1,-1,-1,-1,-1,-1,-1,-1,-1,-1,-1,-1,-1,-1,-1,-1,-1,-1,-1,-1,-1,-1,-1,-1,-1,-1,-1,-1,-1,-1,-1,-1,-1,-1,-1,-1,-1,-1,-1,-1,-1,-1,-1,-1,-1,-1,-1,-1,-1,-1,-1,-1,-1,-1,-1,-1,-1,-1,-1,-1,-1,-1,-1,-1,-1,-1,-1,-1,-1,-1,-1,-1,-1,-1,-1,-1,-1,-1,-1,-1,-1,-1,-1,-1,-1,-1,-1,-1,-1,-1,-1,-1,-1,-1,-1,-1,-1,-1,-1,-1,-1,-1,-1,-1,-1,-1,-1,-1,-1,-1,-1,-1,-1,-1,-1,-1,-1,-1,-1,-1,-1,-1,-1,-1,-1,-1,-1,-1,-1,-1,-1,-1,-1,-1,-1,-1,-1,-1,-1,-1,-1,-1,-1,-1,-1,-1,-1,-1,-1,-1,-1,-1,-1,-1,-1,-1,-1,-1,-1,-1,-1,-1,-1,-1,-1,-1,-1,-1,-1,-1,-1,-1,-1,-1,-1,-1,-1,-1,-1,-1,-1,-1,-1,-1,-1,-1,-1,-1,-1,-1,-1,-1,-1,-1,-1,-1,-1,-1,-1,-1,-1,-1,-1,-1,-1,-1,-1,-1,-1,-1,-1,-1,-1,-1,-1,-1,-1,-1,-1,-1,-1,-1,-1,-1,-1],"split_conditions":[7.1E1,1.315E3,3.34E2,2.001E3,2.001E3,8.2E1,1.06E2,2.8E2,9.1E2,3.06E2,2.6E1,2E3,2.001E3,4.53E2,6.06E2,5.7E1,6.1E1,2.58E2,6.1E1,6.1E1,2.6E1,5.5E1,4E0,2.8E2,2.62E2,8.7E1,9.2E1,8.7E1,1.32E3,1.19E2,1.51E2,1.75E2,1.94E2,8.45E2,3.26E2,6.1E1,3.29E2,1.85E2,2.24E2,1.85E2,2.58E2,6.6E1,4E0,1E2,1.8E2,5.6E1,6E0,6E0,2.6E1,1.8E2,2.6E1,2.76E2,9.2E1,2.67E2,1.01E2,2.001E3,1.999E3,1.999E3,5.51E2,4.87E2,1.28E2,7.33E2,9.57E2,4.6E1,5.1E1,1.59E2,6.2E1,5.6E1,5.6E1,2.6E1,9.25E2,1.85E2,1.8E2,6.6E1,8.32E2,5.1E1,2.6E1,1.55E2,2.6E1,4.6E1,5.6E1,2.5E1,2.6E1,2E0,3.34E2,6.1E1,1.995E3,4.5E1,3.9E1,6.3E1,2.76E2,2.01E2,2.58E2,2.7E1,7E0,4.4E1,7.6E1,7.6E1,2.55E2,1.59E2,7.6E1,7.6E1,2.7E1,2E1,2.35E2,2.36E2,1.01E2,6.61E3,2.917E3,2.58E2,1.11E2,3.92E2,1.12E3,3.99E2,9.5E1,5.94E2,9.25E2,9.6E1,1.01E2,2.846E3,1.998E3,5.59E2,1.36E2,1.22E2,1.32E2,1.65E2,1.71E2,4.1E1,1.16E2,2.14E2,2.24E2,1.998E3,6.1E1,2.24E2,2.6E1,2.6E1,2.96E2,1.2E1,1.09E2,6.6E1,6.6E1,3.61E2,3.72E2,5.1E1,5.6E1,1.3E2,2.6E1,6.1E1,2.6E1,6.6E1,6.3E1,4E0,1E2,2.72E2,2.8E2,6.5E1,6.6E1,2.76E2,3.04E2,4.1E1,1.49E2,3E0,2.6E1,1.85E2,3.003E3,6.6E1,6.6E1,1.998E3,1.832E3,1.99E3,6E0,1.2E1,3.37E2,6E0,6E0,3.9E1,8.3E1,2.002E3,1.49E2,1.09E2,1.55E2,6.4E1,2.006E3,4.6E1,2.004E3,6.1E1,3.29E2,5.6E1,2.59E2,3.06E2,5.6E1,4E1,7.6E1,2.58E2,2E2,1.99E3,2.35E2,8.18E2,2.68E2,2.8E1,3.42E2,2.6E1,3.003E3,3.06E2,1.24E3,3.26E2,7.7E1,3.99E2,3.003E3,1.998E3,1.997E3,1.998E3,2.76E2,2.58E2,6.301886E-1,2E2,2.28E2,2.35E2,2.32E2,6.862E3,2.722E3,2.54E3,1.16E2,7.8E1,8.1E1,8.1E1,2.6E1,9.2E1,9.4E1,3.99E2,4.08E2,9.6E1,1.01E2,5.5E2,5.51E2,2.6E1,1.998E3,1.72E3,6.06E2,4.53E2,6.5E1,1.12E2,5.75E2,1E2,2E3,2.001E3,2.007E3,2.001E3,7E2,1.24E3,8.74E2,8.67E2,1.75E2,1.056E3,1.121E3,-2.105983E-1,-5.3363316E-2,4.0941182E-1,1.3676985E-1,-2.86852E-1,-3.8929674E-1,-9.31367E-2,-2.7213702E-1,5.8167547E-1,4.0538707E-1,1.6153377E-1,3.7140954E-1,8.744517E-2,-1.1955351E-1,1.06099E-1,4.3777734E-1,-4.0985757E-1,-4.891542E-1,-2.817947E-1,-4.1423616E-1,-3.7023157E-1,-2.4889888E-1,-1.4699389E-1,-2.97201E-1,-2.391147E-1,-6.986905E-2,-5.1119376E-2,4.0601584E-1,-2.9518983E-1,-3.9920798E-1,-1.9944671E-1,-3.2021472E-1,-3.5521826E-1,-1.2689453E-1,-4.221642E-1,-3.3809903E-1,3.6738735E-1,8.764963E-2,-2.1773182E-1,-1.9746466E-2,-4.4604304E-1,-3.711115E-1,-3.3950973E-1,-1.8711425E-1,-5.0576967E-1,-4.639469E-1,-2.5450754E-1,-4.213387E-1,-1.02446064E-1,-2.7902475E-1,2.8670865E-1,-9.490346E-2,-3.4897763E-1,-2.763166E-1,-2.3415875E-1,-3.3934844E-1,2.5501117E-1,4.2583746E-1,-1.0021842E-1,6.4864896E-2,-2.1808821E-1,-3.2269067E-1,-4.4702947E-2,-2.3479778E-1,-1.2586461E-1,1.2636075E-3,3.3978307E-1,1.2188639E-1,-2.1113175E-1,-1.06736444E-1,-4.4658005E-2,1.3406797E-1,4.872158E-1,1.6106737E-1,4.0051785E-1,-3.719301E-1,-5.418104E-2,1.06956646E-1,3.2660925E-1,5.769326E-1,-4.0311217E-1,-2.523223E-1,-2.4881268E-1,-1.8083057E-1,1.0588393E-1,-9.105245E-2,-2.9955572E-1,-1.752812E-1,-2.7306753E-1,-8.4398896E-2,8.0595374E-2,-1.9211306E-1,-6.865538E-4,-1.3048999E-1,1.6878447E-1,1.3877346E-2,-2.41808E-1,-1.3860287E-1,2.5346202E-1,-2.4932245E-2,-1.5138671E-1,-3.5457942E-1,-1.7159885E-1,-2.5609517E-1,3.5705772E-1,2.5805617E-2,4.080074E-1,1.8694693E-1,-2.0312917E-1,-6.0266357E-2,-2.680377E-1,-1.80363E-1,-2.399966E-1,-7.0666626E-2,-2.9540032E-1,-2.014379E-1,-8.432033E-3,1.4022875E-1,-1.0491153E-1,-2.30007E-1,3.1015899E-2,1.333815E-1,-3.7773207E-2,-1.9989246E-1,-1.5002729E-1,-2.2359018E-1,-6.169634E-2,5.7166226E-2,6.064184E-1,-1.02369174E-1,3.2897946E-1,4.8340073E-1,4.681062E-1,3.5348812E-1,6.0429263E-1,5.2597994E-1,3.6330205E-1,1.20490275E-1,3.9513943E-1,2.2869787E-1,5.871278E-1,6.236708E-1,4.1019693E-1,5.810285E-1,5.624182E-1,4.0989986E-1,4.4091323E-1,-2.8439188E-2,1.014074E-1,2.714162E-1,3.4022915E-1,1.8025307E-1,-6.8247184E-2,-2.0158003E-1,-3.4357943E-2,8.428683E-2,4.2425463E-1,1.6316772E-1,-2.0659272E-1,-1.6718414E-2,5.111232E-1,5.736245E-1,6.074761E-1,4.8217556E-1,5.643766E-1,4.5003262E-1,4.492955E-1,2.750526E-1,6.085809E-1,5.751438E-1,6.26883E-1,5.070698E-1,6.2695134E-1,6.0851264E-1,5.5779606E-1,4.3991867E-1,4.3993545E-1,5.1300682E-2,3.5586235E-1,1.6221127E-1,9.9139206E-2,2.3462576E-1,5.8985484E-1,4.3643674E-1,5.1590586E-1,3.1429884E-1,6.115125E-1,5.1839906E-1,6.062006E-1,6.272919E-1,-2.5890712E-2,2.2686288E-1,-1.7332134E-1,-2.9263292E-3,-3.2032108E-1,-2.0067263E-1,-1.7414755E-1,1.2744613E-2,4.7779498E-1,5.797637E-1,2.0385294E-1,4.2249653E-1,2.2349517E-1,-3.3868488E-2,3.750331E-1,2.0795773E-1,-1.9361724E-1,8.00122E-2,-3.1682196E-1,-2.1657817E-1,-2.8045171E-1,-3.8403252E-1,-1.7655903E-1,-2.814211E-1,-1.3449687E-1,-2.089329E-2,2.16938E-1,2.6200304E-2,-2.1346541E-1,-1.4230858E-1,-2.7437607E-2,-1.6241857E-1,5.7713646E-1,4.6019325E-1,5.2927613E-1,2.9921702E-1,2.6976413E-1,4.0339836E-1,1.6573757E-1,-2.5814306E-3,4.650447E-1,5.6789887E-1,4.851405E-1,2.6920074E-1,6.0016537E-1,5.0148976E-1,6.179671E-1,5.7750684E-1,-1.6875373E-2,-1.7012249E-1,3.2021213E-1,1.05468646E-1,-2.7524748E-1,-1.51413E-1,6.181246E-2,-1.8347204E-1,4.5135486E-1,1.5128046E-1,4.563266E-1,5.9397876E-1,5.379107E-3,-1.9146477E-1,3.197019E-1,3.2791954E-2],"split_indices":[0,2,6,12,12,0,0,6,2,6,11,12,12,6,6,0,0,6,0,0,11,0,4,6,6,0,0,0,2,0,0,6,6,2,6,0,6,6,6,6,6,0,4,6,6,0,4,11,11,6,11,6,0,6,0,12,12,12,6,6,0,6,6,0,0,6,0,0,0,11,2,6,6,0,1,0,11,6,11,0,0,11,11,11,6,0,12,0,0,0,6,6,6,11,4,10,0,0,10,6,0,0,11,11,5,5,0,8,8,6,0,6,2,6,0,6,2,0,0,8,12,6,0,0,0,0,0,0,6,6,6,12,0,6,11,11,6,9,8,0,0,6,6,0,0,6,11,0,11,0,8,11,6,5,6,0,0,6,6,0,6,4,11,6,8,0,0,12,2,12,11,9,6,4,4,0,6,12,6,6,6,0,12,0,12,0,6,0,6,6,0,10,0,6,6,12,5,1,10,11,5,11,8,6,2,6,0,8,8,12,12,12,6,6,0,6,6,5,10,8,8,8,0,0,0,0,11,0,0,6,6,0,0,6,6,11,12,2,6,6,5,0,6,5,12,12,12,12,6,2,6,6,0,6,6,0,0,0,0,0,0,0,0,0,0,0,0,0,0,0,0,0,0,0,0,0,0,0,0,0,0,0,0,0,0,0,0,0,0,0,0,0,0,0,0,0,0,0,0,0,0,0,0,0,0,0,0,0,0,0,0,0,0,0,0,0,0,0,0,0,0,0,0,0,0,0,0,0,0,0,0,0,0,0,0,0,0,0,0,0,0,0,0,0,0,0,0,0,0,0,0,0,0,0,0,0,0,0,0,0,0,0,0,0,0,0,0,0,0,0,0,0,0,0,0,0,0,0,0,0,0,0,0,0,0,0,0,0,0,0,0,0,0,0,0,0,0,0,0,0,0,0,0,0,0,0,0,0,0,0,0,0,0,0,0,0,0,0,0,0,0,0,0,0,0,0,0,0,0,0,0,0,0,0,0,0,0,0,0,0,0,0,0,0,0,0,0,0,0,0,0,0,0,0,0,0,0,0,0,0,0,0,0,0,0,0,0,0,0,0,0,0,0,0,0,0,0,0,0,0,0,0,0,0,0,0,0,0,0,0,0,0,0,0,0,0,0,0,0,0,0,0,0,0,0,0,0,0,0],"split_type":[0,0,0,0,0,0,0,0,0,0,0,0,0,0,0,0,0,0,0,0,0,0,0,0,0,0,0,0,0,0,0,0,0,0,0,0,0,0,0,0,0,0,0,0,0,0,0,0,0,0,0,0,0,0,0,0,0,0,0,0,0,0,0,0,0,0,0,0,0,0,0,0,0,0,0,0,0,0,0,0,0,0,0,0,0,0,0,0,0,0,0,0,0,0,0,0,0,0,0,0,0,0,0,0,0,0,0,0,0,0,0,0,0,0,0,0,0,0,0,0,0,0,0,0,0,0,0,0,0,0,0,0,0,0,0,0,0,0,0,0,0,0,0,0,0,0,0,0,0,0,0,0,0,0,0,0,0,0,0,0,0,0,0,0,0,0,0,0,0,0,0,0,0,0,0,0,0,0,0,0,0,0,0,0,0,0,0,0,0,0,0,0,0,0,0,0,0,0,0,0,0,0,0,0,0,0,0,0,0,0,0,0,0,0,0,0,0,0,0,0,0,0,0,0,0,0,0,0,0,0,0,0,0,0,0,0,0,0,0,0,0,0,0,0,0,0,0,0,0,0,0,0,0,0,0,0,0,0,0,0,0,0,0,0,0,0,0,0,0,0,0,0,0,0,0,0,0,0,0,0,0,0,0,0,0,0,0,0,0,0,0,0,0,0,0,0,0,0,0,0,0,0,0,0,0,0,0,0,0,0,0,0,0,0,0,0,0,0,0,0,0,0,0,0,0,0,0,0,0,0,0,0,0,0,0,0,0,0,0,0,0,0,0,0,0,0,0,0,0,0,0,0,0,0,0,0,0,0,0,0,0,0,0,0,0,0,0,0,0,0,0,0,0,0,0,0,0,0,0,0,0,0,0,0,0,0,0,0,0,0,0,0,0,0,0,0,0,0,0,0,0,0,0,0,0,0,0,0,0,0,0,0,0,0,0,0,0,0,0,0,0,0,0,0,0,0,0,0,0,0,0,0,0,0,0,0,0,0,0,0,0,0,0,0,0,0,0,0,0,0,0,0,0,0,0,0,0,0,0,0,0,0,0,0,0,0,0,0,0,0,0,0,0,0,0,0,0,0,0,0,0,0,0,0,0,0,0,0,0,0,0,0,0,0,0,0,0,0,0,0,0,0,0,0,0,0,0,0,0],"sum_hessian":[2.295468E7,5.8227705E6,1.713191E7,2.6438112E6,3.1789592E6,1.3696069E6,1.5762303E7,1.5980372E6,1.04577394E6,1.9500656E6,1.2288936E6,8.8266256E5,4.869443E5,4.8966605E6,1.0865643E7,1.1052835E6,4.9275384E5,4.681674E5,5.7760656E5,1.533581E6,4.1648453E5,8.0075706E5,4.2813653E5,3.920981E5,4.9056447E5,1.9085467E5,2.9608962E5,2.5082738E6,2.3883868E6,1.0430066E6,9.822636E6,7.3192306E5,3.7336034E5,1.30308875E5,3.6244497E5,3.2267766E5,1.4548977E5,3.4018456E5,2.3742198E5,1.167275E6,3.6630603E5,2.4734469E5,1.6913986E5,3.1720775E5,4.835493E5,1.9261514E5,2.3552138E5,1.7033528E5,2.2176281E5,2.1607995E5,2.7448453E5,7.6603195E4,1.1425148E5,1.6642386E5,1.2966578E5,1.7347195E6,7.735544E5,1.1545209E6,1.2338658E6,6.891114E5,3.5389525E5,4.0146868E6,5.8079495E6,3.2820144E5,4.0372166E5,6.191952E4,3.1144084E5,5.043036E4,7.9878516E4,1.6098711E5,2.0145788E5,2.3692875E5,8.574889E4,1.0080237E5,4.4687402E4,1.6982184E5,1.703627E5,5.9782273E4,1.7763972E5,4.7429788E5,6.929771E5,2.1225281E5,1.5405322E5,1.0245287E5,1.4489181E5,7.524993E4,9.388992E4,7.3859766E4,2.4334797E5,7.812503E4,4.0542428E5,7.191178E4,1.2070336E5,1.2520327E5,1.1031811E5,4.3384508E4,1.2695077E5,2.0902462E5,1.2738191E4,2.6764814E4,1.8931514E5,2.1823266E5,5.6251867E4,3.2420496E4,4.4182703E4,4.2302047E4,7.194944E4,7.10111E4,9.541275E4,6.345631E4,6.620947E4,1.00722075E6,7.2749875E5,3.1156503E5,4.6198934E5,5.6946975E5,5.850511E5,7.052967E5,5.285691E5,1.4648347E5,5.426279E5,1.8441427E5,1.6948098E5,1.4961248E6,2.5185618E6,7.609319E5,5.0470175E6,2.383087E5,8.989272E4,1.9380258E5,2.0991908E5,1.8984354E4,4.2935164E4,1.4321114E5,1.682297E5,1.43572705E4,3.607309E4,2.368749E4,5.6191023E4,1.2099112E5,3.9995984E4,9.895388E4,1.02503984E5,1.3162947E5,1.0529929E5,1.610502E4,6.9643875E4,6.594465E4,3.485772E4,2.0323154E4,2.4364246E4,1.1826115E5,5.15607E4,8.522025E4,8.514245E4,1.0855789E4,4.8926484E4,1.0644334E5,7.1196375E4,3.1865475E5,1.5564312E5,4.4401788E5,2.4895927E5,1.5472498E5,5.752783E4,1.3469333E5,1.9359887E4,5.4746494E3,9.697822E4,5.5234484E4,8.965733E4,2.3513938E4,5.1735996E4,3.1912555E4,6.1977367E4,5.6034926E4,1.782484E4,3.187939E4,2.1146858E5,5.3991938E4,2.4133092E4,2.6848125E5,1.3694303E5,3.5243477E4,3.6668305E4,3.42837E4,8.6419664E4,1.0331091E5,2.1892363E4,4.631072E4,6.400739E4,7.2500767E3,3.613443E4,7.845418E4,4.849659E4,1.2302338E5,8.600124E4,9.712733E3,3.0254575E3,1.801111E4,8.753704E3,1.1026201E5,7.905314E4,1.1625681E5,1.0197584E5,2.9629186E4,2.662268E4,1.9919943E4,1.2500553E4,2.7985918E4,1.6196783E4,3.056004E4,1.1742007E4,3.6178566E4,3.5770867E4,6.633614E4,4.674959E3,5.381539E4,4.159736E4,2.2967594E4,4.0488715E4,3.111885E4,3.509062E4,5.1205438E5,4.9516638E5,2.5680158E5,4.7069716E5,9.3395695E4,2.1816933E5,2.8522188E5,1.7676747E5,4.200349E5,1.4943486E5,2.7458103E5,3.104701E5,4.7812003E5,2.2717662E5,3.113067E5,2.172624E5,1.1277179E5,3.371167E4,1.9766239E5,3.449655E5,9.623588E4,8.817838E4,7.5412266E4,9.406871E4,9.0857656E5,5.875482E5,9.1785894E5,1.6007029E6,4.8151678E5,2.794151E5,9.995323E5,4.0474852E6,1.6051556E5,7.779313E4,2.1022604E4,6.887012E4,1.21157195E5,7.264539E4,1.0040664E5,1.0951244E5,1.3653583E4,5.33077E3,2.0127408E4,2.2807756E4,3.582348E4,1.0738766E5,1.5409361E5,1.4136091E4,4.5639946E3,9.793276E3,7.1685366E3,2.8904553E4,2.1550494E4,2.1369958E3,5.0819106E3,5.1109113E4,5.933617E4,6.165495E4,2.8569914E4,1.142607E4,5.844023E4,4.0513652E4,7.9501734E4,2.3002254E4,9.2091555E4,3.9537914E4,6.1476906E4,4.382238E4,4.3475522E3,1.1757467E4,5.7076492E4,1.2567381E4,3.2498545E4,3.3446105E4,2.3369559E4,1.1488161E4,6.762582E3,1.3560573E4,5.4858704E2,2.381566E4,1.1016625E4,1.0724452E5,4.2620225E3,4.7298676E4,6.838412E4,1.6836137E4,5.8945926E4,2.6196527E4,5.879357E3,4.9764326E3,2.9261883E4,1.9664602E4,5.0261543E4,5.6181797E4,2.4370979E4,4.6825395E4,2.0806484E5,1.10589914E5,7.952617E4,7.611695E4,1.3127562E5,3.1274225E5,1.9088884E5,5.8070434E4,1.7377492E4,1.373475E5,5.7111652E4,4.1617807E2,7.255263E4,6.21407E4,1.4433075E4,4.9268105E3,4.896887E3,5.777619E2,5.5003582E4,4.1974637E4,7.8452935E3,4.738919E4,9.84639E3,7.981094E4,2.1561465E4,1.9524712E3,1.6864562E4,3.4871434E4,1.6358865E4,1.5553689E4,3.1438027E4,3.0539342E4,3.5660152E4,2.0374771E4,5.621521E3,1.2203318E4,4.353786E3,2.7525604E4,9.106146E4,1.20407125E5,6.330196E3,4.7661742E4,1.4448286E4,9.684806E3,1.5632012E5,1.1216112E5,9.646529E4,4.0477742E4,1.6061881E4,1.9181596E4,1.6793746E4,1.987456E4,1.723461E4,1.7049088E4,5.083058E4,3.5589086E4,3.639177E4,6.691914E4,1.7646799E4,4.245565E3,3.066452E4,1.5646201E4,2.3508451E4,4.0498938E4,1.38219E3,5.867886E3,2.1667443E4,1.4466988E4,5.6614184E4,2.1839998E4,6.931896E3,4.1564695E4,1.6386045E4,1.0663734E5,5.802355E4,2.797769E4,1.2088864E3,8.503848E3,7.672738E2,2.2581838E3,1.6965303E4,1.0458064E3,8.522549E3,2.3115463E2,9.297677E4,1.728523E4,4.9483797E4,2.956934E4,6.2774066E4,5.3482746E4,4.5632965E4,5.6342883E4,2.1401129E4,8.228058E3,1.5803795E4,1.0818885E4,6.5768105E3,1.3343133E4,1.2277129E4,2.2342455E2,1.982419E4,8.1617285E3,1.0936083E4,5.2607E3,2.1374447E4,9.185591E3,3.9069373E3,7.83507E3,1.3756568E4,2.2422E4,1.6502994E4,4.983315E4,2.10433E3,2.570629E3,3.750615E4,1.6309243E4,3.0616893E4,1.0980469E4,2.1500623E4,1.4669716E3,1.9123744E4,2.136497E4,1.4487436E4,1.6631414E4,8.454225E3,2.6636395E4,2.85652E5,2.2640238E5,2.9609112E5,1.9907525E5,1.5804692E5,9.875464E4,3.1733666E5,1.533605E5,4.9008023E4,4.438767E4,1.2662735E5,9.154197E4,1.0385002E5,1.8137186E5,8.10652E4,9.570226E4,2.6847675E5,1.5155814E5,7.671042E4,7.272444E4,1.565271E5,1.1805394E5,1.7721008E5,1.3326002E5,3.729853E5,1.0513471E5,9.332363E4,1.33853E5,1.4548503E5,1.6582166E5,9.777816E4,1.1948425E5,7.517163E4,3.7600156E4,4.0602922E3,2.9651379E4,1.1772578E5,7.993661E4,1.7927002E5,1.6569548E5,5.1453227E4,4.4782656E4,3.516742E4,5.3010965E4,3.0989184E4,4.4423082E4,7.427919E4,1.978953E4,5.0943462E5,3.9914197E5,4.065661E5,1.8098211E5,4.1764578E5,5.0021312E5,7.159906E5,8.847123E5,1.8980414E5,2.9171266E5,1.4266605E5,1.3674903E5,5.075081E5,4.9202422E5,4.421594E5,3.6053258E6],"tree_param":{"num_deleted":"0","num_feature":"13","num_nodes":"509","size_leaf_vector":"1"}},{"base_weights":[-5.7962246E-4,-3.2001203E-1,8.095514E-2,-5.604164E-1,-2.194299E-1,6.251868E-1,3.2727905E-2,-3.748182E-1,-7.4486506E-1,-1.1965923E-1,-3.8213363E-1,3.8769254E-1,1.1096709E0,1.7227179E-1,-1.343677E-1,-1.6681151E-1,-6.405465E-1,-6.036333E-1,-8.7054175E-1,-3.0909196E-2,-3.782465E-1,-6.084511E-1,-3.2754508E-1,7.4918544E-1,1.4102376E-1,9.204558E-1,1.3850794E0,-1.9005941E-1,2.328202E-1,-3.0853626E-1,5.3182703E-2,-3.8650492E-1,4.212676E-1,-9.3591523E-1,-5.2839535E-1,-8.347512E-1,-2.3296192E-1,-9.8396236E-1,-7.610819E-1,-1.7416576E-1,3.17605E-1,-5.0567544E-1,-2.2228162E-1,-2.3892541E-1,-6.479665E-1,7.319053E-2,-3.9699098E-1,3.586965E-1,8.609642E-1,1.01784E0,5.9518185E-2,1.2615588E0,6.8585366E-1,1.4801378E0,1.1870993E0,3.4856055E-2,-4.825335E-1,1.0762539E0,1.9462164E-1,-6.663476E-1,-2.5431973E-1,-1.3347167E-1,1.5228064E-1,-9.34797E-2,-6.480777E-1,1.3849698E0,2.712192E-1,2.992796E-1,-9.7934365E-1,-2.5864363E-1,-8.0983496E-1,-5.271182E-1,-9.168722E-1,4.624982E-1,-3.950841E-1,-1.1682729E0,-9.1420054E-1,-5.725498E-1,-8.301484E-1,-5.1571507E-2,-4.0946868E-1,1.1120036E0,2.1752964E-1,-1.0603778E0,-4.7316182E-1,-4.819464E-1,-1.7012171E-2,2.6894507E-1,-4.472911E-1,-3.7720552E-1,-7.1329993E-1,-1.2276519E-1,5.216724E-1,-5.2674997E-1,-2.2397132E-1,1.3994838E0,2.4297763E-1,1.2624377E0,7.080475E-1,1.225357E0,7.5259465E-1,-2.818555E-2,4.7394383E-1,1.3614905E0,1.0717192E0,1.1007519E0,5.0191015E-1,1.5353249E0,1.3559102E0,9.782713E-1,1.4357339E0,-1.5720633E-1,3.3085948E-1,-7.2066677E-1,-2.8424147E-1,8.7018174E-1,1.4069201E0,-1.9552818E-2,2.790001E-1,-5.0141406E-1,-8.546764E-1,4.314417E-1,-3.0165416E-1,9.748623E-4,-3.4766024E-1,8.170228E-1,6.213022E-2,-5.144571E-1,3.9927673E-1,-9.82892E-1,-4.5563674E-1,1.4923372E0,1.1257612E0,1.8099623E-2,5.669456E-1,4.2899898E-1,-4.680782E-1,-1.093011E0,-8.3287203E-1,-3.6769578E-1,3.0450755E-1,-6.548015E-1,-9.570551E-1,-7.880508E-1,1.7096211E-1,-1.0369121E0,-7.721876E-1,1.1506488E0,2.8077102E-1,-4.9654594E-1,1.1228461E-1,-7.9561013E-1,-1.2113134E0,-2.0907657E-1,-9.47635E-1,-7.8192836E-1,-3.8210157E-1,-3.7617207E-1,-8.5064405E-1,-2.5027245E-1,3.1443754E-1,-5.951929E-1,-2.604888E-1,1.3804846E0,8.037038E-1,4.9065843E-2,5.40145E-1,-1.1356883E0,-6.4703906E-1,-6.3644075E-1,-3.7005484E-1,-7.867397E-1,-3.699577E-1,-1.0995907E-1,3.555665E-1,6.981041E-1,-1.6097413E-1,-6.112143E-1,-1.2264641E-1,-5.3264534E-1,1.007925E-1,-1.0543194E0,-6.697758E-1,8.156987E-1,-1.8833606E-1,3.224977E-1,1.0621263E0,-6.695259E-1,-4.4080386E-1,-3.990644E-1,-8.318806E-2,9.8101294E-1,1.6148301E0,-3.0026653E-1,3.824194E-1,1.3281534E0,7.5891334E-1,9.770026E-1,4.5969045E-1,1.2688946E0,5.431669E-1,5.54839E-1,1.0422627E0,2.9300198E-1,-1.7594062E-1,1.0159378E0,-2.0191675E-1,1.266369E0,1.4484057E0,8.365325E-1,1.4040794E0,1.5081656E0,9.9288493E-1,7.222059E-1,2.4492769E-1,1.5534217E0,1.4315991E0,1.4845889E0,1.1075709E0,1.3521923E0,7.338677E-1,1.5498793E0,1.3183321E0,-3.0770743E-1,3.8468188E-1,2.5762358E-1,8.7750924E-1,-6.061676E-1,-9.220012E-1,-4.0037155E-1,1.083502E-2,9.946317E-1,5.11598E-1,1.2927125E0,1.5486517E0,2.1749888E-1,-3.438223E-1,9.246042E-1,1.9508915E-1,-6.410684E-1,-1.8236616E-1,-1.0524236E0,-7.069451E-1,1.19920306E-1,8.696213E-1,-4.0719622E-1,-1.2997667E-1,-1.7883044E-1,5.284111E-1,-5.136979E-1,-2.6307526E-1,5.7492226E-1,1.2956971E0,-2.7727708E-1,1.6374476E-1,-2.1557172E-1,-8.582107E-2,4.046837E-1,6.737835E-2,-2.6065922E-1,-3.740884E-1,-2.037801E-2,-2.092521E-1,3.7741432E-1,4.664004E-1,3.7667045E-1,1.7188585E-1,1.9180426E-1,-3.0696522E-2,5.636857E-3,2.3327099E-1,-3.1068146E-1,1.4211743E-1,-1.5489031E-1,-4.6488615E-3,-1.5725759E-1,-3.3405757E-1,-1.8182361E-1,-2.7707306E-1,-2.3267627E-2,-1.7202444E-1,3.5817423E-1,-3.7938158E-3,-2.6331294E-1,-1.4715075E-1,-1.8063697E-1,-2.968062E-1,-2.5823092E-1,-9.728634E-2,1.8695202E-1,-6.0677584E-2,-1.5113121E-1,-3.313826E-1,6.7655884E-2,-2.4110308E-1,-1.0256851E-1,4.0740782E-1,-1.9190846E-2,1.6722585E-1,-2.1908371E-1,-7.833789E-2,2.4076156E-1,-2.1948726E-1,-1.7050354E-1,-3.4614092E-1,8.5903004E-2,-3.6653167E-1,4.1098297E-2,-2.912725E-1,-2.593989E-1,-3.5076922E-1,-1.1611508E-1,-2.5099406E-1,-2.0986603E-1,-4.5765694E-2,-2.5718796E-1,1.2231477E-1,-2.9932836E-1,-2.4099381E-1,-7.126765E-3,-1.468426E-1,2.1502696E-1,2.7607717E-2,-2.4066146E-1,-1.4552395E-1,-1.2563242E-1,2.21E-2,4.6439996E-1,2.8353137E-1,1.7443573E-1,4.384014E-1,2.404465E-1,-1.1941235E-2,2.1857077E-1,5.1101398E-2,-3.77162E-1,-2.9637185E-1,-1.352654E-1,-2.4832366E-1,-2.404788E-1,-1.5814558E-1,-5.016264E-2,-1.6128995E-1,-2.9244965E-1,-1.9671774E-1,1.17125414E-1,-1.4070477E-1,1.6787527E-2,-8.470611E-2,1.6736668E-1,4.191325E-2,4.237807E-2,2.7262872E-1,-1.3460454E-1,5.978067E-2,-2.445168E-1,-1.0239174E-1,-1.18199445E-1,2.105362E-2,-2.1725093E-1,-1.2403815E-1,-8.740186E-2,1.02469854E-1,-3.2954478E-1,-2.1518196E-1,-2.2952166E-1,-1.5037155E-1,1.3641706E-1,3.3762804E-1,-1.0984792E-1,6.930598E-3,2.7316135E-1,3.941542E-2,4.322238E-1,2.2838855E-1,-8.0618925E-2,-2.1226074E-1,-1.5304083E-1,-6.657305E-2,-6.604283E-2,-1.6086413E-1,-8.573357E-2,2.2867726E-2,4.7913575E-1,1.4763281E-1,4.997593E-1,4.09099E-1,-2.4176605E-1,-1.852775E-2,2.0290394E-1,1.7503101E-2,4.428644E-1,3.491942E-1,1.7187938E-1,4.298562E-1,2.1825819E-1,4.0191594E-1,1.1038662E-1,4.442529E-1,4.3356937E-1,3.4253573E-1,4.977269E-1,8.6156234E-2,9.459326E-2,2.7277032E-1,3.8644376E-1,2.0269844E-1,3.387297E-2,2.4053133E-1,-9.710189E-2,3.2774314E-2,3.788496E-1,2.2682862E-1,1.0370468E-1,-1.4222133E-1,4.073054E-1,2.7836284E-1,4.5407912E-1,3.8938615E-1,3.402793E-1,1.187926E-1,3.9841717E-1,5.1927525E-1,4.674668E-1,3.8229367E-1,2.4542528E-1,3.7095806E-1,3.0062482E-1,1.2279348E-1,9.187591E-2,-8.221985E-2,4.583322E-1,4.7654065E-1,3.7204832E-1,4.5606002E-1,4.5876992E-1,3.6204547E-1,2.4995422E-1,4.3972537E-1,3.771282E-1,4.5529005E-1,1.8149136E-1,3.1725812E-1,4.8097056E-1,4.4371948E-1,-1.3885142E-1,3.99578E-1,5.6102123E-2,-1.15093574E-1,3.0011582E-1,3.7808653E-2,2.558577E-1,5.4218333E-2,4.2809457E-1,9.3232125E-2,-2.4387625E-1,-1.03123255E-1,-3.2560718E-1,-2.2098234E-1,-2.5146112E-1,-1.0914136E-1,-8.480977E-2,7.373988E-2,2.4936119E-1,3.4449193E-1,1.2515894E-1,5.1969963E-1,4.1551486E-1,3.0220732E-1,4.4169053E-1,4.7599533E-1,7.2035408E-3,2.3005322E-1,-6.796872E-2,-1.8146059E-1,2.1424085E-1,4.1531685E-1,-4.2082362E-2,9.262778E-2,-2.4798808E-1,-1.10702045E-1,-1.0481981E-1,9.485283E-2,-3.5955048E-1,-2.9243103E-1,-2.4241516E-1,-1.6731897E-1,1.1756412E-1,-3.5154887E-2,3.2598048E-1,1.5705556E-1,-8.594457E-2,-2.3248103E-1,2.275239E-1,-8.0093734E-2,-9.6966766E-2,2.6817651E-2,2.5278932E-1,9.263655E-2,-1.203835E-1,-1.9017383E-1,-1.1694298E-1,-4.7498237E-2,2.963336E-1,9.617135E-2,3.332161E-1,4.5844463E-1,-1.6892137E-2,-1.4872958E-1,2.3903309E-1,2.3046238E-2],"categories":[],"categories_nodes":[],"categories_segments":[],"categories_sizes":[],"default_left":[0,0,0,0,0,0,0,0,0,0,0,0,0,0,0,0,0,0,0,0,0,0,0,0,0,0,0,0,0,0,0,0,0,0,0,0,0,0,0,0,0,0,0,0,0,0,0,0,0,0,0,0,0,0,0,0,0,0,0,0,0,0,0,0,0,0,0,0,0,0,0,0,0,0,0,0,0,0,0,0,0,0,0,0,0,0,0,0,0,0,0,0,0,0,0,0,0,0,0,0,0,0,0,0,0,0,0,0,0,0,0,0,0,0,0,0,0,0,0,0,0,0,0,0,0,0,0,0,0,0,0,0,0,0,0,0,0,0,0,0,0,0,0,0,0,0,0,0,0,0,0,0,0,0,0,0,0,0,0,0,0,0,0,0,0,0,0,0,0,0,0,0,0,0,0,0,0,0,0,0,0,0,0,0,0,0,0,0,0,0,0,0,0,0,0,0,0,0,0,0,0,0,0,0,0,0,0,0,0,0,0,0,0,0,0,0,0,0,0,0,0,0,0,0,0,0,0,0,0,0,0,0,0,0,0,0,0,0,0,0,0,0,0,0,0,0,0,0,0,0,0,0,0,0,0,0,0,0,0,0,0,0,0,0,0,0,0,0,0,0,0,0,0,0,0,0,0,0,0,0,0,0,0,0,0,0,0,0,0,0,0,0,0,0,0,0,0,0,0,0,0,0,0,0,0,0,0,0,0,0,0,0,0,0,0,0,0,0,0,0,0,0,0,0,0,0,0,0,0,0,0,0,0,0,0,0,0,0,0,0,0,0,0,0,0,0,0,0,0,0,0,0,0,0,0,0,0,0,0,0,0,0,0,0,0,0,0,0,0,0,0,0,0,0,0,0,0,0,0,0,0,0,0,0,0,0,0,0,0,0,0,0,0,0,0,0,0,0,0,0,0,0,0,0,0,0,0,0,0,0,0,0,0,0,0,0,0,0,0,0,0,0,0,0,0,0,0,0,0,0,0,0,0,0,0,0,0,0,0,0,0,0,0,0,0,0,0,0,0,0,0,0,0,0,0,0,0,0,0,0,0,0,0,0,0,0,0,0,0,0,0,0,0,0,0,0,0,0,0,0,0,0,0,0,0,0,0,0,0,0,0,0,0,0,0,0,0,0,0,0,0,0,0,0,0,0,0,0,0,0,0],"id":1,"left_children":[1,3,5,7,9,11,13,15,17,19,21,23,25,27,29,31,33,35,37,39,41,43,45,47,49,51,53,55,57,59,61,63,65,67,69,71,73,75,77,79,81,83,85,87,89,91,93,95,97,99,101,103,105,107,109,111,113,115,117,119,121,123,125,127,129,131,133,135,137,139,141,143,145,147,149,151,153,155,157,159,161,163,165,167,169,171,173,175,177,179,181,183,185,187,189,191,193,195,197,199,201,203,205,207,209,211,213,215,217,219,221,223,225,227,229,231,233,235,237,239,241,243,245,247,249,251,253,255,257,259,261,263,265,267,269,271,273,275,277,279,281,283,285,287,289,291,293,295,297,299,301,303,305,307,309,311,313,315,317,319,321,323,325,327,329,331,333,335,337,339,341,343,345,347,349,351,353,355,357,359,361,363,365,367,369,371,373,375,377,379,381,383,385,387,389,391,393,395,397,399,401,403,405,407,409,411,413,415,417,419,421,423,425,427,429,431,433,435,437,439,441,443,445,447,449,451,453,455,457,459,461,463,465,467,469,471,473,475,477,479,481,483,485,487,489,491,493,495,497,499,501,503,505,507,509,-1,-1,-1,-1,-1,-1,-1,-1,-1,-1,-1,-1,-1,-1,-1,-1,-1,-1,-1,-1,-1,-1,-1,-1,-1,-1,-1,-1,-1,-1,-1,-1,-1,-1,-1,-1,-1,-1,-1,-1,-1,-1,-1,-1,-1,-1,-1,-1,-1,-1,-1,-1,-1,-1,-1,-1,-1,-1,-1,-1,-1,-1,-1,-1,-1,-1,-1,-1,-1,-1,-1,-1,-1,-1,-1,-1,-1,-1,-1,-1,-1,-1,-1,-1,-1,-1,-1,-1,-1,-1,-1,-1,-1,-1,-1,-1,-1,-1,-1,-1,-1,-1,-1,-1,-1,-1,-1,-1,-1,-1,-1,-1,-1,-1,-1,-1,-1,-1,-1,-1,-1,-1,-1,-1,-1,-1,-1,-1,-1,-1,-1,-1,-1,-1,-1,-1,-1,-1,-1,-1,-1,-1,-1,-1,-1,-1,-1,-1,-1,-1,-1,-1,-1,-1,-1,-1,-1,-1,-1,-1,-1,-1,-1,-1,-1,-1,-1,-1,-1,-1,-1,-1,-1,-1,-1,-1,-1,-1,-1,-1,-1,-1,-1,-1,-1,-1,-1,-1,-1,-1,-1,-1,-1,-1,-1,-1,-1,-1,-1,-1,-1,-1,-1,-1,-1,-1,-1,-1,-1,-1,-1,-1,-1,-1,-1,-1,-1,-1,-1,-1,-1,-1,-1,-1,-1,-1,-1,-1,-1,-1,-1,-1,-1,-1,-1,-1,-1,-1,-1,-1,-1,-1,-1,-1,-1,-1,-1,-1,-1,-1,-1,-1,-1,-1,-1,-1],"loss_changes":[5.903097E5,1.1144356E5,4.7391938E5,4.6539562E4,5.274697E4,1.6911956E5,3.8674953E5,3.7454984E4,1.2102094E4,4.6225754E4,1.5259047E4,8.794922E4,2.5194312E4,1.9828938E5,2.4656102E5,4.9108176E4,9.855602E3,2.750479E4,4.4785E3,7.486862E4,1.0228586E4,3.5046328E3,2.7693406E4,1.7461172E4,4.189821E4,2.293364E4,3.7037812E3,8.5130234E4,2.4950403E5,7.592216E4,6.722613E4,2.1210137E4,1.4948336E4,4.392617E3,1.6371988E4,4.9955E3,1.3902832E4,2.2771719E3,2.3903125E3,3.065629E4,3.4727953E4,5.107914E3,1.2335127E4,2.4540386E3,3.8354922E3,1.2916947E4,1.9041188E4,1.072255E4,1.9093156E4,2.743664E3,1.9496797E4,2.2141406E3,1.2958953E4,9.099375E2,3.3151875E3,4.158981E4,2.656446E4,2.2862594E4,1.338884E5,1.5995656E4,1.1032191E5,3.629578E4,1.4226711E5,2.7074453E4,9.420074E3,3.8592188E2,6.6958486E3,2.7711102E2,1.3160469E3,6.762579E3,2.4082188E3,7.5903594E3,2.710125E3,2.9148306E3,5.1476943E3,7.793281E2,3.0302188E3,1.9628418E3,1.2499922E3,5.0814152E4,1.0072184E4,4.044289E3,2.1085305E4,4.8743164E2,4.5042383E3,3.487246E3,4.475982E3,1.2449022E3,8.7498145E2,3.1319873E3,2.5920312E3,6.2945034E3,4.8105615E3,5.9469375E3,8.95976E3,8.011914E2,6.069634E3,2.8376094E3,1.5044406E4,8.3016406E2,1.253333E3,2.10103E4,3.4320617E4,6.306875E2,3.1474414E3,2.2907031E3,6.6603477E3,1.7064062E2,1.3061641E3,3.1720352E3,3.886875E2,3.618404E4,1.1524875E4,5.8918438E3,1.051891E4,9.224281E3,2.0832188E3,1.609546E5,2.879217E5,1.2232547E4,7.023172E3,2.995482E4,5.760525E4,7.3436E4,6.826215E3,3.2854312E4,7.2099016E4,3.280955E3,9.975075E3,1.6057578E3,8.70667E3,1.4181445E2,2.9228857E2,3.6059172E3,4.762959E3,1.5640182E2,8.781754E0,5.190781E2,7.1052734E2,5.506132E3,5.0392285E3,1.8823555E3,6.1997266E2,1.02265625E3,1.9137804E3,3.078336E3,2.2239648E3,1.5076919E3,1.7589108E3,4.58516E3,9.708225E3,4.0960205E2,6.834297E2,1.534649E3,2.2553828E3,5.0634668E2,1.8787302E3,2.1902163E3,8.9447656E2,2.4537217E4,2.199858E4,3.6930742E3,1.0684093E4,1.9037188E3,3.3246064E3,1.7042832E4,9.273629E3,2.3695508E2,8.538068E1,1.8688164E3,5.574787E3,6.758789E2,5.628327E3,2.9588804E3,1.126949E3,3.959502E2,3.494937E2,6.008545E2,2.8876144E2,7.257959E2,9.7679504E2,2.9348242E2,2.4876953E3,7.46375E2,3.5947495E3,3.6701243E3,1.3696729E3,2.7741953E3,4.591367E3,3.975166E3,6.5069736E3,9.116643E2,7.309961E1,1.9736425E3,6.073327E3,1.8427812E3,1.2407935E3,9.783734E3,1.0969086E4,5.8772266E2,4.794069E2,1.1041672E3,7.995664E2,1.2781042E4,1.2775517E4,3.3347266E3,6.214383E3,1.1281094E3,3.9008594E2,3.093963E3,4.1241016E2,1.2580664E2,1.7554727E3,5.5470234E3,1.7284958E3,6.803125E1,2.3038477E2,3.3241797E2,1.3719727E3,2.1399414E2,8.754004E2,5.3464844E1,3.488203E2,1.3044926E4,1.535832E4,1.161977E4,1.059076E4,8.840598E3,2.8055234E3,3.5263516E3,5.9792554E3,3.8530156E3,6.1369795E3,1.8784375E3,1.6442188E2,1.2857189E5,2.7067672E4,5.915722E4,1.7930167E5,9.639844E3,6.960711E3,1.1650703E3,2.0758203E3,8.270684E3,6.847258E3,8.740019E4,1.4731877E5,2.2365477E4,1.35854375E4,2.216711E3,4.27476E3,1.9771355E4,4.092875E3,2.3254594E4,8.852752E4,0E0,0E0,0E0,0E0,0E0,0E0,0E0,0E0,0E0,0E0,0E0,0E0,0E0,0E0,0E0,0E0,0E0,0E0,0E0,0E0,0E0,0E0,0E0,0E0,0E0,0E0,0E0,0E0,0E0,0E0,0E0,0E0,0E0,0E0,0E0,0E0,0E0,0E0,0E0,0E0,0E0,0E0,0E0,0E0,0E0,0E0,0E0,0E0,0E0,0E0,0E0,0E0,0E0,0E0,0E0,0E0,0E0,0E0,0E0,0E0,0E0,0E0,0E0,0E0,0E0,0E0,0E0,0E0,0E0,0E0,0E0,0E0,0E0,0E0,0E0,0E0,0E0,0E0,0E0,0E0,0E0,0E0,0E0,0E0,0E0,0E0,0E0,0E0,0E0,0E0,0E0,0E0,0E0,0E0,0E0,0E0,0E0,0E0,0E0,0E0,0E0,0E0,0E0,0E0,0E0,0E0,0E0,0E0,0E0,0E0,0E0,0E0,0E0,0E0,0E0,0E0,0E0,0E0,0E0,0E0,0E0,0E0,0E0,0E0,0E0,0E0,0E0,0E0,0E0,0E0,0E0,0E0,0E0,0E0,0E0,0E0,0E0,0E0,0E0,0E0,0E0,0E0,0E0,0E0,0E0,0E0,0E0,0E0,0E0,0E0,0E0,0E0,0E0,0E0,0E0,0E0,0E0,0E0,0E0,0E0,0E0,0E0,0E0,0E0,0E0,0E0,0E0,0E0,0E0,0E0,0E0,0E0,0E0,0E0,0E0,0E0,0E0,0E0,0E0,0E0,0E0,0E0,0E0,0E0,0E0,0E0,0E0,0E0,0E0,0E0,0E0,0E0,0E0,0E0,0E0,0E0,0E0,0E0,0E0,0E0,0E0,0E0,0E0,0E0,0E0,0E0,0E0,0E0,0E0,0E0,0E0,0E0,0E0,0E0,0E0,0E0,0E0,0E0,0E0,0E0,0E0,0E0,0E0,0E0,0E0,0E0,0E0,0E0,0E0,0E0,0E0,0E0,0E0,0E0,0E0,0E0,0E0,0E0,0E0,0E0,0E0,0E0,0E0,0E0,0E0,0E0,0E0,0E0,0E0,0E0,0E0,0E0,0E0,0E0,0E0,0E0],"parents":[2147483647,0,0,1,1,2,2,3,3,4,4,5,5,6,6,7,7,8,8,9,9,10,10,11,11,12,12,13,13,14,14,15,15,16,16,17,17,18,18,19,19,20,20,21,21,22,22,23,23,24,24,25,25,26,26,27,27,28,28,29,29,30,30,31,31,32,32,33,33,34,34,35,35,36,36,37,37,38,38,39,39,40,40,41,41,42,42,43,43,44,44,45,45,46,46,47,47,48,48,49,49,50,50,51,51,52,52,53,53,54,54,55,55,56,56,57,57,58,58,59,59,60,60,61,61,62,62,63,63,64,64,65,65,66,66,67,67,68,68,69,69,70,70,71,71,72,72,73,73,74,74,75,75,76,76,77,77,78,78,79,79,80,80,81,81,82,82,83,83,84,84,85,85,86,86,87,87,88,88,89,89,90,90,91,91,92,92,93,93,94,94,95,95,96,96,97,97,98,98,99,99,100,100,101,101,102,102,103,103,104,104,105,105,106,106,107,107,108,108,109,109,110,110,111,111,112,112,113,113,114,114,115,115,116,116,117,117,118,118,119,119,120,120,121,121,122,122,123,123,124,124,125,125,126,126,127,127,128,128,129,129,130,130,131,131,132,132,133,133,134,134,135,135,136,136,137,137,138,138,139,139,140,140,141,141,142,142,143,143,144,144,145,145,146,146,147,147,148,148,149,149,150,150,151,151,152,152,153,153,154,154,155,155,156,156,157,157,158,158,159,159,160,160,161,161,162,162,163,163,164,164,165,165,166,166,167,167,168,168,169,169,170,170,171,171,172,172,173,173,174,174,175,175,176,176,177,177,178,178,179,179,180,180,181,181,182,182,183,183,184,184,185,185,186,186,187,187,188,188,189,189,190,190,191,191,192,192,193,193,194,194,195,195,196,196,197,197,198,198,199,199,200,200,201,201,202,202,203,203,204,204,205,205,206,206,207,207,208,208,209,209,210,210,211,211,212,212,213,213,214,214,215,215,216,216,217,217,218,218,219,219,220,220,221,221,222,222,223,223,224,224,225,225,226,226,227,227,228,228,229,229,230,230,231,231,232,232,233,233,234,234,235,235,236,236,237,237,238,238,239,239,240,240,241,241,242,242,243,243,244,244,245,245,246,246,247,247,248,248,249,249,250,250,251,251,252,252,253,253,254,254],"right_children":[2,4,6,8,10,12,14,16,18,20,22,24,26,28,30,32,34,36,38,40,42,44,46,48,50,52,54,56,58,60,62,64,66,68,70,72,74,76,78,80,82,84,86,88,90,92,94,96,98,100,102,104,106,108,110,112,114,116,118,120,122,124,126,128,130,132,134,136,138,140,142,144,146,148,150,152,154,156,158,160,162,164,166,168,170,172,174,176,178,180,182,184,186,188,190,192,194,196,198,200,202,204,206,208,210,212,214,216,218,220,222,224,226,228,230,232,234,236,238,240,242,244,246,248,250,252,254,256,258,260,262,264,266,268,270,272,274,276,278,280,282,284,286,288,290,292,294,296,298,300,302,304,306,308,310,312,314,316,318,320,322,324,326,328,330,332,334,336,338,340,342,344,346,348,350,352,354,356,358,360,362,364,366,368,370,372,374,376,378,380,382,384,386,388,390,392,394,396,398,400,402,404,406,408,410,412,414,416,418,420,422,424,426,428,430,432,434,436,438,440,442,444,446,448,450,452,454,456,458,460,462,464,466,468,470,472,474,476,478,480,482,484,486,488,490,492,494,496,498,500,502,504,506,508,510,-1,-1,-1,-1,-1,-1,-1,-1,-1,-1,-1,-1,-1,-1,-1,-1,-1,-1,-1,-1,-1,-1,-1,-1,-1,-1,-1,-1,-1,-1,-1,-1,-1,-1,-1,-1,-1,-1,-1,-1,-1,-1,-1,-1,-1,-1,-1,-1,-1,-1,-1,-1,-1,-1,-1,-1,-1,-1,-1,-1,-1,-1,-1,-1,-1,-1,-1,-1,-1,-1,-1,-1,-1,-1,-1,-1,-1,-1,-1,-1,-1,-1,-1,-1,-1,-1,-1,-1,-1,-1,-1,-1,-1,-1,-1,-1,-1,-1,-1,-1,-1,-1,-1,-1,-1,-1,-1,-1,-1,-1,-1,-1,-1,-1,-1,-1,-1,-1,-1,-1,-1,-1,-1,-1,-1,-1,-1,-1,-1,-1,-1,-1,-1,-1,-1,-1,-1,-1,-1,-1,-1,-1,-1,-1,-1,-1,-1,-1,-1,-1,-1,-1,-1,-1,-1,-1,-1,-1,-1,-1,-1,-1,-1,-1,-1,-1,-1,-1,-1,-1,-1,-1,-1,-1,-1,-1,-1,-1,-1,-1,-1,-1,-1,-1,-1,-1,-1,-1,-1,-1,-1,-1,-1,-1,-1,-1,-1,-1,-1,-1,-1,-1,-1,-1,-1,-1,-1,-1,-1,-1,-1,-1,-1,-1,-1,-1,-1,-1,-1,-1,-1,-1,-1,-1,-1,-1,-1,-1,-1,-1,-1,-1,-1,-1,-1,-1,-1,-1,-1,-1,-1,-1,-1,-1,-1,-1,-1,-1,-1,-1,-1,-1,-1,-1,-1,-1],"split_conditions":[6.6E1,1.045E3,3.06E2,1.998E3,2.001E3,7.8E1,2.001E3,2.28E2,2E2,2.62E2,4.6E1,1.999E3,8.8E1,8.1E1,1.554E3,5.4E1,5.6E1,5.2E1,8.05E2,5.6E1,2.6E1,4E0,1.49E2,6E0,1.8E2,2.001E3,2.722E3,3.72E2,3.99E2,8.3E1,1.11E2,1.43E2,1.59E2,5.12E2,2.96E2,9.4E1,1.3E2,5.6E1,2.001E3,1.94E2,1.85E2,2E0,4E0,2.002E3,8.3E1,5.6E1,2.6E1,1.94E2,1.5E1,1.55E2,2.6E1,2.76E2,2.28E2,2.76E2,9.8E1,7.4E1,1.305E3,8.9E1,1.11E2,3.72E2,4.08E2,4.85E2,6.5E2,4E1,4.6E1,1.49E2,5.9E1,2.54E2,9.3E2,2.6E1,3.25E2,4.3E1,4.6E1,9.4E1,2.6E1,5E0,9.4E1,2.6E1,1.8E1,4.6E1,5.1E1,1.55E2,2.5E1,2.12E3,6.1E1,5.6E1,1.999E3,1.557E3,3E0,4E1,3.5E1,8.3E1,1.87E2,2.004E3,4E0,1.75E2,2.01E2,1.998E3,2.58E2,2.8E1,1.68E2,2.28E2,2.7E1,1.13E2,2.95E2,1.8E2,2.846E3,2.007E3,2.41E2,2.47E2,2.54E2,2.6E1,2.6E1,4.31E2,2.6E1,3.72E2,9.6E1,5.51E2,6.78E2,7.7E1,9.38E2,9.2E1,1.58E2,9E1,2.004E3,1.26E2,1.41E2,3.5E1,9.4E1,2.6E1,1.9E2,6E0,1.105E3,1.99E3,6E0,2.4E1,2.82E2,2E1,2.39E2,1.4E1,3.25E2,6.1E1,2.6E1,2.9E2,8.3E1,4E0,1.25E2,1.3E1,5.6E1,5.8E1,2.7E1,1.55E2,1.5E2,1.77E2,3.04E2,2.2E1,5.6E1,5.6E1,5.6E1,1.16E2,1.49E2,1.45E3,2.6E1,1.998E3,2.5E1,4.1E1,2.51E2,6.3E1,1.71E2,1.511E3,3.06E2,1.995E3,2.96E2,6E0,6E0,3.3E1,5E0,5E0,6E0,1.57E2,1.09E2,1.9E1,2.006E3,3.832E3,1.6E1,8.4E1,2.49E2,2.2E1,1.915E3,2.51E2,1.539E3,1.59E2,1.92E2,4.4E1,2.62E2,2.59E2,8E0,2.5E1,2.6E1,1.3E2,1.16E2,1.6E1,2.33E2,1.84E2,7.3E1,2.005E3,2.24E2,1.05E2,2.58E2,2.45E2,2.41E2,2.7E1,1.51E2,2.76E2,6.862E3,1.76E2,6E0,2.007E3,9.7E1,1.74E2,2.24E2,4.86E3,2.56E2,1.99E3,3.37E2,1.99E3,3.67E2,7.6E1,9.4E2,2E0,4E0,8.4E1,2.6E1,3.73E2,1E2,9.8E1,6.41E2,1.24E2,1.41E2,2.6E1,2.6E1,7.6E1,2.6E1,3.7E2,2.846E3,8.19E2,9.98E2,2.6E1,4.08E2,5.85E2,1.72E3,5.69E2,1.38E2,7.84E2,8.95E2,-2.1557172E-1,-8.582107E-2,4.046837E-1,6.737835E-2,-2.6065922E-1,-3.740884E-1,-2.037801E-2,-2.092521E-1,3.7741432E-1,4.664004E-1,3.7667045E-1,1.7188585E-1,1.9180426E-1,-3.0696522E-2,5.636857E-3,2.3327099E-1,-3.1068146E-1,1.4211743E-1,-1.5489031E-1,-4.6488615E-3,-1.5725759E-1,-3.3405757E-1,-1.8182361E-1,-2.7707306E-1,-2.3267627E-2,-1.7202444E-1,3.5817423E-1,-3.7938158E-3,-2.6331294E-1,-1.4715075E-1,-1.8063697E-1,-2.968062E-1,-2.5823092E-1,-9.728634E-2,1.8695202E-1,-6.0677584E-2,-1.5113121E-1,-3.313826E-1,6.7655884E-2,-2.4110308E-1,-1.0256851E-1,4.0740782E-1,-1.9190846E-2,1.6722585E-1,-2.1908371E-1,-7.833789E-2,2.4076156E-1,-2.1948726E-1,-1.7050354E-1,-3.4614092E-1,8.5903004E-2,-3.6653167E-1,4.1098297E-2,-2.912725E-1,-2.593989E-1,-3.5076922E-1,-1.1611508E-1,-2.5099406E-1,-2.0986603E-1,-4.5765694E-2,-2.5718796E-1,1.2231477E-1,-2.9932836E-1,-2.4099381E-1,-7.126765E-3,-1.468426E-1,2.1502696E-1,2.7607717E-2,-2.4066146E-1,-1.4552395E-1,-1.2563242E-1,2.21E-2,4.6439996E-1,2.8353137E-1,1.7443573E-1,4.384014E-1,2.404465E-1,-1.1941235E-2,2.1857077E-1,5.1101398E-2,-3.77162E-1,-2.9637185E-1,-1.352654E-1,-2.4832366E-1,-2.404788E-1,-1.5814558E-1,-5.016264E-2,-1.6128995E-1,-2.9244965E-1,-1.9671774E-1,1.17125414E-1,-1.4070477E-1,1.6787527E-2,-8.470611E-2,1.6736668E-1,4.191325E-2,4.237807E-2,2.7262872E-1,-1.3460454E-1,5.978067E-2,-2.445168E-1,-1.0239174E-1,-1.18199445E-1,2.105362E-2,-2.1725093E-1,-1.2403815E-1,-8.740186E-2,1.02469854E-1,-3.2954478E-1,-2.1518196E-1,-2.2952166E-1,-1.5037155E-1,1.3641706E-1,3.3762804E-1,-1.0984792E-1,6.930598E-3,2.7316135E-1,3.941542E-2,4.322238E-1,2.2838855E-1,-8.0618925E-2,-2.1226074E-1,-1.5304083E-1,-6.657305E-2,-6.604283E-2,-1.6086413E-1,-8.573357E-2,2.2867726E-2,4.7913575E-1,1.4763281E-1,4.997593E-1,4.09099E-1,-2.4176605E-1,-1.852775E-2,2.0290394E-1,1.7503101E-2,4.428644E-1,3.491942E-1,1.7187938E-1,4.298562E-1,2.1825819E-1,4.0191594E-1,1.1038662E-1,4.442529E-1,4.3356937E-1,3.4253573E-1,4.977269E-1,8.6156234E-2,9.459326E-2,2.7277032E-1,3.8644376E-1,2.0269844E-1,3.387297E-2,2.4053133E-1,-9.710189E-2,3.2774314E-2,3.788496E-1,2.2682862E-1,1.0370468E-1,-1.4222133E-1,4.073054E-1,2.7836284E-1,4.5407912E-1,3.8938615E-1,3.402793E-1,1.187926E-1,3.9841717E-1,5.1927525E-1,4.674668E-1,3.8229367E-1,2.4542528E-1,3.7095806E-1,3.0062482E-1,1.2279348E-1,9.187591E-2,-8.221985E-2,4.583322E-1,4.7654065E-1,3.7204832E-1,4.5606002E-1,4.5876992E-1,3.6204547E-1,2.4995422E-1,4.3972537E-1,3.771282E-1,4.5529005E-1,1.8149136E-1,3.1725812E-1,4.8097056E-1,4.4371948E-1,-1.3885142E-1,3.99578E-1,5.6102123E-2,-1.15093574E-1,3.0011582E-1,3.7808653E-2,2.558577E-1,5.4218333E-2,4.2809457E-1,9.3232125E-2,-2.4387625E-1,-1.03123255E-1,-3.2560718E-1,-2.2098234E-1,-2.5146112E-1,-1.0914136E-1,-8.480977E-2,7.373988E-2,2.4936119E-1,3.4449193E-1,1.2515894E-1,5.1969963E-1,4.1551486E-1,3.0220732E-1,4.4169053E-1,4.7599533E-1,7.2035408E-3,2.3005322E-1,-6.796872E-2,-1.8146059E-1,2.1424085E-1,4.1531685E-1,-4.2082362E-2,9.262778E-2,-2.4798808E-1,-1.10702045E-1,-1.0481981E-1,9.485283E-2,-3.5955048E-1,-2.9243103E-1,-2.4241516E-1,-1.6731897E-1,1.1756412E-1,-3.5154887E-2,3.2598048E-1,1.5705556E-1,-8.594457E-2,-2.3248103E-1,2.275239E-1,-8.0093734E-2,-9.6966766E-2,2.6817651E-2,2.5278932E-1,9.263655E-2,-1.203835E-1,-1.9017383E-1,-1.1694298E-1,-4.7498237E-2,2.963336E-1,9.617135E-2,3.332161E-1,4.5844463E-1,-1.6892137E-2,-1.4872958E-1,2.3903309E-1,2.3046238E-2],"split_indices":[0,2,6,12,12,0,12,6,6,6,0,12,0,0,1,0,0,0,2,0,11,11,6,11,6,12,8,6,6,0,0,6,6,1,6,6,6,0,12,6,6,11,4,12,6,0,11,6,11,6,11,6,6,6,0,0,2,0,0,6,6,6,6,0,0,6,0,5,1,11,6,0,0,6,11,11,8,11,8,0,0,6,11,1,0,0,12,1,11,0,0,6,10,12,4,6,6,12,6,11,6,6,11,5,6,6,8,12,5,6,6,11,11,6,11,6,0,6,6,0,2,0,0,0,12,0,0,0,6,11,6,11,1,12,11,1,5,5,6,11,8,0,5,5,6,11,8,10,0,0,11,8,2,10,6,10,0,0,0,6,6,2,11,12,11,10,6,0,10,2,6,12,6,4,4,0,4,4,9,5,5,11,12,8,11,5,10,10,2,6,2,6,6,10,6,6,11,11,11,6,6,11,5,5,0,12,6,5,6,5,5,11,5,6,8,5,11,12,0,5,10,8,6,12,6,12,6,0,2,11,4,0,11,6,0,0,6,0,0,11,11,0,11,6,8,6,6,11,6,6,2,6,0,6,6,0,0,0,0,0,0,0,0,0,0,0,0,0,0,0,0,0,0,0,0,0,0,0,0,0,0,0,0,0,0,0,0,0,0,0,0,0,0,0,0,0,0,0,0,0,0,0,0,0,0,0,0,0,0,0,0,0,0,0,0,0,0,0,0,0,0,0,0,0,0,0,0,0,0,0,0,0,0,0,0,0,0,0,0,0,0,0,0,0,0,0,0,0,0,0,0,0,0,0,0,0,0,0,0,0,0,0,0,0,0,0,0,0,0,0,0,0,0,0,0,0,0,0,0,0,0,0,0,0,0,0,0,0,0,0,0,0,0,0,0,0,0,0,0,0,0,0,0,0,0,0,0,0,0,0,0,0,0,0,0,0,0,0,0,0,0,0,0,0,0,0,0,0,0,0,0,0,0,0,0,0,0,0,0,0,0,0,0,0,0,0,0,0,0,0,0,0,0,0,0,0,0,0,0,0,0,0,0,0,0,0,0,0,0,0,0,0,0,0,0,0,0,0,0,0,0,0,0,0,0,0,0,0,0,0,0,0,0,0,0,0,0,0,0,0,0,0,0,0,0,0,0,0,0,0,0],"split_type":[0,0,0,0,0,0,0,0,0,0,0,0,0,0,0,0,0,0,0,0,0,0,0,0,0,0,0,0,0,0,0,0,0,0,0,0,0,0,0,0,0,0,0,0,0,0,0,0,0,0,0,0,0,0,0,0,0,0,0,0,0,0,0,0,0,0,0,0,0,0,0,0,0,0,0,0,0,0,0,0,0,0,0,0,0,0,0,0,0,0,0,0,0,0,0,0,0,0,0,0,0,0,0,0,0,0,0,0,0,0,0,0,0,0,0,0,0,0,0,0,0,0,0,0,0,0,0,0,0,0,0,0,0,0,0,0,0,0,0,0,0,0,0,0,0,0,0,0,0,0,0,0,0,0,0,0,0,0,0,0,0,0,0,0,0,0,0,0,0,0,0,0,0,0,0,0,0,0,0,0,0,0,0,0,0,0,0,0,0,0,0,0,0,0,0,0,0,0,0,0,0,0,0,0,0,0,0,0,0,0,0,0,0,0,0,0,0,0,0,0,0,0,0,0,0,0,0,0,0,0,0,0,0,0,0,0,0,0,0,0,0,0,0,0,0,0,0,0,0,0,0,0,0,0,0,0,0,0,0,0,0,0,0,0,0,0,0,0,0,0,0,0,0,0,0,0,0,0,0,0,0,0,0,0,0,0,0,0,0,0,0,0,0,0,0,0,0,0,0,0,0,0,0,0,0,0,0,0,0,0,0,0,0,0,0,0,0,0,0,0,0,0,0,0,0,0,0,0,0,0,0,0,0,0,0,0,0,0,0,0,0,0,0,0,0,0,0,0,0,0,0,0,0,0,0,0,0,0,0,0,0,0,0,0,0,0,0,0,0,0,0,0,0,0,0,0,0,0,0,0,0,0,0,0,0,0,0,0,0,0,0,0,0,0,0,0,0,0,0,0,0,0,0,0,0,0,0,0,0,0,0,0,0,0,0,0,0,0,0,0,0,0,0,0,0,0,0,0,0,0,0,0,0,0,0,0,0,0,0,0,0,0,0,0,0,0,0,0,0,0,0,0,0,0,0,0,0,0,0,0,0,0,0,0,0,0,0,0,0,0,0,0,0,0,0,0,0,0,0,0,0,0,0,0,0,0,0,0,0,0,0,0,0,0,0,0,0,0,0,0,0,0,0,0,0,0,0,0,0,0,0],"sum_hessian":[2.2665126E7,4.608845E6,1.805628E7,1.3594878E6,3.249357E6,1.4698134E6,1.6586467E7,6.776338E5,6.8185394E5,2.0142262E6,1.2351309E6,9.8632056E5,4.8349278E5,9.038385E6,7.548082E6,3.8010053E5,2.975333E5,3.2106097E5,3.6079297E5,1.4995612E6,5.14665E5,2.4002133E5,9.951095E5,4.0004822E5,5.862724E5,2.8659594E5,1.9689686E5,1.2941264E6,7.744259E6,3.913662E6,3.63442E6,2.767232E5,1.0337734E5,8.188038E4,2.1565292E5,1.9775636E5,1.2330462E5,1.7718684E5,1.8360611E5,1.062728E6,4.3683322E5,2.8324297E5,2.3142203E5,2.318794E4,2.1683339E5,1.4697786E5,8.481316E5,8.903092E4,3.110173E5,4.9861664E4,5.364107E5,1.1678722E5,1.698087E5,1.3302134E5,6.3875516E4,7.3155456E5,5.625718E5,3.35535E5,7.408724E6,5.1497616E5,3.3986858E6,1.2604044E6,2.3740155E6,1.3051547E5,1.462077E5,1.3926249E4,8.945109E4,2.780866E3,7.9099516E4,1.10113875E5,1.0553905E5,4.1668766E4,1.560876E5,2.330985E4,9.999477E4,4.8646684E4,1.2854017E5,4.9230395E4,1.3437572E5,6.987015E5,3.640265E5,4.8872555E4,3.879607E5,1.5681166E4,2.675618E5,1.0217273E5,1.29249305E5,6.7456943E3,1.6442244E4,4.2151582E4,1.746818E5,1.0228645E5,4.4691414E4,4.8465472E5,3.634769E5,8.907233E3,8.012369E4,8.578546E4,2.2523184E5,2.797307E4,2.1888594E4,4.4272003E5,9.3690664E4,7.650746E4,4.0279754E4,5.2157832E4,1.17650875E5,9.2096734E4,4.0924605E4,3.4719535E4,2.9155979E4,4.436754E5,2.8787916E5,2.5560614E5,3.0696566E5,2.0671386E5,1.28821125E5,2.0938896E6,5.314834E6,2.745425E5,2.4043366E5,2.194453E5,3.1792405E6,7.743467E5,4.8605772E5,2.8350756E5,2.090508E6,7.0384086E4,6.013139E4,5.3362332E4,9.2845375E4,9.843991E3,4.0822573E3,4.8198156E4,4.1252938E4,2.3791238E3,4.0174228E2,4.4533457E4,3.456606E4,9.22503E4,1.786358E4,5.1408086E4,5.413096E4,3.0331244E4,1.133752E4,8.5305984E4,7.07816E4,4.868573E3,1.8441275E4,8.3330625E4,1.6664146E4,5.0387314E3,4.360795E4,5.819326E3,1.2272084E5,2.344828E4,2.5782113E4,5.8054307E3,1.2857029E5,4.52854E5,2.4584747E5,1.6203023E5,2.0199625E5,2.6121404E4,2.2751148E4,2.5487223E5,1.3308845E5,1.326291E4,2.4182554E3,1.0356011E5,1.640017E5,2.7452041E4,7.472068E4,1.0344394E5,2.5805371E4,3.3755198E3,3.3701746E3,1.0924994E4,5.5172505E3,3.1807885E4,1.0343698E4,1.9768555E4,1.5491325E5,6.679312E3,9.560714E4,3.2657621E4,1.2033792E4,1.821145E5,3.0254022E5,1.6199761E5,2.0147931E5,3.028217E3,5.8790166E3,1.6365398E4,6.375829E4,7.5880555E4,9.904902E3,1.0813044E5,1.1710141E5,2.629412E4,1.6789508E3,1.30097705E4,8.878824E3,1.3949252E5,3.032275E5,5.1994293E4,4.169637E4,3.6536676E4,3.9970785E4,2.3590223E4,1.6689531E4,1.0915815E4,4.1242016E4,6.3346176E4,5.43047E4,7.840384E4,1.369289E4,2.695349E4,1.3971115E4,1.3721712E4,2.0997824E4,1.4776825E4,1.4379153E4,3.472363E5,9.643909E4,2.538692E5,3.4009953E4,1.629438E5,9.266234E4,2.202743E5,8.669137E4,1.534543E5,5.3259562E4,7.1342984E4,5.747814E4,1.2096188E6,8.842709E5,6.113267E5,4.7035075E6,1.9095589E5,8.358662E4,1.0281008E5,1.3762358E5,1.28260484E5,9.118482E4,1.9688502E6,1.2103902E6,5.774814E5,1.9686527E5,1.6404247E5,3.2201525E5,1.8828186E5,9.52257E4,4.8166738E5,1.6088406E6,3.7165848E4,3.3218234E4,9.341131E3,5.0790258E4,3.7272125E4,1.6090208E4,3.5669547E4,5.7175832E4,2.0730322E3,7.7709595E3,3.3049402E3,7.77317E2,7.8250093E3,4.0373145E4,1.1451405E4,2.9801531E4,6.9843735E1,2.30928E3,3.6293103E2,3.8811268E1,1.5510908E3,4.2982367E4,9.877232E3,2.4688824E4,3.8273047E4,5.3977246E4,4.694853E3,1.3168728E4,2.1811531E4,2.9596555E4,4.516695E3,4.9614266E4,2.6219172E4,4.1120737E3,5.125979E3,6.2115405E3,9.612396E3,7.5693586E4,2.1654463E3,6.861616E4,5.938489E2,4.274724E3,8.210579E3,1.0230697E4,4.1814043E4,4.1516582E4,9.166604E3,7.4975435E3,3.0843625E3,1.9543688E3,3.0223883E2,4.330571E4,4.0021316E3,1.8171946E3,8.929212E4,3.3428727E4,2.8547678E3,2.0593512E4,1.0818615E4,1.4963499E4,3.597392E3,2.2080386E3,3.1290844E4,9.7279445E4,2.3259548E5,2.2025852E5,8.7523914E4,1.5832355E5,5.6258418E4,1.05771805E5,1.3706822E5,6.492803E4,1.8861691E4,7.2597134E3,1.7005816E4,5.745333E3,2.692259E4,2.2794964E5,8.816541E4,4.4923043E4,7.2740776E3,5.988833E3,1.1612399E3,1.2570155E3,4.1237098E4,6.232301E4,7.419452E4,8.980717E4,1.1268206E4,1.6183835E4,8.611952E3,6.610873E4,5.271255E4,5.0731387E4,1.3319429E4,1.2485941E4,9.2694617E2,2.4485735E3,1.8735892E3,1.4965852E3,6.223118E3,4.7018765E3,2.2915046E3,3.2257458E3,1.219923E4,1.9608654E4,3.9349302E3,6.408768E3,1.7476363E4,2.2921907E3,9.8956516E4,5.595673E4,3.0856194E3,3.5936926E3,5.193121E4,4.3675926E4,8.0094346E3,2.4648186E4,5.3263613E3,6.707431E3,1.5775641E4,1.6633886E5,2.2976372E5,7.27765E4,7.029506E4,9.170255E4,8.872397E4,1.1275534E5,1.3388098E3,1.6894072E3,4.881518E3,9.974985E2,5.2446655E3,1.1120732E4,3.343377E4,3.032452E4,3.9893824E4,3.5986734E4,7.764143E3,2.1407595E3,6.4067844E4,4.406259E4,1.0745001E5,9.651395E3,1.100987E4,1.5284249E4,3.1224805E2,1.3667028E3,7.7640835E3,5.245687E3,5.3128975E3,3.5659265E3,1.03025266E5,3.6467258E4,1.9975233E5,1.0347518E5,2.6659459E4,2.5334834E4,1.3842912E4,2.7853457E4,2.8771855E4,7.76482E3,2.788087E4,1.2089917E4,1.4075988E4,9.514235E3,1.354422E4,3.145311E3,8.986551E3,1.9292655E3,2.4016064E4,1.7225953E4,3.343612E4,2.9910053E4,4.856641E4,5.7382905E3,4.5298574E4,3.3105273E4,4.337007E3,9.355884E3,2.3217418E4,3.736072E3,7.912746E3,6.0583696E3,8.718675E3,5.003037E3,1.5019295E4,5.97853E3,8.414903E3,6.3619224E3,1.08665054E2,1.4270488E4,4.6207223E4,3.010291E5,2.8527844E4,6.791125E4,2.9043E4,2.248262E5,1.72672E4,1.6742754E4,9.113781E4,7.180599E4,4.9256242E4,4.34061E4,1.697722E4,2.0329708E5,3.8541906E4,4.814946E4,7.437038E4,7.908392E4,4.9437793E4,3.8217708E3,5.389835E4,1.7444633E4,1.9113736E4,3.8364406E4,8.945475E5,3.150712E5,6.1018325E5,2.7408762E5,4.193641E5,1.9196258E5,1.1906635E6,3.512844E6,1.1352476E5,7.7431125E4,6.2609895E4,2.0976723E4,3.5678703E4,6.7131375E4,8.203429E4,5.5589285E4,5.973878E4,6.85217E4,5.6046047E4,3.5138773E4,1.4822795E6,4.8657066E5,1.617194E5,1.0486709E6,3.7539503E5,2.0208636E5,8.098912E4,1.1587616E5,8.477188E4,7.9270586E4,1.4571347E5,1.763018E5,7.177522E4,1.1650664E5,5.3031152E4,4.2194547E4,2.3947423E5,2.4219316E5,1.9424255E5,1.414598E6],"tree_param":{"num_deleted":"0","num_feature":"13","num_nodes":"511","size_leaf_vector":"1"}},{"base_weights":[-1.559349E-4,-2.0756213E-1,7.63264E-2,-3.7025366E-2,-3.2813704E-1,-1.4110348E-1,1.5312539E-1,-2.4228743E-1,5.3694632E-2,-5.481646E-1,-2.603078E-1,2.1154681E-1,-1.737853E-1,5.8062184E-1,1.05243236E-1,-1.5507841E-1,-6.5676844E-1,6.1582255E-1,-8.832023E-3,-4.3916425E-1,-7.1938217E-1,3.477206E-1,-3.091562E-1,3.3832675E-1,-1.3168621E-1,-3.2630634E-1,-1.1354072E-1,4.0135518E-1,9.800006E-1,-9.556187E-2,1.7451155E-1,-3.3498922E-1,1.7751531E-1,2.783705E-1,-6.781506E-1,3.8228938E-1,1.0124358E0,-5.075025E-1,4.339988E-2,-5.908675E-1,-8.636395E-2,-8.321241E-1,-6.1459947E-1,8.0472864E-2,7.689309E-1,-3.6553463E-1,2.3692686E-2,2.081298E-1,8.1887156E-1,-4.8996282E-1,-2.4633075E-3,-1.6285346E-1,-4.182016E-1,2.4232718E-1,-1.9883558E-1,5.7872564E-1,2.1264975E-1,1.0814496E0,6.907103E-1,3.1170804E-2,-3.3150253E-1,7.337217E-1,1.192449E-1,-1.4355469E-1,-6.01774E-1,5.105193E-1,-3.8612247E-2,-7.3051596E-1,4.5859E-1,-1.1945036E-1,-7.132902E-1,8.51076E-1,1.2268395E-1,1.216502E0,7.622369E-1,-3.9430225E-1,-1.0166256E0,8.4556E-1,8.587989E-3,-4.2568347E-1,-6.8307865E-1,6.270795E-1,-1.6441225E-1,-7.679064E-1,-1.0411041E0,-5.3791606E-1,-7.344634E-1,4.3899715E-1,-1.1500801E-1,1.1666925E0,6.193309E-1,-3.3252624E-1,-8.962099E-1,7.548784E-1,-1.7121254E-1,3.322617E-1,-1.1728973E-1,2.3907189E-1,9.474584E-1,-6.0808784E-1,-2.9615763E-1,2.3753445E-1,-3.835296E-1,-4.8041835E-1,8.9598E-2,-5.6613284E-1,-3.086138E-1,4.600876E-1,-4.990485E-3,-3.2152295E-1,-1.0867977E-1,8.148118E-1,3.773632E-1,6.654704E-1,9.9183306E-2,9.596495E-1,1.2799568E0,5.660176E-1,1.1660793E0,-1.5039214E-1,3.3894932E-1,-4.2385444E-1,-2.1776994E-1,5.6771344E-1,1.1347681E0,-1.9642963E-1,1.6704328E-1,-3.732264E-1,2.1540384E-1,2.3441747E-1,-6.285903E-1,6.412023E-2,6.682958E-1,-2.6482317E-1,2.3953499E-1,-8.32966E-1,-4.030282E-1,9.624997E-2,8.870973E-1,-6.3816774E-1,5.5578556E-2,-6.578965E-1,-1.0145537E0,6.361595E-1,1.0287752E0,5.150756E-1,-1.7595049E-2,1.0880703E0,1.3248721E0,4.1474962E-1,1.1357218E0,-5.603567E-1,-8.427452E-2,-8.209684E-1,-1.0646911E0,6.253384E-1,1.2705077E0,-2.8823167E-1,8.8787936E-2,-6.408402E-1,3.444299E-2,-7.8738594E-1,-5.2809787E-1,1.0442588E0,4.4048098E-1,-2.3127294E-1,1.7713755E-1,-8.927568E-1,-6.567738E-1,-1.1962936E-3,-1.0703306E0,-7.9232913E-1,-4.5179784E-1,-7.0153314E-1,-9.280284E-1,9.352095E-1,3.325345E-1,-2.3939867E-1,4.50798E-1,1.0184157E0,1.296305E0,4.078355E-1,9.514519E-1,-3.8239864E-1,3.2784545E-1,-1.2078079E0,-7.2980046E-1,4.966193E-1,1.4461846E0,-3.6681363E-1,3.313046E-1,-1.2139709E-1,4.9556583E-1,-4.8228285E-1,3.986007E-2,1.0367903E0,4.485105E-2,1.3980136E0,8.7027365E-1,-4.5882457E-1,-7.000747E-1,-5.1385456E-1,-1.0506712E-1,-4.406046E-1,4.017185E-1,1.6485742E-1,-5.186731E-1,-2.3146357E-1,-6.236433E-1,4.4610298E-1,-1.8423423E-1,-2.7930665E-1,-5.9998727E-1,-4.0755177E-1,-1.3359742E-1,3.8197815E-1,1.1560013E0,4.0544167E-1,-1.0825229E-1,-4.5681506E-1,-2.3290157E-1,-2.7968466E-1,-3.735392E-2,1.2411947E0,7.731299E-1,2.9705167E-1,1.3153505E0,1.1913015E0,5.808308E-1,5.440498E-4,4.48095E-1,1.0841694E0,7.999814E-1,1.1867728E0,1.3363832E0,1.0013618E0,4.157508E-1,8.3439064E-1,1.2445899E0,-2.3911797E-1,1.0450619E-1,6.221259E-1,1.5799119E-1,-2.6929414E-1,-5.034072E-1,-5.6334245E-1,-1.8930383E-1,1.0119079E0,4.0202105E-1,9.9011904E-1,1.280992E0,-6.93114E-2,-4.5454592E-1,5.433845E-1,9.6761174E-2,-2.4840947E-2,-1.7999999E-1,2.8401896E-1,-4.56218E-3,-2.6821876E-1,1.344065E-1,-2.330301E-1,-1.4311306E-1,-6.887573E-2,1.888742E-1,2.9670882E-1,1.6235057E-1,-3.054164E-1,-6.295553E-2,1.7157158E-1,3.4109842E-2,-3.6890385E-1,-2.1478726E-1,1.0806729E-1,-1.6375904E-1,2.3343371E-1,-2.8396096E-2,3.478236E-1,7.081058E-2,-3.160369E-1,-1.4136308E-1,1.534716E-1,-1.0570726E-1,-2.3569392E-1,-1.5251094E-1,-2.8540418E-1,-3.4582973E-1,4.0977314E-1,1.7144202E-1,3.6926648E-1,2.6843205E-1,9.9363826E-2,3.2595766E-1,-2.639939E-1,2.1899201E-2,3.7041324E-1,2.7856255E-1,3.9859873E-1,-2.3595436E-1,2.7659607E-1,-4.7807958E-2,3.8624772E-1,2.296858E-1,-2.8193876E-1,-1.4361861E-1,1.35065E-1,-4.8430968E-2,-2.866474E-1,-6.538783E-2,-3.6353964E-1,-3.000173E-1,3.6571676E-1,1.6462532E-1,3.1631303E-1,4.0854856E-1,-2.7710577E-2,-2.1604188E-1,1.652769E-1,-1.0315886E-3,-2.6166248E-1,-1.6202998E-1,3.5371006E-1,-9.434558E-3,-2.759468E-1,-2.0836829E-1,-1.9503465E-1,-4.9292512E-2,4.3682602E-1,2.7758554E-1,2.879929E-1,7.497688E-2,-1.1199168E-1,-4.5785825E-3,1.7066073E-1,-9.975849E-2,-2.965217E-1,-2.4916692E-1,-2.211139E-1,-1.3386205E-1,-1.0791499E-1,1.9471319E-1,-1.944684E-1,-3.2496595E-1,-2.9612437E-1,-2.1980013E-1,-1.7216864E-1,-7.396372E-2,-2.3543262E-1,-1.8986806E-1,-3.0305627E-1,-2.5557777E-1,3.6528897E-1,2.160174E-1,1.5352681E-1,1.2466571E-2,-1.236736E-1,-2.5181351E-2,3.551535E-1,-1.4732257E-1,3.177784E-1,-8.817353E-3,3.9712223E-1,2.5777E-1,2.4523254E-1,9.622136E-2,3.634782E-1,1.740058E-1,-9.841719E-2,-2.3208183E-1,2.7820012E-1,-6.2004395E-2,-3.713286E-1,-8.1196606E-2,-9.883083E-2,-2.9727066E-1,3.7410876E-1,3.472155E-2,3.2978785E-1,5.267883E-1,-1.5355022E-2,-1.9709608E-1,4.738839E-2,3.6051634E-1,-1.7179382E-1,1.109268E-3,3.015043E-1,9.4682105E-2,-2.0084849E-1,-1.1272901E-1,1.7696078E-1,-2.8924098E-2,4.2166933E-1,6.021862E-2,8.7724224E-2,-8.046948E-2,4.8990363E-1,3.414957E-1,3.6174837E-1,2.2572976E-1,-7.35585E-2,-1.8168737E-1,-2.7487773E-1,-1.914198E-1,-2.5586048E-1,-1.4142886E-1,-8.774408E-2,8.323233E-2,-8.911643E-2,-2.4883687E-1,2.5593176E-1,8.95011E-2,9.2405945E-2,-7.1439505E-2,-2.5868252E-1,-1.4132471E-1,-2.4558094E-1,-4.328923E-2,-1.1012593E-1,-2.0456727E-1,2.7475628E-1,4.4391252E-2,4.4759843E-2,-8.1289485E-2,6.654265E-2,-1.3724744E-1,-2.3685838E-1,-1.6728275E-1,-1.449506E-1,-6.922774E-2,-1.2209044E-1,2.7858108E-2,2.3555408E-1,5.6445338E-2,4.561446E-1,2.2187673E-1,4.339651E-2,2.2392222E-1,-8.736611E-2,3.96261E-2,-3.2255724E-2,-1.5433353E-1,8.7982565E-3,-1.0670385E-1,-6.38777E-2,-1.4860654E-1,1.9814834E-2,-6.0939953E-2,3.0291396E-1,3.9777923E-1,1.7991279E-1,2.64527E-1,1.7423132E-1,4.1902617E-2,4.3284747E-1,2.756087E-1,3.1818938E-1,3.8232407E-1,1.4635886E-1,2.867156E-1,3.775633E-2,-6.002341E-2,2.4438164E-1,-3.7445344E-2,3.707434E-1,2.839009E-1,-1.8058011E-3,2.8070578E-1,3.8275164E-1,3.253286E-1,4.025521E-1,1.5118015E-1,4.031368E-1,2.753419E-1,-5.1896334E-2,1.5138009E-1,3.4900445E-1,5.648132E-2,3.3826366E-1,3.9893186E-1,-2.5305798E-2,-1.1990935E-1,5.902642E-2,-2.2887358E-1,2.2949882E-1,1.1116805E-1,-2.3397371E-2,1.1957334E-1,-1.534269E-1,-4.256882E-4,-1.2738901E-1,-1.8603653E-1,-2.3237619E-1,-1.17528036E-1,-9.615378E-2,-3.548547E-2,3.3370578E-1,1.9823496E-1,3.5795275E-2,1.9585209E-1,2.4625553E-1,3.556003E-1,4.1430572E-1,3.6242104E-1,2.5766425E-2,-7.6076865E-2,-1.7869328E-1,-8.586817E-2,9.811568E-2,3.0555668E-1,-4.3953985E-2,6.414749E-2],"categories":[],"categories_nodes":[],"categories_segments":[],"categories_sizes":[],"default_left":[0,0,0,0,0,0,0,0,0,0,0,0,0,0,0,0,0,0,0,0,0,0,0,0,0,0,0,0,0,0,0,0,0,0,0,0,0,0,0,0,0,0,0,0,0,0,0,0,0,0,0,0,0,0,0,0,0,0,0,0,0,0,0,0,0,0,0,0,0,0,0,0,0,0,0,0,0,0,0,0,0,0,0,0,0,0,0,0,0,0,0,0,0,0,0,0,0,0,0,0,0,0,0,0,0,0,0,0,0,0,0,0,0,0,0,0,0,0,0,0,0,0,0,0,0,0,0,0,0,0,0,0,0,0,0,0,0,0,0,0,0,0,0,0,0,0,0,0,0,0,0,0,0,0,0,0,0,0,0,0,0,0,0,0,0,0,0,0,0,0,0,0,0,0,0,0,0,0,0,0,0,0,0,0,0,0,0,0,0,0,0,0,0,0,0,0,0,0,0,0,0,0,0,0,0,0,0,0,0,0,0,0,0,0,0,0,0,0,0,0,0,0,0,0,0,0,0,0,0,0,0,0,0,0,0,0,0,0,0,0,0,0,0,0,0,0,0,0,0,0,0,0,0,0,0,0,0,0,0,0,0,0,0,0,0,0,0,0,0,0,0,0,0,0,0,0,0,0,0,0,0,0,0,0,0,0,0,0,0,0,0,0,0,0,0,0,0,0,0,0,0,0,0,0,0,0,0,0,0,0,0,0,0,0,0,0,0,0,0,0,0,0,0,0,0,0,0,0,0,0,0,0,0,0,0,0,0,0,0,0,0,0,0,0,0,0,0,0,0,0,0,0,0,0,0,0,0,0,0,0,0,0,0,0,0,0,0,0,0,0,0,0,0,0,0,0,0,0,0,0,0,0,0,0,0,0,0,0,0,0,0,0,0,0,0,0,0,0,0,0,0,0,0,0,0,0,0,0,0,0,0,0,0,0,0,0,0,0,0,0,0,0,0,0,0,0,0,0,0,0,0,0,0,0,0,0,0,0,0,0,0,0,0,0,0,0,0,0,0,0,0,0,0,0,0,0,0,0,0,0,0,0,0,0,0,0,0,0,0,0,0,0,0,0,0,0,0,0,0,0,0,0,0,0,0,0,0,0,0,0,0,0,0,0,0,0,0,0,0,0,0,0,0,0,0,0,0,0,0,0,0],"id":2,"left_children":[1,3,5,7,9,11,13,15,17,19,21,23,25,27,29,31,33,35,37,39,41,43,45,47,49,51,53,55,57,59,61,63,65,67,69,71,73,75,77,79,81,83,85,87,89,91,93,95,97,99,101,103,105,107,109,111,113,115,117,119,121,123,125,127,129,131,133,135,137,139,141,143,145,147,149,151,153,155,157,159,161,163,165,167,169,171,173,175,177,179,181,183,185,187,189,191,193,195,197,199,201,203,205,207,209,211,213,215,217,219,221,223,225,227,229,231,233,235,237,239,241,243,245,247,249,251,253,255,257,259,261,263,265,267,269,271,273,275,277,279,281,283,285,287,289,291,293,295,297,299,301,303,305,307,309,311,313,315,317,319,321,323,325,327,329,331,333,335,337,339,341,343,345,347,349,351,353,355,357,359,361,363,365,367,369,371,373,375,377,379,381,383,385,387,389,391,393,395,397,399,401,403,405,407,409,411,413,415,417,419,421,423,425,427,429,431,433,435,437,439,441,443,445,447,449,451,453,455,457,459,461,463,465,467,469,471,473,475,477,479,481,483,485,487,489,491,493,495,497,499,501,503,505,507,509,-1,-1,-1,-1,-1,-1,-1,-1,-1,-1,-1,-1,-1,-1,-1,-1,-1,-1,-1,-1,-1,-1,-1,-1,-1,-1,-1,-1,-1,-1,-1,-1,-1,-1,-1,-1,-1,-1,-1,-1,-1,-1,-1,-1,-1,-1,-1,-1,-1,-1,-1,-1,-1,-1,-1,-1,-1,-1,-1,-1,-1,-1,-1,-1,-1,-1,-1,-1,-1,-1,-1,-1,-1,-1,-1,-1,-1,-1,-1,-1,-1,-1,-1,-1,-1,-1,-1,-1,-1,-1,-1,-1,-1,-1,-1,-1,-1,-1,-1,-1,-1,-1,-1,-1,-1,-1,-1,-1,-1,-1,-1,-1,-1,-1,-1,-1,-1,-1,-1,-1,-1,-1,-1,-1,-1,-1,-1,-1,-1,-1,-1,-1,-1,-1,-1,-1,-1,-1,-1,-1,-1,-1,-1,-1,-1,-1,-1,-1,-1,-1,-1,-1,-1,-1,-1,-1,-1,-1,-1,-1,-1,-1,-1,-1,-1,-1,-1,-1,-1,-1,-1,-1,-1,-1,-1,-1,-1,-1,-1,-1,-1,-1,-1,-1,-1,-1,-1,-1,-1,-1,-1,-1,-1,-1,-1,-1,-1,-1,-1,-1,-1,-1,-1,-1,-1,-1,-1,-1,-1,-1,-1,-1,-1,-1,-1,-1,-1,-1,-1,-1,-1,-1,-1,-1,-1,-1,-1,-1,-1,-1,-1,-1,-1,-1,-1,-1,-1,-1,-1,-1,-1,-1,-1,-1,-1,-1,-1,-1,-1,-1,-1,-1,-1,-1,-1,-1],"loss_changes":[3.5333488E5,1.2339336E5,2.717392E5,4.6283504E4,5.2464812E4,4.895517E4,2.4616003E5,2.7536996E4,6.0584055E4,1.54590625E4,7.980884E4,1.56769E4,3.571942E4,8.672175E4,1.5042284E5,3.7661203E4,2.6481055E3,1.5980426E4,4.0402023E4,2.7089E4,3.8059375E3,2.2493424E4,4.667414E4,1.6459979E4,4.4990537E3,1.6533188E4,8.458579E4,2.7982234E4,1.1012469E4,8.293706E4,2.4850512E5,2.08602E4,1.5901685E4,5.387056E2,2.5416797E3,1.3216027E4,3.2637734E3,8.475484E3,3.9208598E4,5.390922E3,8.474855E3,2.0821484E3,1.5346562E3,8.568299E3,4.6149414E3,3.7257156E4,5.134277E4,8.361944E3,4.1810977E3,5.8952637E2,6.531719E3,3.1757492E4,1.1422172E4,2.9016426E4,2.4863867E4,2.0486797E4,2.0812434E4,6.716125E3,5.774668E3,1.0083479E5,1.0180219E4,4.8147406E4,1.1041291E5,1.9605707E4,3.826539E3,6.124625E3,8.430448E3,1.4733795E1,3.9007202E2,6.95694E2,2.032043E3,1.4774941E3,3.847212E3,4.8870312E2,3.7277383E3,6.1940566E3,2.5070117E2,5.4643906E3,3.2033936E4,1.2553344E4,3.6714844E3,1.1678506E3,3.132927E3,1.6467891E3,1.1087539E3,2.2311797E3,4.1465625E2,2.2785957E3,5.568549E3,4.0608984E2,3.959123E3,6.59482E4,6.4574375E3,1.3536328E4,2.7959305E4,1.1101254E4,3.2786033E3,1.5774502E3,1.5951211E3,2.1940869E2,4.0582007E2,4.87921E3,2.0454607E3,6.2554023E3,2.1544375E4,2.911336E3,7.0084844E3,1.557348E4,1.0691718E4,1.14160625E4,1.5804158E4,3.5246094E3,1.7520387E4,3.611582E3,1.1147744E4,3.4225E3,5.538906E2,5.0490605E3,5.2617773E2,2.5667799E4,3.4307914E4,6.5767734E3,4.2725703E3,3.764414E4,4.4768125E3,3.1574113E4,1.6809734E5,9.5511E3,1.5649068E4,1.2787012E3,3.7124492E3,3.7718035E3,2.6192148E3,3.0593745E3,2.5133423E3,1.4957016E1,1.2075993E1,1.7745148E2,2.0382306E2,1.3354492E2,1.0660547E3,1.9650195E3,1.6415234E2,8.262671E2,5.7266406E2,1.9335645E3,4.0225493E3,3.76E2,1.5385547E2,4.334203E3,7.7669336E2,2.4263066E3,1.7308949E3,4.2809644E2,2.0294336E2,1.7484922E3,3.9198828E2,2.4215656E4,4.5154094E4,2.0133633E3,3.0471274E3,1.6683828E3,4.056084E3,2.2587744E2,1.0264852E3,3.5199946E3,4.484324E3,3.318164E2,1.0614961E3,2.3295213E2,1.9234766E2,2.9854785E2,1.9069014E3,3.1767773E2,5.834961E1,4.6212744E2,1.8523044E3,1.7428127E3,9.845859E3,4.2340234E2,1.3446094E2,1.2284316E3,2.1182852E3,3.9579406E4,4.505673E4,1.2168047E3,8.487285E3,1.5777535E4,2.2140234E3,1.8752553E4,1.2024714E4,2.2389548E3,1.0101225E4,3.4281348E2,2.9949082E3,6.143606E2,6.348066E2,4.0775684E2,1.5488379E3,1.9130469E2,1.321211E2,6.519092E1,3.7264484E2,4.7656567E2,1.6460981E3,3.1492825E2,3.6167236E2,3.2790193E3,1.6640078E3,1.3426645E4,3.6096455E3,2.8266746E3,2.1537031E3,3.4566406E3,9.049319E3,2.0131547E4,4.387004E3,4.509073E3,8.863499E3,7.585867E3,1.8522703E4,5.4909375E3,1.5674075E4,3.451328E2,3.4036875E3,9.565932E3,9.2616406E2,1.2084863E2,2.4361562E3,6.348396E3,1.499018E4,2.0207656E3,8.252398E3,3.6189062E2,2.981953E2,5.654414E2,3.0017666E3,8.240249E2,1.6169922E2,2.0922746E4,2.3449266E4,9.381516E3,2.3191371E4,1.1789151E4,3.2466172E3,1.1978066E3,3.7392969E3,4.9000312E3,2.6414516E4,3.5160703E3,7.662656E2,1.8440125E4,7.5411016E3,1.0279625E5,1.525085E5,0E0,0E0,0E0,0E0,0E0,0E0,0E0,0E0,0E0,0E0,0E0,0E0,0E0,0E0,0E0,0E0,0E0,0E0,0E0,0E0,0E0,0E0,0E0,0E0,0E0,0E0,0E0,0E0,0E0,0E0,0E0,0E0,0E0,0E0,0E0,0E0,0E0,0E0,0E0,0E0,0E0,0E0,0E0,0E0,0E0,0E0,0E0,0E0,0E0,0E0,0E0,0E0,0E0,0E0,0E0,0E0,0E0,0E0,0E0,0E0,0E0,0E0,0E0,0E0,0E0,0E0,0E0,0E0,0E0,0E0,0E0,0E0,0E0,0E0,0E0,0E0,0E0,0E0,0E0,0E0,0E0,0E0,0E0,0E0,0E0,0E0,0E0,0E0,0E0,0E0,0E0,0E0,0E0,0E0,0E0,0E0,0E0,0E0,0E0,0E0,0E0,0E0,0E0,0E0,0E0,0E0,0E0,0E0,0E0,0E0,0E0,0E0,0E0,0E0,0E0,0E0,0E0,0E0,0E0,0E0,0E0,0E0,0E0,0E0,0E0,0E0,0E0,0E0,0E0,0E0,0E0,0E0,0E0,0E0,0E0,0E0,0E0,0E0,0E0,0E0,0E0,0E0,0E0,0E0,0E0,0E0,0E0,0E0,0E0,0E0,0E0,0E0,0E0,0E0,0E0,0E0,0E0,0E0,0E0,0E0,0E0,0E0,0E0,0E0,0E0,0E0,0E0,0E0,0E0,0E0,0E0,0E0,0E0,0E0,0E0,0E0,0E0,0E0,0E0,0E0,0E0,0E0,0E0,0E0,0E0,0E0,0E0,0E0,0E0,0E0,0E0,0E0,0E0,0E0,0E0,0E0,0E0,0E0,0E0,0E0,0E0,0E0,0E0,0E0,0E0,0E0,0E0,0E0,0E0,0E0,0E0,0E0,0E0,0E0,0E0,0E0,0E0,0E0,0E0,0E0,0E0,0E0,0E0,0E0,0E0,0E0,0E0,0E0,0E0,0E0,0E0,0E0,0E0,0E0,0E0,0E0,0E0,0E0,0E0,0E0,0E0,0E0,0E0,0E0,0E0,0E0,0E0,0E0,0E0,0E0,0E0,0E0,0E0,0E0,0E0,0E0],"parents":[2147483647,0,0,1,1,2,2,3,3,4,4,5,5,6,6,7,7,8,8,9,9,10,10,11,11,12,12,13,13,14,14,15,15,16,16,17,17,18,18,19,19,20,20,21,21,22,22,23,23,24,24,25,25,26,26,27,27,28,28,29,29,30,30,31,31,32,32,33,33,34,34,35,35,36,36,37,37,38,38,39,39,40,40,41,41,42,42,43,43,44,44,45,45,46,46,47,47,48,48,49,49,50,50,51,51,52,52,53,53,54,54,55,55,56,56,57,57,58,58,59,59,60,60,61,61,62,62,63,63,64,64,65,65,66,66,67,67,68,68,69,69,70,70,71,71,72,72,73,73,74,74,75,75,76,76,77,77,78,78,79,79,80,80,81,81,82,82,83,83,84,84,85,85,86,86,87,87,88,88,89,89,90,90,91,91,92,92,93,93,94,94,95,95,96,96,97,97,98,98,99,99,100,100,101,101,102,102,103,103,104,104,105,105,106,106,107,107,108,108,109,109,110,110,111,111,112,112,113,113,114,114,115,115,116,116,117,117,118,118,119,119,120,120,121,121,122,122,123,123,124,124,125,125,126,126,127,127,128,128,129,129,130,130,131,131,132,132,133,133,134,134,135,135,136,136,137,137,138,138,139,139,140,140,141,141,142,142,143,143,144,144,145,145,146,146,147,147,148,148,149,149,150,150,151,151,152,152,153,153,154,154,155,155,156,156,157,157,158,158,159,159,160,160,161,161,162,162,163,163,164,164,165,165,166,166,167,167,168,168,169,169,170,170,171,171,172,172,173,173,174,174,175,175,176,176,177,177,178,178,179,179,180,180,181,181,182,182,183,183,184,184,185,185,186,186,187,187,188,188,189,189,190,190,191,191,192,192,193,193,194,194,195,195,196,196,197,197,198,198,199,199,200,200,201,201,202,202,203,203,204,204,205,205,206,206,207,207,208,208,209,209,210,210,211,211,212,212,213,213,214,214,215,215,216,216,217,217,218,218,219,219,220,220,221,221,222,222,223,223,224,224,225,225,226,226,227,227,228,228,229,229,230,230,231,231,232,232,233,233,234,234,235,235,236,236,237,237,238,238,239,239,240,240,241,241,242,242,243,243,244,244,245,245,246,246,247,247,248,248,249,249,250,250,251,251,252,252,253,253,254,254],"right_children":[2,4,6,8,10,12,14,16,18,20,22,24,26,28,30,32,34,36,38,40,42,44,46,48,50,52,54,56,58,60,62,64,66,68,70,72,74,76,78,80,82,84,86,88,90,92,94,96,98,100,102,104,106,108,110,112,114,116,118,120,122,124,126,128,130,132,134,136,138,140,142,144,146,148,150,152,154,156,158,160,162,164,166,168,170,172,174,176,178,180,182,184,186,188,190,192,194,196,198,200,202,204,206,208,210,212,214,216,218,220,222,224,226,228,230,232,234,236,238,240,242,244,246,248,250,252,254,256,258,260,262,264,266,268,270,272,274,276,278,280,282,284,286,288,290,292,294,296,298,300,302,304,306,308,310,312,314,316,318,320,322,324,326,328,330,332,334,336,338,340,342,344,346,348,350,352,354,356,358,360,362,364,366,368,370,372,374,376,378,380,382,384,386,388,390,392,394,396,398,400,402,404,406,408,410,412,414,416,418,420,422,424,426,428,430,432,434,436,438,440,442,444,446,448,450,452,454,456,458,460,462,464,466,468,470,472,474,476,478,480,482,484,486,488,490,492,494,496,498,500,502,504,506,508,510,-1,-1,-1,-1,-1,-1,-1,-1,-1,-1,-1,-1,-1,-1,-1,-1,-1,-1,-1,-1,-1,-1,-1,-1,-1,-1,-1,-1,-1,-1,-1,-1,-1,-1,-1,-1,-1,-1,-1,-1,-1,-1,-1,-1,-1,-1,-1,-1,-1,-1,-1,-1,-1,-1,-1,-1,-1,-1,-1,-1,-1,-1,-1,-1,-1,-1,-1,-1,-1,-1,-1,-1,-1,-1,-1,-1,-1,-1,-1,-1,-1,-1,-1,-1,-1,-1,-1,-1,-1,-1,-1,-1,-1,-1,-1,-1,-1,-1,-1,-1,-1,-1,-1,-1,-1,-1,-1,-1,-1,-1,-1,-1,-1,-1,-1,-1,-1,-1,-1,-1,-1,-1,-1,-1,-1,-1,-1,-1,-1,-1,-1,-1,-1,-1,-1,-1,-1,-1,-1,-1,-1,-1,-1,-1,-1,-1,-1,-1,-1,-1,-1,-1,-1,-1,-1,-1,-1,-1,-1,-1,-1,-1,-1,-1,-1,-1,-1,-1,-1,-1,-1,-1,-1,-1,-1,-1,-1,-1,-1,-1,-1,-1,-1,-1,-1,-1,-1,-1,-1,-1,-1,-1,-1,-1,-1,-1,-1,-1,-1,-1,-1,-1,-1,-1,-1,-1,-1,-1,-1,-1,-1,-1,-1,-1,-1,-1,-1,-1,-1,-1,-1,-1,-1,-1,-1,-1,-1,-1,-1,-1,-1,-1,-1,-1,-1,-1,-1,-1,-1,-1,-1,-1,-1,-1,-1,-1,-1,-1,-1,-1,-1,-1,-1,-1,-1,-1],"split_conditions":[9.5E2,1.998E3,7.1E1,7.6E1,7.6E1,1.99E3,3.49E2,3.34E2,4.08E2,2.62E2,3.63E2,2.8E2,5.1E1,8.3E1,1.01E2,6.1E1,5.12E2,8.5E1,9.1E1,6.2E1,7.4E2,8.6E1,2.33E2,5.9E1,6.1E1,1.16E2,2E2,2.001E3,3.003E3,4.87E2,5.85E2,2.12E2,2.58E2,2.4E1,3.4E1,3.34E2,3.7E2,5.26E2,4.87E2,1.49E2,1.59E2,3.61E2,3.34E2,2.8E2,2.67E2,1.474E3,1.726E3,2.14E2,6E0,1E1,3.37E2,3.7E1,1.509E3,1.819E3,1.505E3,3.06E2,2.28E2,9.3E1,1.03E2,8.6E1,1.62E3,1.15E2,1.17E2,4.8E1,5.12E2,6E0,6.8E1,1.9E1,1.993E3,6.7E1,4.14E2,1.15E2,8.18E2,9E1,1E2,8.6E1,5.33E2,1.01E2,1.16E2,4.9E1,5.6E1,2.35E3,2.6E1,6.7E1,1.5E2,6.1E1,7E0,1.97E2,2.6E1,9.3E1,9.6E1,1.92E2,2.12E2,2.57E2,3.26E2,3.7E1,5.1E1,1.94E2,8E0,4E0,1.5E1,6E0,1.988E3,9E0,1.999E3,1.25E2,2.6E1,2.6E1,1.3E2,6.1E1,3E0,1.97E2,2.6E1,1.59E2,2.6E1,2.23E2,9.9E1,2.47E2,2.003E3,2.6E1,1.998E3,5.28E2,2E0,4.74E2,1.23E2,6.78E2,7.62E2,1.16E2,1.55E2,2.4E1,5.6E1,1.09E2,8.05E2,2E0,8.1E2,6.9E1,1.996E3,9E0,3.7E2,2E1,3.67E2,7.1E1,2.6E1,2.6E1,2.82E2,6.55E2,7.05E2,3.34E2,1.152E3,8.4E1,2.64E2,6E0,1.99E3,2.78E2,8.6E1,1.99E3,1.04E2,6.36E2,7.84E2,3.7E1,8.3E1,7.2E2,2.6E1,7.5E2,1.16E2,6.9E1,2.7E1,6.1E1,2.6E1,2.4E1,2.6E1,8.3E1,2.6E1,2.6E1,8.4E2,1.8E2,2.917E3,8E1,2.7E1,2.8E1,6.61E3,2.001E3,2.846E3,1.056E3,1.302E3,2.125E3,1.597E3,1.536E3,2.67E2,2.053E3,1.44E3,6E0,1.3E2,2E1,1.988E3,4E0,4E0,2.39E2,2.12E2,1.4E1,8E0,6E0,1.2E1,2.35E2,1.988E3,3.92E2,6E0,2E0,6.7E1,9.4E1,1.4E1,4E0,4.2E1,2.04E3,4E0,1.55E2,2.003E3,3.935E3,6E1,1.86E2,2.62E2,3.26E2,6E0,4.4E1,7.4E1,1.76E2,2.55E2,7.4E1,2.13E2,3.16E2,2.7E1,2E3,2.24E2,2.001E3,2.8E1,1.8E2,2.003E3,3.25E2,1.11E2,1.998E3,2.7E1,4.49E2,1.63E2,9.1E1,2.001E3,1.905E3,9.1E1,2.784E3,1E2,1E2,1.723E3,2.001E3,1.61E3,1.35E2,1.56E2,-2.4840947E-2,-1.7999999E-1,2.8401896E-1,-4.56218E-3,-2.6821876E-1,1.344065E-1,-2.330301E-1,-1.4311306E-1,-6.887573E-2,1.888742E-1,2.9670882E-1,1.6235057E-1,-3.054164E-1,-6.295553E-2,1.7157158E-1,3.4109842E-2,-3.6890385E-1,-2.1478726E-1,1.0806729E-1,-1.6375904E-1,2.3343371E-1,-2.8396096E-2,3.478236E-1,7.081058E-2,-3.160369E-1,-1.4136308E-1,1.534716E-1,-1.0570726E-1,-2.3569392E-1,-1.5251094E-1,-2.8540418E-1,-3.4582973E-1,4.0977314E-1,1.7144202E-1,3.6926648E-1,2.6843205E-1,9.9363826E-2,3.2595766E-1,-2.639939E-1,2.1899201E-2,3.7041324E-1,2.7856255E-1,3.9859873E-1,-2.3595436E-1,2.7659607E-1,-4.7807958E-2,3.8624772E-1,2.296858E-1,-2.8193876E-1,-1.4361861E-1,1.35065E-1,-4.8430968E-2,-2.866474E-1,-6.538783E-2,-3.6353964E-1,-3.000173E-1,3.6571676E-1,1.6462532E-1,3.1631303E-1,4.0854856E-1,-2.7710577E-2,-2.1604188E-1,1.652769E-1,-1.0315886E-3,-2.6166248E-1,-1.6202998E-1,3.5371006E-1,-9.434558E-3,-2.759468E-1,-2.0836829E-1,-1.9503465E-1,-4.9292512E-2,4.3682602E-1,2.7758554E-1,2.879929E-1,7.497688E-2,-1.1199168E-1,-4.5785825E-3,1.7066073E-1,-9.975849E-2,-2.965217E-1,-2.4916692E-1,-2.211139E-1,-1.3386205E-1,-1.0791499E-1,1.9471319E-1,-1.944684E-1,-3.2496595E-1,-2.9612437E-1,-2.1980013E-1,-1.7216864E-1,-7.396372E-2,-2.3543262E-1,-1.8986806E-1,-3.0305627E-1,-2.5557777E-1,3.6528897E-1,2.160174E-1,1.5352681E-1,1.2466571E-2,-1.236736E-1,-2.5181351E-2,3.551535E-1,-1.4732257E-1,3.177784E-1,-8.817353E-3,3.9712223E-1,2.5777E-1,2.4523254E-1,9.622136E-2,3.634782E-1,1.740058E-1,-9.841719E-2,-2.3208183E-1,2.7820012E-1,-6.2004395E-2,-3.713286E-1,-8.1196606E-2,-9.883083E-2,-2.9727066E-1,3.7410876E-1,3.472155E-2,3.2978785E-1,5.267883E-1,-1.5355022E-2,-1.9709608E-1,4.738839E-2,3.6051634E-1,-1.7179382E-1,1.109268E-3,3.015043E-1,9.4682105E-2,-2.0084849E-1,-1.1272901E-1,1.7696078E-1,-2.8924098E-2,4.2166933E-1,6.021862E-2,8.7724224E-2,-8.046948E-2,4.8990363E-1,3.414957E-1,3.6174837E-1,2.2572976E-1,-7.35585E-2,-1.8168737E-1,-2.7487773E-1,-1.914198E-1,-2.5586048E-1,-1.4142886E-1,-8.774408E-2,8.323233E-2,-8.911643E-2,-2.4883687E-1,2.5593176E-1,8.95011E-2,9.2405945E-2,-7.1439505E-2,-2.5868252E-1,-1.4132471E-1,-2.4558094E-1,-4.328923E-2,-1.1012593E-1,-2.0456727E-1,2.7475628E-1,4.4391252E-2,4.4759843E-2,-8.1289485E-2,6.654265E-2,-1.3724744E-1,-2.3685838E-1,-1.6728275E-1,-1.449506E-1,-6.922774E-2,-1.2209044E-1,2.7858108E-2,2.3555408E-1,5.6445338E-2,4.561446E-1,2.2187673E-1,4.339651E-2,2.2392222E-1,-8.736611E-2,3.96261E-2,-3.2255724E-2,-1.5433353E-1,8.7982565E-3,-1.0670385E-1,-6.38777E-2,-1.4860654E-1,1.9814834E-2,-6.0939953E-2,3.0291396E-1,3.9777923E-1,1.7991279E-1,2.64527E-1,1.7423132E-1,4.1902617E-2,4.3284747E-1,2.756087E-1,3.1818938E-1,3.8232407E-1,1.4635886E-1,2.867156E-1,3.775633E-2,-6.002341E-2,2.4438164E-1,-3.7445344E-2,3.707434E-1,2.839009E-1,-1.8058011E-3,2.8070578E-1,3.8275164E-1,3.253286E-1,4.025521E-1,1.5118015E-1,4.031368E-1,2.753419E-1,-5.1896334E-2,1.5138009E-1,3.4900445E-1,5.648132E-2,3.3826366E-1,3.9893186E-1,-2.5305798E-2,-1.1990935E-1,5.902642E-2,-2.2887358E-1,2.2949882E-1,1.1116805E-1,-2.3397371E-2,1.1957334E-1,-1.534269E-1,-4.256882E-4,-1.2738901E-1,-1.8603653E-1,-2.3237619E-1,-1.17528036E-1,-9.615378E-2,-3.548547E-2,3.3370578E-1,1.9823496E-1,3.5795275E-2,1.9585209E-1,2.4625553E-1,3.556003E-1,4.1430572E-1,3.6242104E-1,2.5766425E-2,-7.6076865E-2,-1.7869328E-1,-8.586817E-2,9.811568E-2,3.0555668E-1,-4.3953985E-2,6.414749E-2],"split_indices":[2,12,0,0,0,12,6,6,6,6,6,6,0,0,0,0,1,0,0,0,2,0,0,0,0,6,6,12,8,6,6,6,6,1,10,6,6,6,6,6,6,6,6,6,6,6,6,6,11,9,6,0,2,8,2,6,6,0,0,0,2,0,0,0,1,11,0,3,12,0,6,10,1,0,5,0,6,0,0,0,0,8,11,0,2,0,4,6,11,0,0,0,0,0,0,0,0,6,11,9,3,11,12,11,12,8,11,11,6,0,4,6,11,6,11,5,0,6,12,11,12,6,11,6,0,6,6,6,6,1,0,5,1,11,1,0,12,11,6,10,6,0,11,10,6,2,2,6,1,5,10,11,12,5,0,12,0,6,6,0,6,2,11,1,6,0,11,0,11,1,10,10,11,11,2,6,8,0,11,11,8,12,8,6,6,6,6,6,0,6,1,11,6,11,12,11,11,6,6,3,11,11,9,5,12,6,11,11,6,6,11,11,0,2,4,6,12,8,0,8,6,6,4,5,0,5,10,0,10,6,11,12,5,12,11,6,12,6,0,12,11,6,5,0,12,2,0,8,5,5,1,12,2,0,0,0,0,0,0,0,0,0,0,0,0,0,0,0,0,0,0,0,0,0,0,0,0,0,0,0,0,0,0,0,0,0,0,0,0,0,0,0,0,0,0,0,0,0,0,0,0,0,0,0,0,0,0,0,0,0,0,0,0,0,0,0,0,0,0,0,0,0,0,0,0,0,0,0,0,0,0,0,0,0,0,0,0,0,0,0,0,0,0,0,0,0,0,0,0,0,0,0,0,0,0,0,0,0,0,0,0,0,0,0,0,0,0,0,0,0,0,0,0,0,0,0,0,0,0,0,0,0,0,0,0,0,0,0,0,0,0,0,0,0,0,0,0,0,0,0,0,0,0,0,0,0,0,0,0,0,0,0,0,0,0,0,0,0,0,0,0,0,0,0,0,0,0,0,0,0,0,0,0,0,0,0,0,0,0,0,0,0,0,0,0,0,0,0,0,0,0,0,0,0,0,0,0,0,0,0,0,0,0,0,0,0,0,0,0,0,0,0,0,0,0,0,0,0,0,0,0,0,0,0,0,0,0,0,0,0,0,0,0,0,0,0,0,0,0,0,0,0,0,0,0,0,0,0,0,0,0],"split_type":[0,0,0,0,0,0,0,0,0,0,0,0,0,0,0,0,0,0,0,0,0,0,0,0,0,0,0,0,0,0,0,0,0,0,0,0,0,0,0,0,0,0,0,0,0,0,0,0,0,0,0,0,0,0,0,0,0,0,0,0,0,0,0,0,0,0,0,0,0,0,0,0,0,0,0,0,0,0,0,0,0,0,0,0,0,0,0,0,0,0,0,0,0,0,0,0,0,0,0,0,0,0,0,0,0,0,0,0,0,0,0,0,0,0,0,0,0,0,0,0,0,0,0,0,0,0,0,0,0,0,0,0,0,0,0,0,0,0,0,0,0,0,0,0,0,0,0,0,0,0,0,0,0,0,0,0,0,0,0,0,0,0,0,0,0,0,0,0,0,0,0,0,0,0,0,0,0,0,0,0,0,0,0,0,0,0,0,0,0,0,0,0,0,0,0,0,0,0,0,0,0,0,0,0,0,0,0,0,0,0,0,0,0,0,0,0,0,0,0,0,0,0,0,0,0,0,0,0,0,0,0,0,0,0,0,0,0,0,0,0,0,0,0,0,0,0,0,0,0,0,0,0,0,0,0,0,0,0,0,0,0,0,0,0,0,0,0,0,0,0,0,0,0,0,0,0,0,0,0,0,0,0,0,0,0,0,0,0,0,0,0,0,0,0,0,0,0,0,0,0,0,0,0,0,0,0,0,0,0,0,0,0,0,0,0,0,0,0,0,0,0,0,0,0,0,0,0,0,0,0,0,0,0,0,0,0,0,0,0,0,0,0,0,0,0,0,0,0,0,0,0,0,0,0,0,0,0,0,0,0,0,0,0,0,0,0,0,0,0,0,0,0,0,0,0,0,0,0,0,0,0,0,0,0,0,0,0,0,0,0,0,0,0,0,0,0,0,0,0,0,0,0,0,0,0,0,0,0,0,0,0,0,0,0,0,0,0,0,0,0,0,0,0,0,0,0,0,0,0,0,0,0,0,0,0,0,0,0,0,0,0,0,0,0,0,0,0,0,0,0,0,0,0,0,0,0,0,0,0,0,0,0,0,0,0,0,0,0,0,0,0,0,0,0,0,0,0,0,0,0,0,0,0,0,0,0,0,0,0,0,0,0,0,0,0,0,0,0,0,0,0,0,0,0,0,0,0,0,0,0,0],"sum_hessian":[2.2274274E7,6.0009055E6,1.6273369E7,2.4855025E6,3.515403E6,4.24764E6,1.2025729E7,7.618186E5,1.723684E6,8.2835194E5,2.6870512E6,3.6026178E5,3.8873782E6,1.2112814E6,1.0814448E7,6.2939244E5,1.3242616E5,1.7253638E5,1.5511476E6,5.0613822E5,3.222137E5,1.9982117E5,2.48723E6,2.630858E5,9.717597E4,1.1007096E6,2.7866685E6,8.360229E5,3.7525844E5,2.7736845E6,8.040763E6,4.0844903E5,2.2094342E5,2.9599922E3,1.2946616E5,1.0859538E5,6.3941E4,1.4706588E5,1.4040818E6,3.5394294E5,1.521953E5,1.552086E5,1.6700511E5,1.2225472E5,7.756646E4,2.126962E6,3.602681E5,2.0700272E5,5.6083086E4,2.5757975E4,7.1418E4,3.9612675E5,7.0458294E5,5.38777E5,2.2478915E6,4.3095344E5,4.0506947E5,2.7782675E5,9.743167E4,1.804448E6,9.6923656E5,7.23193E5,7.31757E6,2.3780838E5,1.7064066E5,8.695852E4,1.3398489E5,4.4815018E2,2.511842E3,7.6612354E3,1.2180492E5,3.870355E4,6.989183E4,3.521513E4,2.872587E4,1.2031613E5,2.674974E4,5.8398523E4,1.3456832E6,1.26801125E5,2.2714181E5,1.5007149E4,1.3718814E5,1.1872893E5,3.6479664E4,1.0185102E5,6.515408E4,4.313717E4,7.911755E4,2.1197924E4,5.6368535E4,2.002412E6,1.2454987E5,7.582147E4,2.8444662E5,1.498443E5,5.715842E4,1.0180764E4,4.5902324E4,1.6002344E4,9.755631E3,4.3820176E4,2.7597822E4,1.7543803E5,2.2068872E5,2.9983497E5,4.0474797E5,2.865086E5,2.5226844E5,9.5215756E5,1.2957339E6,1.9837123E5,2.325822E5,8.116243E4,3.2390703E5,1.721839E5,1.0564286E5,7.7187125E4,2.024455E4,1.1349345E6,6.6951356E5,5.348945E5,4.3434206E5,5.1147616E5,2.1171684E5,9.622941E5,6.355276E6,1.450203E5,9.278808E4,5.3020947E3,1.6533856E5,2.2709016E4,6.4249508E4,7.389102E4,6.009387E4,3.4018457E2,1.079656E2,1.3616628E3,1.1501792E3,1.932226E3,5.72901E3,1.0288966E5,1.8915262E4,1.7519432E4,2.118412E4,1.8405334E4,5.1486496E4,1.612094E4,1.909419E4,1.4881941E4,1.3843927E4,7.83501E4,4.1966027E4,5.2789814E3,2.1470758E4,3.8466438E4,1.9932086E4,2.8625438E5,1.0594289E6,8.639986E4,4.040126E4,1.3576398E5,9.137783E4,4.6365625E3,1.0370587E4,1.1472941E5,2.2458736E4,5.5910277E4,6.2818652E4,9.972599E2,3.5482402E4,2.5755404E4,7.609562E4,5.5685246E4,9.468834E3,7.6188145E3,3.551836E4,6.4859066E4,1.4258482E4,9.891219E3,1.1306705E4,3.4439574E4,2.1928963E4,1.8618058E6,1.4060625E5,4.3357547E4,8.119232E4,5.5201094E4,2.0620377E4,2.0474962E5,7.969701E4,3.9662406E4,1.1018189E5,1.7202396E4,3.9956027E4,1.9925355E3,8.1882285E3,6.710956E3,3.9191367E4,6.103854E3,9.898489E3,4.559547E3,5.196084E3,8.541019E3,3.5279156E4,5.456431E3,2.214139E4,6.4071324E4,1.1136671E5,9.587172E4,1.24817E5,3.1654693E4,2.6818028E5,2.5857336E5,1.4617461E5,2.5759738E5,2.8911213E4,5.0709945E4,2.015585E5,3.7684712E5,5.7531044E5,3.813759E5,9.1435794E5,1.7662729E4,1.807085E5,2.1424003E5,1.8342158E4,1.1251072E4,6.991135E4,2.525194E5,7.1387625E4,9.673647E4,7.544744E4,3.9852094E4,6.5790766E4,1.9804635E4,5.738249E4,3.8769587E3,1.6367592E4,8.418876E5,2.930468E5,2.6103084E5,4.0848275E5,1.8176123E5,3.5313328E5,3.3054055E4,4.01288E5,1.3895505E5,3.7252112E5,1.06435484E5,1.0528136E5,6.447608E5,3.175333E5,1.00008594E6,5.35519E6,6.3587168E4,8.1433125E4,2.2243914E4,7.0544164E4,8.433667E2,4.458728E3,8.359673E4,8.1741836E4,1.494633E4,7.7626855E3,1.8235578E4,4.601393E4,5.024644E3,6.8866375E4,1.6502402E4,4.359147E4,7.531664E1,2.6486792E2,1.6779726E1,9.1185875E1,2.9716916E2,1.0644937E3,8.1042737E2,3.3975186E2,5.5253796E2,1.379688E3,2.7050425E3,3.0239673E3,5.5482926E4,4.740673E4,1.298494E4,5.9303228E3,1.4248618E3,1.6094569E4,8.442389E3,1.2741731E4,1.3926188E4,4.479145E3,4.893607E3,4.659289E4,8.396261E3,7.724679E3,1.9060344E4,3.3845985E1,7.9008115E3,6.9811304E3,9.816092E3,4.0278354E3,1.3869357E4,6.4480746E4,5.29354E3,3.667249E4,4.3156377E3,9.633435E2,6.548473E3,1.4922285E4,4.393374E3,3.4073062E4,5.924049E3,1.4008037E4,1.9694452E5,8.930987E4,1.7625144E5,8.831774E5,2.6205826E4,6.0194035E4,2.1982876E3,3.8202973E4,5.594148E4,7.982251E4,6.842635E4,2.2951477E4,1.0367189E3,3.5998438E3,2.7820862E3,7.5885005E3,6.921685E4,4.5512555E4,1.2698496E4,9.760239E3,2.2025566E4,3.388471E4,4.5478723E4,1.7339932E4,6.43115E2,3.5414493E2,1.052887E3,3.4429516E4,6.0361914E3,1.9719213E4,4.771172E4,2.8383902E4,2.5161006E4,3.0524238E4,4.547327E3,4.9215073E3,3.2923833E3,4.326431E3,2.1979727E4,1.3538631E4,3.0711414E4,3.414765E4,8.017959E3,6.240524E3,9.520095E3,3.7112366E2,1.0636973E4,6.697319E2,6.0375547E3,2.8402018E4,1.2895214E4,9.033748E3,1.6347324E6,2.270734E5,6.627551E4,7.433075E4,4.2014324E4,1.3432231E3,3.2050084E4,4.914224E4,1.8584234E4,3.661686E4,9.729587E3,1.0890789E4,9.807341E4,1.0667623E5,6.646224E4,1.3234766E4,8.607899E3,3.1054508E4,2.876004E4,8.142185E4,6.236401E3,1.0965996E4,7.933322E3,3.2022705E4,1.3821907E3,6.103448E2,4.5726084E3,3.6156204E3,3.5202153E3,3.190741E3,1.0183755E4,2.9007613E4,2.487137E3,3.616717E3,2.2032847E3,7.6952046E3,5.0500546E2,4.0545413E3,3.4875598E3,1.708524E3,6.239417E3,2.3016016E3,6.572941E3,2.8706215E4,4.0263137E3,1.4301174E3,2.6915405E3,1.9449852E4,8.281288E3,5.579004E4,2.0607275E4,9.075944E4,3.7221562E4,5.8650156E4,2.5764691E4,9.9052305E4,8.303164E3,2.335153E4,4.900092E4,2.1917934E5,1.8110872E5,7.746465E4,6.622711E4,7.99475E4,8.362866E4,1.7396872E5,1.5415532E4,1.349568E4,2.8734143E4,2.19758E4,1.1443783E5,8.712067E4,5.337054E4,3.234766E5,1.8346552E5,3.9184494E5,2.9123006E5,9.014587E4,5.631183E5,3.512396E5,4.736498E3,1.292623E4,6.959997E4,1.1110853E5,7.6436664E4,1.3780338E5,1.3879137E4,4.4630225E3,4.3794253E3,6.871647E3,5.602106E4,1.3890295E4,1.5543417E5,9.7085234E4,4.3535906E4,2.7851717E4,4.605717E4,5.0679297E4,1.0872491E4,6.4574945E4,2.1302223E4,1.8549871E4,6.5361676E4,4.2909155E2,3.8816724E3,1.5922961E4,7.524218E3,4.9858273E4,2.5684758E3,1.308483E3,6.9004087E3,9.467184E3,4.287063E5,4.1318134E5,2.6487822E5,2.8168607E4,1.6648056E5,9.455029E4,2.0621489E5,2.0226784E5,9.546803E4,8.62932E4,2.1083417E5,1.4229911E5,1.4813185E4,1.824087E4,1.409243E5,2.603637E5,1.0804496E5,3.091009E4,1.7513E5,1.9739112E5,5.7009176E4,4.9426305E4,4.4383137E4,6.0898227E4,3.4999484E5,2.9476597E5,1.7273245E5,1.4480088E5,6.8720175E5,3.1288422E5,1.7397506E6,3.6154392E6],"tree_param":{"num_deleted":"0","num_feature":"13","num_nodes":"511","size_leaf_vector":"1"}},{"base_weights":[2.58811E-4,-1.2712273E-1,7.116278E-2,-1.9186931E-3,-2.1503139E-1,-7.319917E-2,1.3646242E-1,4.0284775E-2,-2.9250288E-1,-3.497284E-1,-1.406477E-1,-3.1095762E-2,-2.7385893E-1,5.4607874E-1,9.191542E-2,3.067623E-1,-1.5704675E-3,-3.6811745E-1,-1.1931532E-1,-2.905261E-1,-6.923291E-1,5.517348E-1,-2.012431E-1,-1.4100687E-1,1.5003902E-1,-3.9910126E-1,-1.7789456E-1,3.8283455E-1,7.954202E-1,2.2065923E-1,8.598867E-3,-1.8951703E-2,4.0626833E-1,-1.8115315E-1,8.108317E-2,-4.4928485E-1,-1.3805383E-1,-2.9331183E-1,-1.9441798E-2,-3.7145525E-1,-1.1088891E-3,-8.51043E-1,-5.816633E-1,2.5658196E-1,9.965744E-1,-4.9521E-1,-1.3066909E-1,-7.613448E-2,-2.533104E-1,3.079656E-1,3.7537433E-2,-4.2951205E-1,-4.896377E-2,-2.9367292E-1,-1.2878705E-2,5.8504087E-1,2.6154104E-1,9.9477726E-1,6.6532755E-1,-7.600014E-2,2.6726508E-1,-1.4407854E-1,5.7648264E-2,-1.3954242E-1,1.3580818E-1,7.121574E-1,3.349371E-1,-5.1530087E-3,-2.844709E-1,6.954503E-1,4.70815E-2,-4.0854976E-1,-8.4511566E-1,9.2242926E-1,-2.1523574E-1,-2.0252237E-1,-5.079416E-1,5.6377727E-1,-6.2268678E-2,-3.058669E-1,-4.9938804E-1,4.7470915E-1,-1.1144036E-1,-8.8729836E-2,-8.717136E-1,-5.2652097E-1,-7.879512E-1,5.886722E-1,7.0647985E-2,8.34391E-1,1.2571278E0,-3.238143E-1,-7.48461E-1,6.783128E-1,-1.9647837E-1,-5.324914E-1,-5.0536074E-2,-3.4228867E-1,-1.8420546E-1,5.053433E-1,1.1223575E-1,-6.413897E-2,3.400622E-1,-3.9225107E-1,-6.4668906E-1,-4.181984E-1,3.974752E-1,-1.6109595E-1,-4.1861963E-1,1.25084E-1,-1.5671767E-1,8.135432E-1,4.2539304E-1,5.6702906E-1,1.7964645E-1,8.772227E-1,1.1421242E0,5.361795E-1,9.2646396E-1,9.602433E-2,-2.7301165E-1,6.577345E-1,2.3485468E-1,-2.137315E-1,7.055375E-2,4.5698553E-1,5.4477616E-3,-5.176282E-1,-8.638402E-2,7.660018E-1,9.037927E-3,9.37951E-1,3.6162624E-1,4.3994063E-1,1.9741747E-1,-3.4691817E-1,2.3819242E-1,-5.0672436E-1,-1.7447802E-1,4.7336084E-1,1.0279856E0,6.191168E-3,3.4631917E-1,-4.4503593E-1,1.7058764E-1,-4.6645775E-1,-9.2252517E-1,7.322939E-1,1.377578E0,-3.6847422E-1,3.422418E-2,-3.3251143E-1,1.512489E-1,-4.3771625E-1,-7.9682213E-1,3.567244E-1,9.132115E-1,-4.0256125E-1,-7.5391787E-3,-4.1079894E-1,-2.6895238E-2,-6.280514E-1,-4.2439955E-1,6.518644E-1,2.415191E-1,-2.2746275E-1,3.1443864E-1,-3.3319846E-1,1.0842746E0,-8.092046E-1,-1.0379972E0,-6.4197767E-1,-3.7572077E-1,-8.7018675E-1,-6.50024E-1,1.06332E0,5.016809E-1,-1.5262991E-1,3.7714565E-1,9.746292E-1,6.19474E-1,1.4135741E0,1.0442467E0,-5.867458E-1,-8.859681E-2,-8.906169E-1,-5.6005484E-1,4.1679132E-1,1.3181382E0,-5.1443124E-1,-1.0736356E-1,-2.1422657E-1,-6.6072094E-1,3.4513406E-2,-2.0238683E-1,-4.4982296E-1,-2.8108343E-1,-7.360827E-2,-3.0051365E-1,1.09194726E-1,6.1079687E-1,-6.539505E-2,3.3011875E-1,5.734423E-1,-1.2433285E-1,5.1424384E-1,-1.7362307E-1,-8.238431E-1,-3.7480187E-1,-5.905489E-1,-7.9584175E-1,3.7417954E-1,-4.6988153E-1,1.4852372E-1,7.749129E-1,-6.2104696E-1,-1.2844674E-1,-5.6974584E-1,-2.724842E-1,-9.776098E-2,3.449737E-1,-4.985814E-1,1.2928763E-1,1.1846007E0,7.533824E-1,-3.828311E-1,4.8437122E-1,3.636802E-1,7.7903163E-1,8.7334536E-2,5.37896E-1,1.0401934E0,7.7595675E-1,1.1696758E0,9.4892514E-1,8.8193536E-1,4.6219477E-1,1.1264366E0,7.106285E-1,-3.3306202E-1,1.7357874E-1,-3.7813836E-1,-4.729171E-2,5.2031076E-1,9.905696E-1,1.923926E-2,2.944925E-1,6.845039E-2,-2.5782266E-1,1.8639804E-1,-3.6562195E-1,3.2546875E-1,1.0200611E0,-1.2144762E-1,1.16418265E-1,-5.7977796E-2,-2.2316602E-1,3.4387636E-1,-3.7520066E-2,2.1738313E-1,5.0697374E-1,-5.6055415E-2,9.7032E-2,3.7660262E-1,2.3964426E-1,6.9337696E-2,1.7815658E-1,2.1546188E-1,9.757591E-2,2.773722E-2,1.0109445E-1,1.2694736E-1,-1.2833658E-1,2.7807904E-2,1.2537308E-1,-1.0255295E-1,-1.9135815E-1,-3.4482155E-2,-1.5997615E-1,2.0834537E-1,5.978052E-2,2.6150662E-1,3.5084242E-1,9.766618E-3,-2.6681852E-1,2.751061E-1,3.5362452E-2,-9.115383E-2,-1.7198153E-1,1.816914E-1,-7.050112E-2,-1.0323409E-1,-3.655551E-1,-3.452265E-1,-2.4212056E-1,3.4167632E-1,1.45289E-1,3.775672E-1,4.579876E-1,-7.719089E-2,-3.2785618E-1,2.7826193E-1,-2.7015973E-2,-5.9682306E-2,-1.6125928E-1,1.7310911E-1,5.112828E-3,-2.1717682E-1,-8.689684E-2,-2.9181844E-1,-2.180071E-1,2.2172421E-1,4.3792114E-2,3.0846053E-1,1.8532562E-1,-5.6688905E-2,-1.8677357E-1,1.6521832E-1,-1.6120112E-2,-1.4559631E-1,-8.485886E-2,1.0527747E-1,-3.735359E-2,-1.5794875E-1,-2.1695913E-1,-1.5494405E-1,-9.8834924E-2,1.3146637E-1,2.5272128E-1,1.7648625E-1,6.9169747E-4,-1.6203068E-2,-1.3150366E-1,1.6529809E-1,-8.6243786E-2,-2.1988815E-1,-3.0205112E-2,-8.88952E-2,3.4878668E-1,-2.7789062E-1,-1.985832E-1,-2.4146736E-1,-3.1856453E-1,-1.8219145E-1,-2.813038E-1,-1.6811588E-1,-6.852035E-2,-1.1873201E-1,-2.6930702E-1,-1.544988E-1,-2.3326837E-1,3.4293568E-1,2.2790447E-1,2.8419143E-1,1.24294564E-1,8.614078E-2,-1.05105065E-1,7.929817E-2,2.9346925E-1,3.2815194E-1,1.9891872E-1,3.5021898E-1,1.7239635E-1,3.7747276E-1,4.398527E-1,3.3251753E-1,5.365952E-2,-2.5110626E-1,-1.491613E-1,-6.141496E-2,8.344288E-2,-2.315506E-1,-3.1033814E-1,-1.0851671E-1,-2.0206882E-1,2.1826768E-1,3.494366E-2,3.3056644E-1,4.5377675E-1,-8.9811474E-2,-2.0922242E-1,1.7797208E-1,-5.73183E-2,-1.5312311E-1,7.981407E-2,-2.2392516E-1,-1.1279809E-1,-2.0379832E-2,9.213128E-2,-1.0649857E-1,-2.5777679E-2,-1.03127666E-1,-1.5951288E-1,-1.471111E-1,-7.389215E-2,-4.550722E-2,2.179246E-2,-1.3433023E-1,-5.1742658E-2,2.3139903E-1,-8.807371E-3,2.972683E-1,1.3212767E-1,-5.7161465E-2,1.09348334E-1,-2.2881373E-3,1.261986E-1,1.3521649E-1,2.555701E-1,-7.1031325E-2,9.216655E-3,2.1636851E-1,9.305018E-2,8.7365836E-2,-1.0570528E-1,-1.877668E-2,-2.5324842E-1,-9.2609406E-2,-1.4642982E-1,-1.9868359E-1,-1.451132E-1,-1.7362508E-1,-2.8830695E-1,6.914137E-2,2.7252626E-1,-1.0926046E-1,-2.0035355E-1,2.2512783E-1,8.977396E-3,1.5639916E-1,3.409037E-1,-2.2683637E-1,-1.3283804E-1,2.458652E-2,-7.172674E-2,5.1346165E-3,-1.756884E-1,-1.247611E-1,-2.5313372E-2,-7.982176E-2,4.556573E-2,1.1227129E-1,-1.8639097E-1,-1.03690855E-1,-2.048426E-1,8.9788996E-2,-1.5946755E-2,2.7267998E-1,3.827562E-1,2.5771505E-1,1.637888E-1,1.4557397E-1,-2.5266987E-1,-3.0099664E-2,1.5831211E-1,2.2671999E-1,2.32989E-2,2.6002467E-1,1.24632604E-1,1.6122496E-1,1.2348021E-2,2.5797102E-1,-3.578557E-2,2.9170936E-1,3.5428897E-1,1.7900932E-1,2.850993E-1,3.322037E-1,3.6479437E-1,2.1814786E-1,3.74358E-1,2.1606721E-1,3.2584906E-1,1.5955584E-1,4.353536E-2,3.0441034E-1,3.6732012E-1,7.196989E-2,2.7799055E-1,2.707225E-1,-1.23300195E-1,1.9151561E-1,4.4065574E-3,-1.5721168E-1,-7.287181E-2,2.9739466E-2,-6.815707E-2,3.132786E-1,1.3385889E-1,2.3269743E-1,3.5870588E-1,6.387222E-2,-4.749416E-2,2.4057129E-1,7.155874E-2,2.049599E-1,-5.418799E-3,-1.13840856E-1,-5.223386E-2,1.9871657E-1,3.0293109E-2,-1.7783041E-1,-6.930426E-2,2.0426263E-1,6.471699E-2,2.6475665E-1,3.6570972E-1,-1.5408379E-2,-1.3962075E-1,2.2883095E-1,-2.973023E-3],"categories":[],"categories_nodes":[],"categories_segments":[],"categories_sizes":[],"default_left":[0,0,0,0,0,0,0,0,0,0,0,0,0,0,0,0,0,0,0,0,0,0,0,0,0,0,0,0,0,0,0,0,0,0,0,0,0,0,0,0,0,0,0,0,0,0,0,0,0,0,0,0,0,0,0,0,0,0,0,0,0,0,0,0,0,0,0,0,0,0,0,0,0,0,0,0,0,0,0,0,0,0,0,0,0,0,0,0,0,0,0,0,0,0,0,0,0,0,0,0,0,0,0,0,0,0,0,0,0,0,0,0,0,0,0,0,0,0,0,0,0,0,0,0,0,0,0,0,0,0,0,0,0,0,0,0,0,0,0,0,0,0,0,0,0,0,0,0,0,0,0,0,0,0,0,0,0,0,0,0,0,0,0,0,0,0,0,0,0,0,0,0,0,0,0,0,0,0,0,0,0,0,0,0,0,0,0,0,0,0,0,0,0,0,0,0,0,0,0,0,0,0,0,0,0,0,0,0,0,0,0,0,0,0,0,0,0,0,0,0,0,0,0,0,0,0,0,0,0,0,0,0,0,0,0,0,0,0,0,0,0,0,0,0,0,0,0,0,0,0,0,0,0,0,0,0,0,0,0,0,0,0,0,0,0,0,0,0,0,0,0,0,0,0,0,0,0,0,0,0,0,0,0,0,0,0,0,0,0,0,0,0,0,0,0,0,0,0,0,0,0,0,0,0,0,0,0,0,0,0,0,0,0,0,0,0,0,0,0,0,0,0,0,0,0,0,0,0,0,0,0,0,0,0,0,0,0,0,0,0,0,0,0,0,0,0,0,0,0,0,0,0,0,0,0,0,0,0,0,0,0,0,0,0,0,0,0,0,0,0,0,0,0,0,0,0,0,0,0,0,0,0,0,0,0,0,0,0,0,0,0,0,0,0,0,0,0,0,0,0,0,0,0,0,0,0,0,0,0,0,0,0,0,0,0,0,0,0,0,0,0,0,0,0,0,0,0,0,0,0,0,0,0,0,0,0,0,0,0,0,0,0,0,0,0,0,0,0,0,0,0,0,0,0,0,0,0,0,0,0,0,0,0,0,0,0,0,0,0,0,0,0,0,0,0,0,0,0,0,0,0,0,0,0,0,0,0,0,0,0,0,0,0,0,0,0,0,0,0,0,0,0,0,0,0,0,0,0,0,0,0],"id":3,"left_children":[1,3,5,7,9,11,13,15,17,19,21,23,25,27,29,31,33,35,37,39,41,43,45,47,49,51,53,55,57,59,61,63,65,67,69,71,73,75,77,79,81,83,85,87,89,91,93,95,97,99,101,103,105,107,109,111,113,115,117,119,121,123,125,127,129,131,133,135,137,139,141,143,145,147,149,151,153,155,157,159,161,163,165,167,169,171,173,175,177,179,181,183,185,187,189,191,193,